{"learner":{"attributes":{"best_iteration":"162","best_score":"0.6223773811187008"},"feature_names":["distance","diff_time_ratio","is_home_team","precipitation","wind_speed","temperature","yards_to_goal","offense_pass_success_adjusted","offense_rush_success_adjusted","offense_strength","defense_strength"],"feature_types":["int","float","int","float","float","float","int","float","float","float","float"],"gradient_booster":{"model":{"gbtree_model_param":{"num_parallel_tree":"1","num_trees":"173"},"iteration_indptr":[0,1,2,3,4,5,6,7,8,9,10,11,12,13,14,15,16,17,18,19,20,21,22,23,24,25,26,27,28,29,30,31,32,33,34,35,36,37,38,39,40,41,42,43,44,45,46,47,48,49,50,51,52,53,54,55,56,57,58,59,60,61,62,63,64,65,66,67,68,69,70,71,72,73,74,75,76,77,78,79,80,81,82,83,84,85,86,87,88,89,90,91,92,93,94,95,96,97,98,99,100,101,102,103,104,105,106,107,108,109,110,111,112,113,114,115,116,117,118,119,120,121,122,123,124,125,126,127,128,129,130,131,132,133,134,135,136,137,138,139,140,141,142,143,144,145,146,147,148,149,150,151,152,153,154,155,156,157,158,159,160,161,162,163,164,165,166,167,168,169,170,171,172,173],"tree_info":[0,0,0,0,0,0,0,0,0,0,0,0,0,0,0,0,0,0,0,0,0,0,0,0,0,0,0,0,0,0,0,0,0,0,0,0,0,0,0,0,0,0,0,0,0,0,0,0,0,0,0,0,0,0,0,0,0,0,0,0,0,0,0,0,0,0,0,0,0,0,0,0,0,0,0,0,0,0,0,0,0,0,0,0,0,0,0,0,0,0,0,0,0,0,0,0,0,0,0,0,0,0,0,0,0,0,0,0,0,0,0,0,0,0,0,0,0,0,0,0,0,0,0,0,0,0,0,0,0,0,0,0,0,0,0,0,0,0,0,0,0,0,0,0,0,0,0,0,0,0,0,0,0,0,0,0,0,0,0,0,0,0,0,0,0,0,0,0,0,0,0,0,0],"trees":[{"base_weights":[4.1813604E-3,5.649421E-1,-5.6273586E-1,-3.7858889E-1,-1.184399E0,7.353914E-1,1.4502993E-1,-3.4270998E-2,-1.1859344E-2,3.0709857E-2,4.551759E-2,4.81926E-4,2.1249337E-2,-5.5406906E-2,-8.3715E-2],"categories":[],"categories_nodes":[],"categories_segments":[],"categories_sizes":[],"default_left":[0,0,0,0,0,0,0,0,0,0,0,0,0,0,0],"id":0,"left_children":[1,5,3,7,13,9,11,-1,-1,-1,-1,-1,-1,-1,-1],"loss_changes":[1.4247395E3,1.6110187E2,2.5446185E2,7.4449036E1,1.6261536E1,3.314734E1,2.4720264E1,0E0,0E0,0E0,0E0,0E0,0E0,0E0,0E0],"parents":[2147483647,0,0,2,2,1,1,3,3,5,5,6,6,4,4],"right_children":[2,6,4,8,14,10,12,-1,-1,-1,-1,-1,-1,-1,-1],"split_conditions":[3E0,2E0,1E1,-2.6282355E2,1.9E1,6.9645605E0,8.154845E0,-3.4270998E-2,-1.1859344E-2,3.0709857E-2,4.551759E-2,4.81926E-4,2.1249337E-2,-5.5406906E-2,-8.3715E-2],"split_indices":[0,0,0,1,0,1,1,0,0,0,0,0,0,0,0],"split_type":[0,0,0,0,0,0,0,0,0,0,0,0,0,0,0],"sum_hessian":[4.478695E3,2.251576E3,2.2271187E3,1.7200024E3,5.071162E2,1.6007103E3,6.5086566E2,5.408075E2,1.179195E3,9.495951E2,6.5111523E2,4.3973364E2,2.1113205E2,4.42978E2,6.413822E1],"tree_param":{"num_deleted":"0","num_feature":"11","num_nodes":"15","size_leaf_vector":"1"}},{"base_weights":[5.367497E-3,5.357374E-1,-5.3748286E-1,-3.0844364E-1,-9.8379225E-1,6.990121E-1,1.3348947E-1,-3.807718E-2,-6.2646404E-2,-2.8141169E-2,-1.0018111E-2,-4.3636563E-5,2.0293497E-2,2.081254E-2,3.7640326E-2],"categories":[],"categories_nodes":[],"categories_segments":[],"categories_sizes":[],"default_left":[0,0,0,0,0,0,0,0,0,0,0,0,0,0,0],"id":1,"left_children":[1,5,3,9,7,13,11,-1,-1,-1,-1,-1,-1,-1,-1],"loss_changes":[1.2923815E3,1.4898138E2,2.2631323E2,4.0198196E1,4.355072E1,2.4690308E1,2.5953987E1,0E0,0E0,0E0,0E0,0E0,0E0,0E0,0E0],"parents":[2147483647,0,0,2,2,1,1,4,4,3,3,6,6,5,5],"right_children":[2,6,4,10,8,14,12,-1,-1,-1,-1,-1,-1,-1,-1],"split_conditions":[3E0,2E0,8E0,-2.6282355E2,1.1E1,-1.70019E2,5.091137E0,-3.807718E-2,-6.2646404E-2,-2.8141169E-2,-1.0018111E-2,-4.3636563E-5,2.0293497E-2,2.081254E-2,3.7640326E-2],"split_indices":[0,0,0,1,0,1,1,0,0,0,0,0,0,0,0],"split_type":[0,0,0,0,0,0,0,0,0,0,0,0,0,0,0],"sum_hessian":[4.485857E3,2.269022E3,2.216835E3,1.466664E3,7.50171E2,1.6131456E3,6.558763E2,4.1397433E2,3.3619672E2,4.3548642E2,1.0311775E3,4.2874414E2,2.2713213E2,2.5466908E2,1.3584766E3],"tree_param":{"num_deleted":"0","num_feature":"11","num_nodes":"15","size_leaf_vector":"1"}},{"base_weights":[-5.328471E-3,4.9394926E-1,-5.106287E-1,-3.3923316E-1,-1.0824454E0,6.563724E-1,9.3964376E-2,-6.5997937E-3,-2.6023552E-2,2.7349187E-2,4.061119E-2,-4.1698592E-4,1.614905E-2,-4.0932182E-2,-6.0933407E-2],"categories":[],"categories_nodes":[],"categories_segments":[],"categories_sizes":[],"default_left":[0,0,0,0,0,0,0,0,0,0,0,0,0,0,0],"id":2,"left_children":[1,5,3,7,13,9,11,-1,-1,-1,-1,-1,-1,-1,-1],"loss_changes":[1.1308457E3,1.4638605E2,2.1779364E2,6.435611E1,1.696466E1,2.667688E1,1.7358751E1,0E0,0E0,0E0,0E0,0E0,0E0,0E0,0E0],"parents":[2147483647,0,0,2,2,1,1,3,3,5,5,6,6,4,4],"right_children":[2,6,4,8,14,10,12,-1,-1,-1,-1,-1,-1,-1,-1],"split_conditions":[3E0,2E0,1E1,5E0,1.1E1,6.9645605E0,5.091137E0,-6.5997937E-3,-2.6023552E-2,2.7349187E-2,4.061119E-2,-4.1698592E-4,1.614905E-2,-4.0932182E-2,-6.0933407E-2],"split_indices":[0,0,0,0,0,1,1,0,0,0,0,0,0,0,0],"split_type":[0,0,0,0,0,0,0,0,0,0,0,0,0,0,0],"sum_hessian":[4.4794526E3,2.2531697E3,2.226283E3,1.7146809E3,5.1160208E2,1.6017811E3,6.513885E2,8.0115375E2,9.1352716E2,9.4509973E2,6.5668134E2,4.3248834E2,2.1890019E2,1.7774553E2,3.3385654E2],"tree_param":{"num_deleted":"0","num_feature":"11","num_nodes":"15","size_leaf_vector":"1"}},{"base_weights":[2.1591918E-4,4.815102E-1,-4.832487E-1,-3.246388E-1,-1.0169426E0,6.2675583E-1,1.2392583E-1,-6.252892E-3,-2.4904279E-2,-4.7029216E-2,-7.637448E-2,2.1854129E-2,3.416379E-2,-4.3462962E-5,1.06908E-2],"categories":[],"categories_nodes":[],"categories_segments":[],"categories_sizes":[],"default_left":[0,0,0,0,0,0,0,0,0,0,0,0,0,0,0],"id":3,"left_children":[1,5,3,7,9,11,13,-1,-1,-1,-1,-1,-1,-1,-1],"loss_changes":[1.0397355E3,1.1618378E2,1.8820819E2,5.9469788E1,1.7761292E1,1.6626038E1,1.3243127E1,0E0,0E0,0E0,0E0,0E0,0E0,0E0,0E0],"parents":[2147483647,0,0,2,2,1,1,3,3,4,4,5,5,6,6],"right_children":[2,6,4,8,10,12,14,-1,-1,-1,-1,-1,-1,-1,-1],"split_conditions":[3E0,2E0,1E1,5E0,1.9E1,3.9300737E-1,3.9044574E-1,-6.252892E-3,-2.4904279E-2,-4.7029216E-2,-7.637448E-2,2.1854129E-2,3.416379E-2,-4.3462962E-5,1.06908E-2],"split_indices":[0,0,0,0,0,7,7,0,0,0,0,0,0,0,0],"split_type":[0,0,0,0,0,0,0,0,0,0,0,0,0,0,0],"sum_hessian":[4.4653945E3,2.2377236E3,2.227671E3,1.7191334E3,5.0853745E2,1.5905511E3,6.471724E2,8.0052905E2,9.186044E2,4.4602737E2,6.251008E1,3.681153E2,1.2224359E3,1.421385E2,5.050339E2],"tree_param":{"num_deleted":"0","num_feature":"11","num_nodes":"15","size_leaf_vector":"1"}},{"base_weights":[-1.0168672E-3,4.4552135E-1,-4.5201364E-1,-2.9058796E-1,-9.883469E-1,5.921943E-1,9.146075E-2,-5.479764E-3,-2.242603E-2,2.1086527E-2,3.215647E-2,-3.790274E-2,-5.5567827E-2,9.051583E-3,-1.6230717E-4],"categories":[],"categories_nodes":[],"categories_segments":[],"categories_sizes":[],"default_left":[0,0,0,0,0,0,0,0,0,0,0,0,0,0,0],"id":4,"left_children":[1,5,3,7,11,9,13,-1,-1,-1,-1,-1,-1,-1,-1],"loss_changes":[9.00072E2,1.16545715E2,1.9208871E2,4.884276E1,1.3310913E1,1.33845825E1,1.1292734E1,0E0,0E0,0E0,0E0,0E0,0E0,0E0,0E0],"parents":[2147483647,0,0,2,2,1,1,3,3,5,5,4,4,6,6],"right_children":[2,6,4,8,12,10,14,-1,-1,-1,-1,-1,-1,-1,-1],"split_conditions":[3E0,2E0,1E1,5E0,1.1E1,3.9300737E-1,1.6033262E-1,-5.479764E-3,-2.242603E-2,2.1086527E-2,3.215647E-2,-3.790274E-2,-5.5567827E-2,9.051583E-3,-1.6230717E-4],"split_indices":[0,0,0,0,0,7,10,0,0,0,0,0,0,0,0],"split_type":[0,0,0,0,0,0,0,0,0,0,0,0,0,0,0],"sum_hessian":[4.4664E3,2.2443018E3,2.2220981E3,1.7097695E3,5.123286E2,1.5862058E3,6.580959E2,7.97887E2,9.118825E2,3.6807852E2,1.2181273E3,1.8206273E2,3.302659E2,5.0528006E2,1.5281583E2],"tree_param":{"num_deleted":"0","num_feature":"11","num_nodes":"15","size_leaf_vector":"1"}},{"base_weights":[-6.2338915E-3,4.2901856E-1,-4.440493E-1,-2.994094E-1,-9.275273E-1,5.6215906E-1,9.9843584E-2,-2.7612118E-2,-9.147772E-3,1.6550066E-2,3.0939087E-2,-4.2882945E-2,-6.96854E-2,4.178761E-5,1.5168848E-2],"categories":[],"categories_nodes":[],"categories_segments":[],"categories_sizes":[],"default_left":[0,0,0,0,0,0,0,0,0,0,0,0,0,0,0],"id":5,"left_children":[1,5,3,7,11,9,13,-1,-1,-1,-1,-1,-1,-1,-1],"loss_changes":[8.551056E2,9.853778E1,1.5602847E2,5.061438E1,1.4990845E1,2.5739807E1,1.3094873E1,0E0,0E0,0E0,0E0,0E0,0E0,0E0,0E0],"parents":[2147483647,0,0,2,2,1,1,3,3,5,5,4,4,6,6],"right_children":[2,6,4,8,12,10,14,-1,-1,-1,-1,-1,-1,-1,-1],"split_conditions":[3E0,2E0,1E1,-2.6282355E2,1.9E1,-1.70019E2,8.154845E0,-2.7612118E-2,-9.147772E-3,1.6550066E-2,3.0939087E-2,-4.2882945E-2,-6.96854E-2,4.178761E-5,1.5168848E-2],"split_indices":[0,0,0,1,0,1,1,0,0,0,0,0,0,0,0],"split_type":[0,0,0,0,0,0,0,0,0,0,0,0,0,0,0],"sum_hessian":[4.484365E3,2.2487788E3,2.2355864E3,1.7226283E3,5.129582E2,1.600416E3,6.483629E2,5.4148334E2,1.181145E3,2.5559865E2,1.3448174E3,4.4974762E2,6.321059E1,4.3718323E2,2.1117967E2],"tree_param":{"num_deleted":"0","num_feature":"11","num_nodes":"15","size_leaf_vector":"1"}},{"base_weights":[1.5915036E-3,4.1710997E-1,-4.1983902E-1,-2.76395E-1,-9.0328693E-1,5.506021E-1,8.724809E-2,-2.6267806E-2,-8.253472E-3,2.2974476E-2,3.408996E-2,-5.6048613E-2,-3.7415046E-2,-6.822646E-5,1.4937256E-2],"categories":[],"categories_nodes":[],"categories_segments":[],"categories_sizes":[],"default_left":[0,0,0,0,0,0,0,0,0,0,0,0,0,0,0],"id":6,"left_children":[1,5,3,7,11,9,13,-1,-1,-1,-1,-1,-1,-1,-1],"loss_changes":[7.8138055E2,9.886621E1,1.5325925E2,4.7281113E1,1.5841431E1,1.8654358E1,1.40998745E1,0E0,0E0,0E0,0E0,0E0,0E0,0E0,0E0],"parents":[2147483647,0,0,2,2,1,1,3,3,5,5,4,4,6,6],"right_children":[2,6,4,8,12,10,14,-1,-1,-1,-1,-1,-1,-1,-1],"split_conditions":[3E0,2E0,1E1,-2.7022415E2,-4.255623E2,6.9645605E0,8.154845E0,-2.6267806E-2,-8.253472E-3,2.2974476E-2,3.408996E-2,-5.6048613E-2,-3.7415046E-2,-6.822646E-5,1.4937256E-2],"split_indices":[0,0,0,1,1,1,1,0,0,0,0,0,0,0,0],"split_type":[0,0,0,0,0,0,0,0,0,0,0,0,0,0,0],"sum_hessian":[4.4592124E3,2.245364E3,2.2138481E3,1.7090713E3,5.0477695E2,1.5977708E3,6.475933E2,5.2638983E2,1.1826814E3,9.4685876E2,6.509119E2,2.0609636E2,2.9868057E2,4.3593448E2,2.1165884E2],"tree_param":{"num_deleted":"0","num_feature":"11","num_nodes":"15","size_leaf_vector":"1"}},{"base_weights":[-5.027158E-3,3.9710972E-1,-4.1202888E-1,-2.8025922E-1,-8.6345017E-1,5.1770455E-1,1.0691453E-1,-2.6008526E-2,-8.527388E-3,2.0826222E-2,3.329046E-2,-3.7297906E-4,1.5615477E-2,-3.4089345E-2,-5.1095832E-2],"categories":[],"categories_nodes":[],"categories_segments":[],"categories_sizes":[],"default_left":[0,0,0,0,0,0,0,0,0,0,0,0,0,0,0],"id":7,"left_children":[1,5,3,7,13,9,11,-1,-1,-1,-1,-1,-1,-1,-1],"loss_changes":[7.332952E2,7.878638E1,1.3209375E2,4.5292786E1,1.343396E1,2.3441772E1,1.7716286E1,0E0,0E0,0E0,0E0,0E0,0E0,0E0,0E0],"parents":[2147483647,0,0,2,2,1,1,3,3,5,5,6,6,4,4],"right_children":[2,6,4,8,14,10,12,-1,-1,-1,-1,-1,-1,-1,-1],"split_conditions":[3E0,2E0,1E1,-2.6282355E2,1.2E1,6.9645605E0,8.154845E0,-2.6008526E-2,-8.527388E-3,2.0826222E-2,3.329046E-2,-3.7297906E-4,1.5615477E-2,-3.4089345E-2,-5.1095832E-2],"split_indices":[0,0,0,1,0,1,1,0,0,0,0,0,0,0,0],"split_type":[0,0,0,0,0,0,0,0,0,0,0,0,0,0,0],"sum_hessian":[4.477358E3,2.2521558E3,2.225202E3,1.7242804E3,5.0092157E2,1.5901754E3,6.619804E2,5.393429E2,1.1849375E3,9.480999E2,6.4207556E2,4.4391663E2,2.1806381E2,2.3702943E2,2.6389212E2],"tree_param":{"num_deleted":"0","num_feature":"11","num_nodes":"15","size_leaf_vector":"1"}},{"base_weights":[6.2760916E-3,3.916692E-1,-3.8425258E-1,-1.9993937E-1,-7.427442E-1,5.0343245E-1,1.2493379E-1,-2.8517125E-2,-4.8188E-2,-2.0341422E-2,-5.75447E-3,1.8145008E-2,2.990977E-2,7.9262734E-4,1.5709156E-2],"categories":[],"categories_nodes":[],"categories_segments":[],"categories_sizes":[],"default_left":[0,0,0,0,0,0,0,0,0,0,0,0,0,0,0],"id":8,"left_children":[1,5,3,9,7,11,13,-1,-1,-1,-1,-1,-1,-1,-1],"loss_changes":[6.683433E2,6.653476E1,1.4551651E2,2.553786E1,2.7704498E1,2.064798E1,1.5434732E1,0E0,0E0,0E0,0E0,0E0,0E0,0E0,0E0],"parents":[2147483647,0,0,2,2,1,1,4,4,3,3,5,5,6,6],"right_children":[2,6,4,10,8,12,14,-1,-1,-1,-1,-1,-1,-1,-1],"split_conditions":[3E0,2E0,8E0,-2.7022415E2,1.1E1,-7.790936E0,5.091137E0,-2.8517125E-2,-4.8188E-2,-2.0341422E-2,-5.75447E-3,1.8145008E-2,2.990977E-2,7.9262734E-4,1.5709156E-2],"split_indices":[0,0,0,1,0,1,1,0,0,0,0,0,0,0,0],"split_type":[0,0,0,0,0,0,0,0,0,0,0,0,0,0,0],"sum_hessian":[4.437652E3,2.2335103E3,2.2041416E3,1.4572302E3,7.469114E2,1.573073E3,6.6043713E2,4.2257523E2,3.2433612E2,4.2219183E2,1.0350383E3,6.364152E2,9.366578E2,4.3994794E2,2.2048921E2],"tree_param":{"num_deleted":"0","num_feature":"11","num_nodes":"15","size_leaf_vector":"1"}},{"base_weights":[1.7245613E-6,3.6870465E-1,-3.6640185E-1,-1.2164714E-1,-5.9547496E-1,4.8455292E-1,9.301494E-2,-4.063231E-2,-2.2533594E-2,1.9590711E-2,3.1084308E-2,-1.0466758E-2,5.756989E-5,5.756989E-5,1.4439197E-2],"categories":[],"categories_nodes":[],"categories_segments":[],"categories_sizes":[],"default_left":[0,0,0,0,0,0,0,0,0,0,0,0,0,0,0],"id":9,"left_children":[1,5,3,11,7,9,13,-1,-1,-1,-1,-1,-1,-1,-1],"loss_changes":[6.036282E2,7.106329E1,1.2554343E2,1.7421112E1,3.5851288E1,1.9578949E1,1.5882872E1,0E0,0E0,0E0,0E0,0E0,0E0,0E0,0E0],"parents":[2147483647,0,0,2,2,1,1,4,4,5,5,3,3,6,6],"right_children":[2,6,4,12,8,10,14,-1,-1,-1,-1,-1,-1,-1,-1],"split_conditions":[3E0,2E0,6E0,5.091137E0,-3.370288E2,6.9645605E0,8.154845E0,-4.063231E-2,-2.2533594E-2,1.9590711E-2,3.1084308E-2,-1.0466758E-2,5.756989E-5,5.756989E-5,1.4439197E-2],"split_indices":[0,0,0,1,1,1,1,0,0,0,0,0,0,0,0],"split_type":[0,0,0,0,0,0,0,0,0,0,0,0,0,0,0],"sum_hessian":[4.465246E3,2.225636E3,2.23961E3,1.083839E3,1.1557712E3,1.5663252E3,6.593107E2,4.596248E2,6.961465E2,9.378134E2,6.285118E2,7.6113043E2,3.2270853E2,4.4490045E2,2.1441028E2],"tree_param":{"num_deleted":"0","num_feature":"11","num_nodes":"15","size_leaf_vector":"1"}},{"base_weights":[3.7304622E-3,3.4636372E-1,-3.406955E-1,-1.738006E-1,-6.701856E-1,4.5930135E-1,7.718868E-2,-2.5145018E-2,-4.4271376E-2,-2.0418756E-2,-5.470957E-3,1.826152E-2,2.9930392E-2,1.4170558E-4,1.3412251E-2],"categories":[],"categories_nodes":[],"categories_segments":[],"categories_sizes":[],"default_left":[0,0,0,0,0,0,0,0,0,0,0,0,0,0,0],"id":10,"left_children":[1,5,3,9,7,11,13,-1,-1,-1,-1,-1,-1,-1,-1],"loss_changes":[5.2143195E2,6.728323E1,1.2099774E2,2.2053116E1,2.5999573E1,2.012082E1,1.2887022E1,0E0,0E0,0E0,0E0,0E0,0E0,0E0,0E0],"parents":[2147483647,0,0,2,2,1,1,4,4,3,3,5,5,6,6],"right_children":[2,6,4,10,8,12,14,-1,-1,-1,-1,-1,-1,-1,-1],"split_conditions":[3E0,2E0,8E0,-3.841536E2,1.1E1,6.9645605E0,8.154845E0,-2.5145018E-2,-4.4271376E-2,-2.0418756E-2,-5.470957E-3,1.826152E-2,2.9930392E-2,1.4170558E-4,1.3412251E-2],"split_indices":[0,0,0,1,0,1,1,0,0,0,0,0,0,0,0],"split_type":[0,0,0,0,0,0,0,0,0,0,0,0,0,0,0],"sum_hessian":[4.415512E3,2.2135137E3,2.2019988E3,1.4631399E3,7.388589E2,1.5585487E3,6.549649E2,4.18518E2,3.2034088E2,3.1339218E2,1.1497478E3,9.335165E2,6.250322E2,4.404097E2,2.1455524E2],"tree_param":{"num_deleted":"0","num_feature":"11","num_nodes":"15","size_leaf_vector":"1"}},{"base_weights":[-1.3256147E-2,3.169753E-1,-3.441622E-1,-1.2885626E-1,-5.48938E-1,4.3058997E-1,4.7957636E-2,-2.2132723E-2,-4.1080505E-2,1.8630188E-2,3.0884301E-2,9.154234E-3,-6.796725E-4,-1.4959074E-3,-1.1354508E-2],"categories":[],"categories_nodes":[],"categories_segments":[],"categories_sizes":[],"default_left":[0,0,0,0,0,0,0,0,0,0,0,0,0,0,0],"id":11,"left_children":[1,5,3,13,7,9,11,-1,-1,-1,-1,-1,-1,-1,-1],"loss_changes":[4.8027618E2,6.720531E1,9.668387E1,1.040933E1,3.2057343E1,1.64375E1,1.11255865E1,0E0,0E0,0E0,0E0,0E0,0E0,0E0,0E0],"parents":[2147483647,0,0,2,2,1,1,4,4,5,5,6,6,3,3],"right_children":[2,6,4,14,8,10,12,-1,-1,-1,-1,-1,-1,-1,-1],"split_conditions":[3E0,2E0,6E0,6.0163014E-2,1.1E1,4.5124376E-1,7.221677E-2,-2.2132723E-2,-4.1080505E-2,1.8630188E-2,3.0884301E-2,9.154234E-3,-6.796725E-4,-1.4959074E-3,-1.1354508E-2],"split_indices":[0,0,0,10,0,7,10,0,0,0,0,0,0,0,0],"split_type":[0,0,0,0,0,0,0,0,0,0,0,0,0,0,0],"sum_hessian":[4.392133E3,2.1983372E3,2.1937954E3,1.0705762E3,1.1232191E3,1.5449617E3,6.533756E2,8.109855E2,3.1223367E2,1.1828004E3,3.6216125E2,3.502764E2,3.030992E2,5.3433936E2,5.362368E2],"tree_param":{"num_deleted":"0","num_feature":"11","num_nodes":"15","size_leaf_vector":"1"}},{"base_weights":[1.2841243E-3,3.1691155E-1,-3.1422707E-1,-2.0428248E-1,-7.0079595E-1,4.1849357E-1,7.578965E-2,-1.9231362E-2,-6.0973894E-3,-3.0655125E-2,-5.3104755E-2,1.3557761E-2,2.4056887E-2,6.7111854E-5,1.2269057E-2],"categories":[],"categories_nodes":[],"categories_segments":[],"categories_sizes":[],"default_left":[0,0,0,0,0,0,0,0,0,0,0,0,0,0,0],"id":12,"left_children":[1,5,3,7,9,11,13,-1,-1,-1,-1,-1,-1,-1,-1],"loss_changes":[4.3640286E2,5.3611847E1,9.293138E1,2.5297287E1,1.4394638E1,1.4030853E1,9.274108E0,0E0,0E0,0E0,0E0,0E0,0E0,0E0,0E0],"parents":[2147483647,0,0,2,2,1,1,3,3,4,4,5,5,6,6],"right_children":[2,6,4,8,10,12,14,-1,-1,-1,-1,-1,-1,-1,-1],"split_conditions":[3E0,2E0,1E1,-2.6282355E2,1.7E1,-1.4099434E-2,5.091137E0,-1.9231362E-2,-6.0973894E-3,-3.0655125E-2,-5.3104755E-2,1.3557761E-2,2.4056887E-2,6.7111854E-5,1.2269057E-2],"split_indices":[0,0,0,1,0,9,1,0,0,0,0,0,0,0,0],"split_type":[0,0,0,0,0,0,0,0,0,0,0,0,0,0,0],"sum_hessian":[4.379298E3,2.1892437E3,2.1900544E3,1.7068622E3,4.831923E2,1.5395563E3,6.4968726E2,5.3329987E2,1.1735623E3,3.9202548E2,9.116681E1,4.616471E2,1.0779092E3,4.3484436E2,2.148429E2],"tree_param":{"num_deleted":"0","num_feature":"11","num_nodes":"15","size_leaf_vector":"1"}},{"base_weights":[-1.8397028E-3,2.0129985E-1,-4.3865433E-1,3.855207E-1,5.914577E-3,-3.4601426E-1,-7.558036E-1,-4.026338E-3,9.446255E-3,-2.5549442E-2,-1.2928073E-2,9.785882E-3,2.1425772E-2,-3.3640247E-2,-5.4891653E-2],"categories":[],"categories_nodes":[],"categories_segments":[],"categories_sizes":[],"default_left":[0,0,0,0,0,0,0,0,0,0,0,0,0,0,0],"id":13,"left_children":[1,3,5,11,7,9,13,-1,-1,-1,-1,-1,-1,-1,-1],"loss_changes":[3.89137E2,1.0773979E2,4.0513397E1,1.4535416E1,2.302728E1,1.5387726E1,7.807602E0,0E0,0E0,0E0,0E0,0E0,0E0,0E0,0E0],"parents":[2147483647,0,0,1,1,2,2,4,4,5,5,3,3,6,6],"right_children":[2,4,6,12,8,10,14,-1,-1,-1,-1,-1,-1,-1,-1],"split_conditions":[5E0,2E0,1.1E1,-1.70019E2,5.091137E0,-3.370288E2,1.9E1,-4.026338E-3,9.446255E-3,-2.5549442E-2,-1.2928073E-2,9.785882E-3,2.1425772E-2,-3.3640247E-2,-5.4891653E-2],"split_indices":[0,0,0,1,1,1,0,0,0,0,0,0,0,0,0],"split_type":[0,0,0,0,0,0,0,0,0,0,0,0,0,0,0],"sum_hessian":[4.382459E3,2.991885E3,1.3905739E3,1.5391976E3,1.4526874E3,1.0786017E3,3.1197223E2,9.8721814E2,4.6546924E2,3.711985E2,7.074032E2,2.4728494E2,1.2919127E3,2.545784E2,5.7393814E1],"tree_param":{"num_deleted":"0","num_feature":"11","num_nodes":"15","size_leaf_vector":"1"}},{"base_weights":[1.2418993E-3,1.9228975E-1,-4.0938222E-1,3.6936796E-1,6.547272E-3,-3.1242755E-1,-7.443985E-1,-2.4250323E-2,-1.0041395E-2,-3.4391556E-3,8.343693E-3,2.2751367E-2,1.2585982E-2,-4.711202E-2,-3.0696655E-2],"categories":[],"categories_nodes":[],"categories_segments":[],"categories_sizes":[],"default_left":[0,0,0,0,0,0,0,0,0,0,0,0,0,0,0],"id":14,"left_children":[1,3,5,11,9,7,13,-1,-1,-1,-1,-1,-1,-1,-1],"loss_changes":[3.4226022E2,9.792948E1,4.465396E1,1.5191986E1,1.7586483E1,2.0597755E1,7.143799E0,0E0,0E0,0E0,0E0,0E0,0E0,0E0,0E0],"parents":[2147483647,0,0,1,1,2,2,5,5,4,4,3,3,6,6],"right_children":[2,4,6,12,10,8,14,-1,-1,-1,-1,-1,-1,-1,-1],"split_conditions":[5E0,2E0,1.1E1,8.271684E-2,5.091137E0,-2.790212E2,-4.5743442E2,-2.4250323E-2,-1.0041395E-2,-3.4391556E-3,8.343693E-3,2.2751367E-2,1.2585982E-2,-4.711202E-2,-3.0696655E-2],"split_indices":[0,0,0,10,1,1,1,0,0,0,0,0,0,0,0],"split_type":[0,0,0,0,0,0,0,0,0,0,0,0,0,0,0],"sum_hessian":[4.3598784E3,2.9760308E3,1.3838475E3,1.5228005E3,1.4532302E3,1.0754617E3,3.083859E2,4.2040152E2,6.550602E2,9.892599E2,4.639704E2,8.787472E2,6.4405334E2,1.1889546E2,1.8949043E2],"tree_param":{"num_deleted":"0","num_feature":"11","num_nodes":"15","size_leaf_vector":"1"}},{"base_weights":[-6.3190134E-3,1.722505E-1,-3.8656807E-1,3.3293605E-1,1.6506868E-3,-3.1687033E-1,-7.0257324E-1,-2.536572E-2,-1.0780509E-2,-3.7344878E-3,8.198109E-3,1.2880544E-2,2.2232968E-2,-3.0161662E-2,-5.1142283E-2],"categories":[],"categories_nodes":[],"categories_segments":[],"categories_sizes":[],"default_left":[0,0,0,0,0,0,0,0,0,0,0,0,0,0,0],"id":15,"left_children":[1,3,5,11,9,7,13,-1,-1,-1,-1,-1,-1,-1,-1],"loss_changes":[2.9590762E2,8.128922E1,3.0342346E1,1.2681931E1,1.7859028E1,2.1892387E1,7.0564804E0,0E0,0E0,0E0,0E0,0E0,0E0,0E0,0E0],"parents":[2147483647,0,0,1,1,2,2,5,5,4,4,3,3,6,6],"right_children":[2,4,6,12,10,8,14,-1,-1,-1,-1,-1,-1,-1,-1],"split_conditions":[5E0,2E0,1.2E1,6.9645605E0,5.091137E0,-3.370288E2,1.9E1,-2.536572E-2,-1.0780509E-2,-3.7344878E-3,8.198109E-3,1.2880544E-2,2.2232968E-2,-3.0161662E-2,-5.1142283E-2],"split_indices":[0,0,0,1,1,1,0,0,0,0,0,0,0,0,0],"split_type":[0,0,0,0,0,0,0,0,0,0,0,0,0,0,0],"sum_hessian":[4.354997E3,2.9639138E3,1.3910834E3,1.5255813E3,1.4383325E3,1.142135E3,2.4894836E2,3.944149E2,7.477201E2,9.7877545E2,4.595571E2,9.141431E2,6.1143823E2,1.9326335E2,5.5685017E1],"tree_param":{"num_deleted":"0","num_feature":"11","num_nodes":"15","size_leaf_vector":"1"}},{"base_weights":[3.3653418E-3,-2.5070712E-1,1.2921855E-1,1.6231045E-1,-3.0372143E-3,4.7215363E-3,1.3090864E-2,-3.5085687E-1,-1.3048665E-1,-1.2033588E-2,-3.0372143E-3,-1.2261106E-2,-2.2232216E-2],"categories":[],"categories_nodes":[],"categories_segments":[],"categories_sizes":[],"default_left":[0,0,0,0,0,0,0,0,0,0,0,0,0],"id":16,"left_children":[1,7,3,5,-1,-1,-1,11,9,-1,-1,-1,-1],"loss_changes":[1.3922656E2,1.7298157E1,2.3192799E1,1.7377563E1,0E0,0E0,0E0,7.6257553E0,1.4782033E1,0E0,0E0,0E0,0E0],"parents":[2147483647,0,0,2,2,3,3,1,1,8,8,7,7],"right_children":[2,8,4,6,-1,-1,-1,12,10,-1,-1,-1,-1],"split_conditions":[-1.4608195E2,-3.9434232E2,2.0086892E-1,4.4561756E-1,-3.0372143E-3,4.7215363E-3,1.3090864E-2,9.859712E-2,3.9752957E-1,-1.2033588E-2,-3.0372143E-3,-1.2261106E-2,-2.2232216E-2],"split_indices":[1,1,10,8,0,0,0,10,7,0,0,0,0],"split_type":[0,0,0,0,0,0,0,0,0,0,0,0,0],"sum_hessian":[4.351133E3,1.440858E3,2.9102747E3,2.5766638E3,3.3361078E2,1.5334725E3,1.0431913E3,7.844952E2,6.563629E2,2.1565984E2,4.4070306E2,3.7145844E2,4.1303674E2],"tree_param":{"num_deleted":"0","num_feature":"11","num_nodes":"13","size_leaf_vector":"1"}},{"base_weights":[-1.0881433E-2,1.6464181E-1,-3.8665593E-1,3.3144966E-1,-9.432648E-3,-2.9514042E-1,-7.1749216E-1,-4.1481457E-3,7.203406E-3,1.2336651E-2,2.2830278E-2,-2.1172449E-2,-1.0672829E-2,-3.279226E-2,-5.183677E-2],"categories":[],"categories_nodes":[],"categories_segments":[],"categories_sizes":[],"default_left":[0,0,0,0,0,0,0,0,0,0,0,0,0,0,0],"id":17,"left_children":[1,3,5,9,7,11,13,-1,-1,-1,-1,-1,-1,-1,-1],"loss_changes":[2.8716534E2,8.617793E1,4.165573E1,1.5902405E1,1.6425165E1,1.1272926E1,4.886856E0,0E0,0E0,0E0,0E0,0E0,0E0,0E0,0E0],"parents":[2147483647,0,0,1,1,2,2,4,4,3,3,5,5,6,6],"right_children":[2,4,6,10,8,12,14,-1,-1,-1,-1,-1,-1,-1,-1],"split_conditions":[5E0,2E0,1.1E1,6.9645605E0,5.091137E0,-2.790212E2,2E1,-4.1481457E-3,7.203406E-3,1.2336651E-2,2.2830278E-2,-2.1172449E-2,-1.0672829E-2,-3.279226E-2,-5.183677E-2],"split_indices":[0,0,0,1,1,1,0,0,0,0,0,0,0,0,0],"split_type":[0,0,0,0,0,0,0,0,0,0,0,0,0,0,0],"sum_hessian":[4.3509014E3,2.9662173E3,1.3846841E3,1.5140443E3,1.452173E3,1.0868398E3,2.978442E2,9.8230835E2,4.6986462E2,9.055088E2,6.085356E2,4.203576E2,6.6648224E2,2.5342038E2,4.442381E1],"tree_param":{"num_deleted":"0","num_feature":"11","num_nodes":"15","size_leaf_vector":"1"}},{"base_weights":[-1.7172804E-3,1.9661973E-1,-3.0197456E-1,3.1956112E-1,2.7472403E-2,-2.3142688E-1,-6.363955E-1,-1.7596208E-2,-6.078188E-3,8.675839E-3,1.8268546E-2,4.4052335E-3,-2.6338708E-3,-3.7606437E-2,-2.169556E-2],"categories":[],"categories_nodes":[],"categories_segments":[],"categories_sizes":[],"default_left":[0,0,0,0,0,0,0,0,0,0,0,0,0,0,0],"id":18,"left_children":[1,3,5,9,11,7,13,-1,-1,-1,-1,-1,-1,-1,-1],"loss_changes":[2.5616425E2,5.385498E1,4.015204E1,1.0338577E1,8.856218E0,1.8673409E1,7.563942E0,0E0,0E0,0E0,0E0,0E0,0E0,0E0,0E0],"parents":[2147483647,0,0,1,1,2,2,5,5,3,3,4,4,6,6],"right_children":[2,4,6,10,12,8,14,-1,-1,-1,-1,-1,-1,-1,-1],"split_conditions":[4E0,2E0,1.1E1,3.9300737E-1,1.4145343E-1,4.1599065E-1,4.3228793E-1,-1.7596208E-2,-6.078188E-3,8.675839E-3,1.8268546E-2,4.4052335E-3,-2.6338708E-3,-3.7606437E-2,-2.169556E-2],"split_indices":[0,0,0,7,10,7,7,0,0,0,0,0,0,0,0],"split_type":[0,0,0,0,0,0,0,0,0,0,0,0,0,0,0],"sum_hessian":[4.2985513E3,2.588926E3,1.7096252E3,1.4984733E3,1.0904526E3,1.4138645E3,2.957608E2,6.727435E2,7.41121E2,3.486975E2,1.1497758E3,7.9948737E2,2.9096527E2,1.963118E2,9.9449E1],"tree_param":{"num_deleted":"0","num_feature":"11","num_nodes":"15","size_leaf_vector":"1"}},{"base_weights":[-3.7453037E-3,1.5269928E-1,-3.4159276E-1,2.9350683E-1,6.165888E-3,-2.2999473E-1,-5.6086403E-1,-3.2986947E-3,7.491818E-3,7.491818E-3,1.6601581E-2,-1.977147E-2,-8.596145E-3,-3.352778E-2,-1.977147E-2],"categories":[],"categories_nodes":[],"categories_segments":[],"categories_sizes":[],"default_left":[0,0,0,0,0,0,0,0,0,0,0,0,0,0,0],"id":19,"left_children":[1,3,5,9,7,11,13,-1,-1,-1,-1,-1,-1,-1,-1],"loss_changes":[2.2666615E2,6.047666E1,3.3023315E1,1.2550888E1,1.5736923E1,1.0757221E1,1.0511597E1,0E0,0E0,0E0,0E0,0E0,0E0,0E0,0E0],"parents":[2147483647,0,0,1,1,2,2,4,4,3,3,5,5,6,6],"right_children":[2,4,6,10,8,12,14,-1,-1,-1,-1,-1,-1,-1,-1],"split_conditions":[5E0,2E0,1E1,5E0,5.091137E0,2.6E1,4.336392E-1,-3.2986947E-3,7.491818E-3,7.491818E-3,1.6601581E-2,-1.977147E-2,-8.596145E-3,-3.352778E-2,-1.977147E-2],"split_indices":[0,0,0,6,1,6,7,0,0,0,0,0,0,0,0],"split_type":[0,0,0,0,0,0,0,0,0,0,0,0,0,0,0],"sum_hessian":[4.2855522E3,2.9297168E3,1.3558354E3,1.4932909E3,1.4364259E3,9.005364E2,4.5529904E2,9.7438086E2,4.6204507E2,1.8620753E2,1.3070834E3,1.8787134E2,7.1266504E2,3.0559573E2,1.497033E2],"tree_param":{"num_deleted":"0","num_feature":"11","num_nodes":"15","size_leaf_vector":"1"}},{"base_weights":[5.800137E-3,-2.5097358E-1,1.06157996E-1,3.9689347E-2,1.9737479E-1,-3.697135E-1,-1.4239462E-1,-2.9721425E-3,5.4121744E-3,-1.2133576E-2,-3.6203898E-3,9.027678E-3,2.7400209E-2,-1.3566667E-2,-2.407394E-2],"categories":[],"categories_nodes":[],"categories_segments":[],"categories_sizes":[],"default_left":[0,0,0,0,0,0,0,0,0,0,0,0,0,0,0],"id":20,"left_children":[1,5,3,7,11,13,9,-1,-1,-1,-1,-1,-1,-1,-1],"loss_changes":[1.1091659E2,1.5516396E1,1.8751305E1,1.218804E1,7.5456543E0,6.1493835E0,8.283525E0,0E0,0E0,0E0,0E0,0E0,0E0,0E0,0E0],"parents":[2147483647,0,0,2,2,1,1,3,3,6,6,4,4,5,5],"right_children":[2,6,4,8,12,14,10,-1,-1,-1,-1,-1,-1,-1,-1],"split_conditions":[-2.0682022E2,4.0860057E-1,4.312499E-1,-7.790936E0,5.1747495E-1,8.271684E-2,-3.9434232E2,-2.9721425E-3,5.4121744E-3,-1.2133576E-2,-3.6203898E-3,9.027678E-3,2.7400209E-2,-1.3566667E-2,-2.407394E-2],"split_indices":[1,7,7,1,8,10,1,0,0,0,0,0,0,0,0],"split_type":[0,0,0,0,0,0,0,0,0,0,0,0,0,0,0],"sum_hessian":[4.3012036E3,1.2080604E3,3.0931433E3,1.7905303E3,1.3026129E3,5.753313E2,6.327291E2,7.320876E2,1.0584427E3,3.916823E2,2.4104681E2,1.245118E3,5.749478E1,3.0868362E2,2.6664767E2],"tree_param":{"num_deleted":"0","num_feature":"11","num_nodes":"15","size_leaf_vector":"1"}},{"base_weights":[-5.2811243E-3,1.505885E-1,-3.4135678E-1,2.8962418E-1,5.326107E-3,-2.6334822E-1,-6.260533E-1,-1.899943E-2,-8.150783E-3,1.3011358E-2,2.785614E-2,-4.7692074E-3,2.4641152E-3,-3.714847E-2,-2.2235038E-2],"categories":[],"categories_nodes":[],"categories_segments":[],"categories_sizes":[],"default_left":[0,0,0,0,0,0,0,0,0,0,0,0,0,0,0],"id":21,"left_children":[1,3,5,9,11,7,13,-1,-1,-1,-1,-1,-1,-1,-1],"loss_changes":[2.2520447E2,5.9315063E1,3.000795E1,1.1586487E1,1.1282661E1,1.2450722E1,7.65361E0,0E0,0E0,0E0,0E0,0E0,0E0,0E0,0E0],"parents":[2147483647,0,0,1,1,2,2,5,5,3,3,4,4,6,6],"right_children":[2,4,6,10,12,8,14,-1,-1,-1,-1,-1,-1,-1,-1],"split_conditions":[5E0,2E0,1.1E1,4.750261E-1,-9.114156E-2,0E0,4.3228793E-1,-1.899943E-2,-8.150783E-3,1.3011358E-2,2.785614E-2,-4.7692074E-3,2.4641152E-3,-3.714847E-2,-2.2235038E-2],"split_indices":[0,0,0,7,9,2,7,0,0,0,0,0,0,0,0],"split_type":[0,0,0,0,0,0,0,0,0,0,0,0,0,0,0],"sum_hessian":[4.2961685E3,2.9355115E3,1.3606572E3,1.4991504E3,1.436361E3,1.0702477E3,2.9040945E2,4.929973E2,5.772504E2,1.3533396E3,1.458108E2,2.012687E2,1.2350923E3,1.9574028E2,9.466917E1],"tree_param":{"num_deleted":"0","num_feature":"11","num_nodes":"15","size_leaf_vector":"1"}},{"base_weights":[-5.082994E-3,2.1035795E-1,-2.1737748E-1,-6.445037E-2,-3.6855114E-1,1.3500237E-1,3.340451E-1,-1.7548837E-4,1.0077832E-2,-1.6295627E-2,-3.779173E-2,-1.0825038E-2,-3.190275E-4,3.024886E-2,1.4593585E-2],"categories":[],"categories_nodes":[],"categories_segments":[],"categories_sizes":[],"default_left":[0,0,0,0,0,0,0,0,0,0,0,0,0,0,0],"id":22,"left_children":[1,5,3,11,9,7,13,-1,-1,-1,-1,-1,-1,-1,-1],"loss_changes":[1.9609422E2,1.9767128E1,4.988868E1,1.0986243E1,1.7563934E1,2.5566322E1,8.93306E0,0E0,0E0,0E0,0E0,0E0,0E0,0E0,0E0],"parents":[2147483647,0,0,2,2,1,1,5,5,4,4,3,3,6,6],"right_children":[2,6,4,12,10,8,14,-1,-1,-1,-1,-1,-1,-1,-1],"split_conditions":[3E0,6.9645605E0,6E0,-4.4220284E-2,1.6E1,4E0,1.5E0,-1.7548837E-4,1.0077832E-2,-1.6295627E-2,-3.779173E-2,-1.0825038E-2,-3.190275E-4,3.024886E-2,1.4593585E-2],"split_indices":[0,1,0,9,0,6,4,0,0,0,0,0,0,0,0],"split_type":[0,0,0,0,0,0,0,0,0,0,0,0,0,0,0],"sum_hessian":[4.284473E3,2.1264832E3,2.1579897E3,1.0738226E3,1.0841672E3,1.3233407E3,8.031425E2,1.124278E2,1.210913E3,9.790934E2,1.05073784E2,2.6181534E2,8.1200726E2,1.0552195E2,6.9762054E2],"tree_param":{"num_deleted":"0","num_feature":"11","num_nodes":"15","size_leaf_vector":"1"}},{"base_weights":[-3.449969E-3,2.0709254E-1,-2.1337466E-1,-6.387738E-2,-3.6297706E-1,2.730125E-1,5.6563053E-2,-2.5995469E-2,-1.2100571E-2,8.2393885E-3,1.7506054E-2,-1.0671361E-2,-1.1785966E-3,8.2393885E-3,-1.5705303E-4],"categories":[],"categories_nodes":[],"categories_segments":[],"categories_sizes":[],"default_left":[0,0,0,0,0,0,0,0,0,0,0,0,0,0,0],"id":23,"left_children":[1,5,3,11,7,9,13,-1,-1,-1,-1,-1,-1,-1,-1],"loss_changes":[1.889714E2,2.1158997E1,4.7847404E1,8.887043E0,2.0121872E1,1.2491608E1,8.84227E0,0E0,0E0,0E0,0E0,0E0,0E0,0E0,0E0],"parents":[2147483647,0,0,2,2,1,1,4,4,5,5,3,3,6,6],"right_children":[2,6,4,12,8,10,14,-1,-1,-1,-1,-1,-1,-1,-1],"split_conditions":[3E0,2E0,6E0,-8.8791065E-2,-2.790212E2,-7.790936E0,8.1E0,-2.5995469E-2,-1.2100571E-2,8.2393885E-3,1.7506054E-2,-1.0671361E-2,-1.1785966E-3,8.2393885E-3,-1.5705303E-4],"split_indices":[0,0,0,9,1,1,4,0,0,0,0,0,0,0,0],"split_type":[0,0,0,0,0,0,0,0,0,0,0,0,0,0,0],"sum_hessian":[4.272593E3,2.1331658E3,2.139427E3,1.0711456E3,1.0682814E3,1.4826687E3,6.50497E2,4.628877E2,6.053937E2,6.132235E2,8.6944525E2,1.5866211E2,9.124836E2,3.66268E2,2.8422903E2],"tree_param":{"num_deleted":"0","num_feature":"11","num_nodes":"15","size_leaf_vector":"1"}},{"base_weights":[-1.9539925E-3,1.2874272E-1,-2.8650525E-1,2.4551168E-1,9.4372E-3,-2.210568E-1,-5.310728E-1,8.595837E-3,1.7925812E-2,-1.661223E-2,-6.0584154E-3,-2.3797709E-3,6.373722E-3,-2.278628E-2,-4.7159884E-2],"categories":[],"categories_nodes":[],"categories_segments":[],"categories_sizes":[],"default_left":[0,0,0,0,0,0,0,0,0,0,0,0,0,0,0],"id":24,"left_children":[1,3,5,7,11,9,13,-1,-1,-1,-1,-1,-1,-1,-1],"loss_changes":[1.5893309E2,4.079378E1,2.1356667E1,1.2216797E1,1.0128599E1,1.1753723E1,8.150391E0,0E0,0E0,0E0,0E0,0E0,0E0,0E0,0E0],"parents":[2147483647,0,0,1,1,2,2,3,3,5,5,4,4,6,6],"right_children":[2,4,6,8,12,10,14,-1,-1,-1,-1,-1,-1,-1,-1],"split_conditions":[5E0,2E0,1.1E1,6.9645605E0,5.091137E0,4.3031505E-1,2E1,8.595837E-3,1.7925812E-2,-1.661223E-2,-6.0584154E-3,-2.3797709E-3,6.373722E-3,-2.278628E-2,-4.7159884E-2],"split_indices":[0,0,0,1,1,8,0,0,0,0,0,0,0,0,0],"split_type":[0,0,0,0,0,0,0,0,0,0,0,0,0,0,0],"sum_hessian":[4.2705947E3,2.9270044E3,1.3435907E3,1.4784349E3,1.4485693E3,1.0621611E3,2.814296E2,8.975977E2,5.8083716E2,5.010222E2,5.611389E2,9.889293E2,4.5964008E2,2.4056021E2,4.0869385E1],"tree_param":{"num_deleted":"0","num_feature":"11","num_nodes":"15","size_leaf_vector":"1"}},{"base_weights":[-3.7190116E-3,1.8101266E-1,-1.8827039E-1,-9.7632386E-2,-3.8228855E-1,-3.628865E-3,2.3278098E-1,1.7975291E-2,7.3083877E-3,-2.535879E-2,-1.1998023E-2,-1.3250808E-3,-1.0054014E-2,-1.8144325E-4,5.728803E-3],"categories":[],"categories_nodes":[],"categories_segments":[],"categories_sizes":[],"default_left":[0,0,0,0,0,0,0,0,0,0,0,0,0,0,0],"id":25,"left_children":[1,5,3,11,9,13,7,-1,-1,-1,-1,-1,-1,-1,-1],"loss_changes":[1.4512154E2,2.1758568E1,3.7390793E1,1.0686292E1,1.8030113E1,3.449923E0,1.843869E1,0E0,0E0,0E0,0E0,0E0,0E0,0E0,0E0],"parents":[2147483647,0,0,2,2,1,1,6,6,4,4,3,3,5,5],"right_children":[2,6,4,12,10,14,8,-1,-1,-1,-1,-1,-1,-1,-1],"split_conditions":[3E0,4.0849724E-1,8E0,9.339055E-2,4.336392E-1,7.2E1,3.7040412E-2,1.7975291E-2,7.3083877E-3,-2.535879E-2,-1.1998023E-2,-1.3250808E-3,-1.0054014E-2,-1.8144325E-4,5.728803E-3],"split_indices":[0,8,0,10,7,5,10,0,0,0,0,0,0,0,0],"split_type":[0,0,0,0,0,0,0,0,0,0,0,0,0,0,0],"sum_hessian":[4.253734E3,2.1258408E3,2.1278928E3,1.4518611E3,6.7603186E2,4.403478E2,1.685493E3,6.824022E2,1.0030908E3,4.4442892E2,2.3160294E2,8.6141406E2,5.9044696E2,2.7859805E2,1.6174976E2],"tree_param":{"num_deleted":"0","num_feature":"11","num_nodes":"15","size_leaf_vector":"1"}},{"base_weights":[-7.0080874E-3,2.3245768E-1,-1.3274476E-1,-2.9293003E-2,-3.0037102E-1,-7.6005827E-3,2.4928232E-3,-1.3060078E-2,-3.8624313E-2,4.985646E-2,2.7184084E-1,2.4928232E-3,1.8593028E-2,1.2421748E-2,2.6439264E-2],"categories":[],"categories_nodes":[],"categories_segments":[],"categories_sizes":[],"default_left":[0,0,0,0,0,0,0,0,0,0,0,0,0,0,0],"id":26,"left_children":[1,9,3,5,7,-1,-1,-1,-1,11,13,-1,-1,-1,-1],"loss_changes":[1.27933846E2,1.4086426E1,4.8299664E1,2.1630415E1,1.9360939E1,0E0,0E0,0E0,0E0,1.0926523E1,7.4788055E0,0E0,0E0,0E0,0E0],"parents":[2147483647,0,0,2,2,3,3,4,4,1,1,9,9,10,10],"right_children":[2,10,4,6,8,-1,-1,-1,-1,12,14,-1,-1,-1,-1],"split_conditions":[2E0,5E0,6E0,4.163741E-1,1.7E1,-7.6005827E-3,2.4928232E-3,-1.3060078E-2,-3.8624313E-2,6.9645605E0,4.781876E-1,2.4928232E-3,1.8593028E-2,1.2421748E-2,2.6439264E-2],"split_indices":[0,6,0,7,0,0,0,0,0,1,7,0,0,0,0],"split_type":[0,0,0,0,0,0,0,0,0,0,0,0,0,0,0],"sum_hessian":[4.245931E3,1.4614113E3,2.7845198E3,1.7229359E3,1.0615837E3,7.945027E2,9.284332E2,9.8237524E2,7.9208466E1,1.8709308E2,1.2743182E3,8.31582E1,1.03934875E2,1.1705923E3,1.03725914E2],"tree_param":{"num_deleted":"0","num_feature":"11","num_nodes":"15","size_leaf_vector":"1"}},{"base_weights":[-6.164159E-3,1.3564785E-1,-2.2206184E-1,-1.6229203E-1,-5.289861E-1,2.2263522E-1,1.86814E-2,-1.2458492E-2,-2.1603499E-3,1.4290336E-2,6.0329153E-3,3.8457846E-3,-2.1603499E-3,-2.3282401E-2,-5.0343584E-2],"categories":[],"categories_nodes":[],"categories_segments":[],"categories_sizes":[],"default_left":[0,0,0,0,0,0,0,0,0,0,0,0,0,0,0],"id":27,"left_children":[1,5,3,7,13,9,11,-1,-1,-1,-1,-1,-1,-1,-1],"loss_changes":[1.2944556E2,2.5957489E1,3.062133E1,1.5396519E1,7.557396E0,1.0399712E1,8.082216E0,0E0,0E0,0E0,0E0,0E0,0E0,0E0,0E0],"parents":[2147483647,0,0,2,2,1,1,3,3,5,5,6,6,4,4],"right_children":[2,6,4,8,14,10,12,-1,-1,-1,-1,-1,-1,-1,-1],"split_conditions":[4E0,2E0,1.1E1,4.4164377E-1,2.1E1,1.0568141E-1,1.6033262E-1,-1.2458492E-2,-2.1603499E-3,1.4290336E-2,6.0329153E-3,3.8457846E-3,-2.1603499E-3,-2.3282401E-2,-5.0343584E-2],"split_indices":[0,0,0,8,0,10,10,0,0,0,0,0,0,0,0],"split_type":[0,0,0,0,0,0,0,0,0,0,0,0,0,0,0],"sum_hessian":[4.224968E3,2.5503325E3,1.6746354E3,1.4035673E3,2.7106818E2,1.461834E3,1.0884985E3,8.3124023E2,5.7232697E2,9.3855865E2,5.232753E2,8.4815265E2,2.4034595E2,2.4192137E2,2.9146805E1],"tree_param":{"num_deleted":"0","num_feature":"11","num_nodes":"15","size_leaf_vector":"1"}},{"base_weights":[-2.5606027E-3,-1.8801075E-1,6.954262E-2,9.416638E-2,-2.9617033E-3,1.613552E-3,9.304833E-3,-2.9693925E-1,-9.487777E-2,-2.9617033E-3,-9.795426E-3,-1.727119E-2,-9.795426E-3],"categories":[],"categories_nodes":[],"categories_segments":[],"categories_sizes":[],"default_left":[0,0,0,0,0,0,0,0,0,0,0,0,0],"id":28,"left_children":[1,7,3,5,-1,-1,-1,11,9,-1,-1,-1,-1],"loss_changes":[5.643877E1,1.1945774E1,1.4005354E1,1.5565903E1,0E0,0E0,0E0,4.053776E0,7.9429045E0,0E0,0E0,0E0,0E0],"parents":[2147483647,0,0,2,2,3,3,1,1,8,8,7,7],"right_children":[2,8,4,6,-1,-1,-1,12,10,-1,-1,-1,-1],"split_conditions":[-2.0682022E2,4.2381006E-1,2.1599548E-1,4.4561756E-1,-2.9617033E-3,1.613552E-3,9.304833E-3,3.8719222E-2,1.7071217E-1,-2.9617033E-3,-9.795426E-3,-1.727119E-2,-9.795426E-3],"split_indices":[1,8,10,8,0,0,0,9,10,0,0,0,0],"split_type":[0,0,0,0,0,0,0,0,0,0,0,0,0],"sum_hessian":[4.2178574E3,1.180146E3,3.0377114E3,2.7357112E3,3.0200024E2,1.6361301E3,1.099581E3,5.424532E2,6.376928E2,4.1978894E2,2.1790392E2,4.3075208E2,1.11701126E2],"tree_param":{"num_deleted":"0","num_feature":"11","num_nodes":"13","size_leaf_vector":"1"}},{"base_weights":[-2.3385172E-3,1.5580858E-1,-1.5840079E-1,-1.4228313E-1,-4.348471E-2,-1.3533949E-2,-3.7023723E-3,2.0932211E-1,3.6017757E-2,6.1334968E-3,1.2332501E-2,6.1334968E-3,-6.480515E-5],"categories":[],"categories_nodes":[],"categories_segments":[],"categories_sizes":[],"default_left":[0,0,0,0,0,0,0,0,0,0,0,0,0],"id":29,"left_children":[1,7,3,5,-1,-1,-1,9,11,-1,-1,-1,-1],"loss_changes":[1.0408009E2,1.3415688E1,2.415083E1,1.8169456E1,0E0,0E0,0E0,8.343723E0,6.5927734E0,0E0,0E0,0E0,0E0],"parents":[2147483647,0,0,2,2,3,3,1,1,7,7,8,8],"right_children":[2,8,4,6,-1,-1,-1,10,12,-1,-1,-1,-1],"split_conditions":[3E0,2E0,1.9E1,-2.7022415E2,-4.348471E-2,-1.3533949E-2,-3.7023723E-3,6E0,5.6E0,6.1334968E-3,1.2332501E-2,6.1334968E-3,-6.480515E-5],"split_indices":[0,0,0,1,0,0,0,6,4,0,0,0,0],"split_type":[0,0,0,0,0,0,0,0,0,0,0,0,0],"sum_hessian":[4.2140786E3,2.0930579E3,2.1210208E3,2.0757578E3,4.5262867E1,7.188123E2,1.3569454E3,1.4459894E3,6.4706836E2,1.9613261E2,1.2498568E3,2.3142667E2,4.1564172E2],"tree_param":{"num_deleted":"0","num_feature":"11","num_nodes":"13","size_leaf_vector":"1"}},{"base_weights":[-4.0790695E-3,1.00199044E-1,-2.3511204E-1,2.0218182E-1,-2.5376573E-3,-1.8275858E-1,-4.3905982E-1,-3.372825E-3,3.8038827E-3,-5.5137617E-3,-1.489777E-2,1.3319209E-2,5.8335797E-3,-1.865021E-2,-4.0701956E-2],"categories":[],"categories_nodes":[],"categories_segments":[],"categories_sizes":[],"default_left":[0,0,0,0,0,0,0,0,0,0,0,0,0,0,0],"id":30,"left_children":[1,3,5,11,7,9,13,-1,-1,-1,-1,-1,-1,-1,-1],"loss_changes":[1.01775185E2,3.0498E1,1.3909103E1,7.973564E0,1.0041894E1,8.701611E0,6.1726913E0,0E0,0E0,0E0,0E0,0E0,0E0,0E0,0E0],"parents":[2147483647,0,0,1,1,2,2,4,4,5,5,3,3,6,6],"right_children":[2,4,6,12,8,10,14,-1,-1,-1,-1,-1,-1,-1,-1],"split_conditions":[5E0,2E0,1.1E1,8.271684E-2,4.163741E-1,1.0946285E-1,2E1,-3.372825E-3,3.8038827E-3,-5.5137617E-3,-1.489777E-2,1.3319209E-2,5.8335797E-3,-1.865021E-2,-4.0701956E-2],"split_indices":[0,0,0,10,7,10,0,0,0,0,0,0,0,0,0],"split_type":[0,0,0,0,0,0,0,0,0,0,0,0,0,0,0],"sum_hessian":[4.2215522E3,2.9092695E3,1.3122827E3,1.4592776E3,1.4499921E3,1.0464595E3,2.6582324E2,6.668142E2,7.831778E2,6.440873E2,4.0237225E2,8.316963E2,6.2758136E2,2.2851576E2,3.7307476E1],"tree_param":{"num_deleted":"0","num_feature":"11","num_nodes":"15","size_leaf_vector":"1"}},{"base_weights":[4.2316495E-3,2.1132956E-1,-1.0565425E-1,-3.9320495E-2,-3.1615245E-1,-2.4449302E-2,-8.886824E-3,6.49583E-4,-8.882313E-3,5.9695363E-2,2.579335E-1,1.6893027E-2,7.940722E-3,2.641883E-3,7.940722E-3],"categories":[],"categories_nodes":[],"categories_segments":[],"categories_sizes":[],"default_left":[0,0,0,0,0,0,0,0,0,0,0,0,0,0,0],"id":31,"left_children":[1,9,3,7,5,-1,-1,-1,-1,13,11,-1,-1,-1,-1],"loss_changes":[9.499102E1,1.0202698E1,3.8061127E1,1.5021236E1,1.775978E1,0E0,0E0,0E0,0E0,3.257131E0,1.0801659E1,0E0,0E0,0E0,0E0],"parents":[2147483647,0,0,2,2,4,4,3,3,1,1,10,10,9,9],"right_children":[2,10,4,8,6,-1,-1,-1,-1,14,12,-1,-1,-1,-1],"split_conditions":[2E0,3.9300737E-1,8E0,1.430424E-1,4.155605E-1,-2.4449302E-2,-8.886824E-3,6.49583E-4,-8.882313E-3,4.6571125E-3,1.0568141E-1,1.6893027E-2,7.940722E-3,2.641883E-3,7.940722E-3],"split_indices":[0,7,0,10,7,0,0,0,0,9,10,0,0,0,0],"split_type":[0,0,0,0,0,0,0,0,0,0,0,0,0,0,0],"sum_hessian":[4.171173E3,1.445512E3,2.725661E3,2.0738801E3,6.5178076E2,3.115199E2,3.4026086E2,1.5057627E3,5.681173E2,3.4062152E2,1.1048904E3,6.7569403E2,4.291964E2,2.4784087E2,9.278066E1],"tree_param":{"num_deleted":"0","num_feature":"11","num_nodes":"15","size_leaf_vector":"1"}},{"base_weights":[6.3696587E-3,1.415992E-1,-1.283378E-1,-3.0507717E-1,-6.8911076E-2,1.12603895E-1,4.0722263E-1,-1.334738E-2,-4.1952234E-2,3.3153483E-4,7.097351E-3,3.3153483E-4,-5.4475195E-3,1.4776135E-2,3.170689E-2],"categories":[],"categories_nodes":[],"categories_segments":[],"categories_sizes":[],"default_left":[0,0,0,0,0,0,0,0,0,0,0,0,0,0,0],"id":32,"left_children":[1,5,3,7,11,9,13,-1,-1,-1,-1,-1,-1,-1,-1],"loss_changes":[7.6283005E1,1.6027016E1,2.2003063E1,1.0408535E1,7.3728137E0,9.632517E0,4.9217453E0,0E0,0E0,0E0,0E0,0E0,0E0,0E0,0E0],"parents":[2147483647,0,0,2,2,1,1,3,3,5,5,4,4,6,6],"right_children":[2,6,4,8,12,10,14,-1,-1,-1,-1,-1,-1,-1,-1],"split_conditions":[3E0,4.7370875E-1,-4.0398734E2,1.7E1,-4.08091E-2,4E0,5.9438927E1,-1.334738E-2,-4.1952234E-2,3.3153483E-4,7.097351E-3,3.3153483E-4,-5.4475195E-3,1.4776135E-2,3.170689E-2],"split_indices":[0,7,1,0,10,6,1,0,0,0,0,0,0,0,0],"split_type":[0,0,0,0,0,0,0,0,0,0,0,0,0,0,0],"sum_hessian":[4.184625E3,2.0882305E3,2.0963945E3,5.259792E2,1.5704154E3,1.8846125E3,2.0361806E2,4.9299185E2,3.2987362E1,2.0323425E2,1.6813783E3,3.485268E2,1.2218885E3,1.387303E2,6.488775E1],"tree_param":{"num_deleted":"0","num_feature":"11","num_nodes":"15","size_leaf_vector":"1"}},{"base_weights":[-1.2310623E-3,1.7963146E-1,-9.589154E-2,-1.6684728E-2,-2.2739619E-1,-1.0296552E-2,-4.054793E-2,4.1869957E-2,2.197362E-1,-6.102023E-3,9.38294E-4,4.375306E-3,1.3887799E-2,2.093498E-3,1.441061E-2],"categories":[],"categories_nodes":[],"categories_segments":[],"categories_sizes":[],"default_left":[0,0,0,0,0,0,0,0,0,0,0,0,0,0,0],"id":33,"left_children":[1,7,3,9,5,-1,-1,13,11,-1,-1,-1,-1,-1,-1],"loss_changes":[7.1419945E1,1.215115E1,2.8517305E1,9.947201E0,1.2646149E1,0E0,0E0,6.326699E0,9.507458E0,0E0,0E0,0E0,0E0,0E0,0E0],"parents":[2147483647,0,0,2,2,4,4,1,1,3,3,8,8,7,7],"right_children":[2,8,4,10,6,-1,-1,14,12,-1,-1,-1,-1,-1,-1],"split_conditions":[2E0,6E0,6E0,-8.8791065E-2,2E1,-1.0296552E-2,-4.054793E-2,6.9645605E0,-1.4099434E-2,-6.102023E-3,9.38294E-4,4.375306E-3,1.3887799E-2,2.093498E-3,1.441061E-2],"split_indices":[0,6,0,9,0,0,0,1,9,0,0,0,0,0,0],"split_type":[0,0,0,0,0,0,0,0,0,0,0,0,0,0,0],"sum_hessian":[4.168616E3,1.4317391E3,2.7368767E3,1.7091216E3,1.0277552E3,9.9322064E2,3.45346E1,1.892823E2,1.2424568E3,2.5011179E2,1.4590098E3,3.8004037E2,8.6241644E2,8.6466064E1,1.02816246E2],"tree_param":{"num_deleted":"0","num_feature":"11","num_nodes":"15","size_leaf_vector":"1"}},{"base_weights":[2.6439733E-4,8.689868E-2,-1.8981898E-1,-1.6864263E-1,-3.86392E-2,3.2290835E-2,1.8518227E-1,-2.5730075E-3,4.048702E-3,-1.2069795E-2,-2.5730075E-3,1.768273E-2,6.362812E-3],"categories":[],"categories_nodes":[],"categories_segments":[],"categories_sizes":[],"default_left":[0,0,0,0,0,0,0,0,0,0,0,0,0],"id":34,"left_children":[1,5,3,9,-1,7,11,-1,-1,-1,-1,-1,-1],"loss_changes":[6.9242096E1,1.5492842E1,1.6058918E1,1.2609764E1,0E0,1.6794632E1,9.997887E0,0E0,0E0,0E0,0E0,0E0,0E0],"parents":[2147483647,0,0,2,2,1,1,5,5,3,3,6,6],"right_children":[2,6,4,10,-1,8,12,-1,-1,-1,-1,-1,-1],"split_conditions":[5E0,6.9645605E0,1.9E1,4.3455356E-1,-3.86392E-2,5E0,1.5E1,-2.5730075E-3,4.048702E-3,-1.2069795E-2,-2.5730075E-3,1.768273E-2,6.362812E-3],"split_indices":[0,1,0,7,0,6,6,0,0,0,0,0,0],"split_type":[0,0,0,0,0,0,0,0,0,0,0,0,0],"sum_hessian":[4.201739E3,2.8868188E3,1.31492E3,1.2706678E3,4.4252285E1,1.8570067E3,1.0298121E3,1.5743861E2,1.6995681E3,8.3239246E2,4.3827536E2,2.615548E2,7.682573E2],"tree_param":{"num_deleted":"0","num_feature":"11","num_nodes":"13","size_leaf_vector":"1"}},{"base_weights":[-1.3356435E-2,1.4953752E-1,-9.749974E-2,-5.4489035E-2,-3.38241E-1,3.1802754E-4,-7.14107E-3,2.6018888E-2,1.8895657E-1,-1.4656221E-2,-4.7180664E-2,1.3009444E-3,1.1233928E-2,1.3009444E-3,1.4691065E-2],"categories":[],"categories_nodes":[],"categories_segments":[],"categories_sizes":[],"default_left":[0,0,0,0,0,0,0,0,0,0,0,0,0,0,0],"id":35,"left_children":[1,7,3,5,9,-1,-1,13,11,-1,-1,-1,-1,-1,-1],"loss_changes":[5.7147053E1,1.1434784E1,2.8438156E1,1.2547546E1,1.0965191E1,0E0,0E0,6.9816923E0,8.353573E0,0E0,0E0,0E0,0E0,0E0,0E0],"parents":[2147483647,0,0,2,2,3,3,1,1,4,4,8,8,7,7],"right_children":[2,8,4,6,10,-1,-1,14,12,-1,-1,-1,-1,-1,-1],"split_conditions":[2E0,5E0,1E1,9.339055E-2,2.1E1,3.1802754E-4,-7.14107E-3,6.9645605E0,4.019066E-1,-1.4656221E-2,-4.7180664E-2,1.3009444E-3,1.1233928E-2,1.3009444E-3,1.4691065E-2],"split_indices":[0,6,0,10,0,0,0,1,8,0,0,0,0,0,0],"split_type":[0,0,0,0,0,0,0,0,0,0,0,0,0,0,0],"sum_hessian":[4.1662925E3,1.4186864E3,2.747606E3,2.3326665E3,4.1493927E2,1.3820061E3,9.506606E2,1.7328658E2,1.2453998E3,3.8820068E2,2.673859E1,1.9640714E2,1.0489927E3,7.7405174E1,9.58814E1],"tree_param":{"num_deleted":"0","num_feature":"11","num_nodes":"15","size_leaf_vector":"1"}},{"base_weights":[-1.8634903E-3,6.0157973E-2,-1.9339891E-1,-2.8463392E-4,1.7217019E-1,-3.3310235E-3,2.7689333E-3,-1.7083792E-1,-3.4987096E-2,-1.4123248E-2,-3.36256E-3,6.95763E-3,1.9200817E-2],"categories":[],"categories_nodes":[],"categories_segments":[],"categories_sizes":[],"default_left":[0,0,0,0,0,0,0,0,0,0,0,0,0],"id":36,"left_children":[1,3,7,5,11,-1,-1,9,-1,-1,-1,-1,-1],"loss_changes":[4.946306E1,2.1295097E1,1.1458473E1,1.7923807E1,7.632019E0,0E0,0E0,1.1268974E1,0E0,0E0,0E0,0E0,0E0],"parents":[2147483647,0,0,1,1,3,3,2,2,7,7,4,4],"right_children":[2,4,8,6,12,-1,-1,10,-1,-1,-1,-1,-1],"split_conditions":[6E0,5.091137E0,1.9E1,9E0,4.7370875E-1,-3.3310235E-3,2.7689333E-3,4.155605E-1,-3.4987096E-2,-1.4123248E-2,-3.36256E-3,6.95763E-3,1.9200817E-2],"split_indices":[0,1,0,6,7,0,0,7,0,0,0,0,0],"split_type":[0,0,0,0,0,0,0,0,0,0,0,0,0],"sum_hessian":[4.1608423E3,3.143839E3,1.01700323E3,2.0429277E3,1.1009114E3,2.3529515E2,1.8076326E3,9.7551385E2,4.148942E1,4.6830408E2,5.0720975E2,9.545832E2,1.4632816E2],"tree_param":{"num_deleted":"0","num_feature":"11","num_nodes":"13","size_leaf_vector":"1"}},{"base_weights":[-5.1914947E-3,7.6940455E-2,-1.8817888E-1,3.1104693E-2,2.0638052E-1,-1.7034884E-1,-3.5881698E-2,3.957841E-3,-2.7809606E-3,-1.6785732E-2,-6.4817606E-3,9.170398E-3,2.6711378E-2],"categories":[],"categories_nodes":[],"categories_segments":[],"categories_sizes":[],"default_left":[0,0,0,0,0,0,0,0,0,0,0,0,0],"id":37,"left_children":[1,3,5,7,11,9,-1,-1,-1,-1,-1,-1,-1],"loss_changes":[6.22221E1,1.6944536E1,1.1927387E1,1.1710461E1,5.4815903E0,8.302513E0,0E0,0E0,0E0,0E0,0E0,0E0,0E0],"parents":[2147483647,0,0,1,1,2,2,3,3,5,5,4,4],"right_children":[2,4,6,8,12,10,-1,-1,-1,-1,-1,-1,-1],"split_conditions":[5E0,4.4640344E-1,1.9E1,1.20826185E-1,5.1747495E-1,-5.893719E2,-3.5881698E-2,3.957841E-3,-2.7809606E-3,-1.6785732E-2,-6.4817606E-3,9.170398E-3,2.6711378E-2],"split_indices":[0,7,0,10,8,1,0,0,0,0,0,0,0],"split_type":[0,0,0,0,0,0,0,0,0,0,0,0,0],"sum_hessian":[4.137178E3,2.8561003E3,1.2810781E3,2.1105679E3,7.4553235E2,1.2412312E3,3.9846886E1,1.517949E3,5.9261896E2,2.4310399E2,9.981272E2,6.9886694E2,4.6665417E1],"tree_param":{"num_deleted":"0","num_feature":"11","num_nodes":"13","size_leaf_vector":"1"}},{"base_weights":[-7.068538E-3,4.6434414E-2,-2.2990587E-1,1.436021E-1,-2.5625493E-2,-4.7604695E-1,-1.5267774E-1,7.8475795E-4,-4.5867865E-3,4.7055352E-3,1.3769067E-2,-1.5718117E-2,-3.2551646E-2,-1.1905372E-2,-4.5867865E-3],"categories":[],"categories_nodes":[],"categories_segments":[],"categories_sizes":[],"default_left":[0,0,0,0,0,0,0,0,0,0,0,0,0,0,0],"id":38,"left_children":[1,3,5,9,7,11,13,-1,-1,-1,-1,-1,-1,-1,-1],"loss_changes":[4.9425568E1,2.3413546E1,1.5149883E1,9.247486E0,9.602451E0,5.4906235E0,4.9273396E0,0E0,0E0,0E0,0E0,0E0,0E0,0E0,0E0],"parents":[2147483647,0,0,1,1,2,2,4,4,3,3,5,5,6,6],"right_children":[2,4,6,10,8,12,14,-1,-1,-1,-1,-1,-1,-1,-1],"split_conditions":[7E0,2E0,-5.495267E2,5E1,1.7744656E-1,6.82E1,4.2600238E-1,7.8475795E-4,-4.5867865E-3,4.7055352E-3,1.3769067E-2,-1.5718117E-2,-3.2551646E-2,-1.1905372E-2,-4.5867865E-3],"split_indices":[0,0,1,6,10,5,7,0,0,0,0,0,0,0,0],"split_type":[0,0,0,0,0,0,0,0,0,0,0,0,0,0,0],"sum_hessian":[4.1427485E3,3.3416006E3,8.011478E2,1.4222883E3,1.9193121E3,1.8950955E2,6.1163824E2,1.558957E3,3.603552E2,1.035812E3,3.8647635E2,9.721167E1,9.229788E1,3.3536493E2,2.7627332E2],"tree_param":{"num_deleted":"0","num_feature":"11","num_nodes":"15","size_leaf_vector":"1"}},{"base_weights":[-6.852176E-4,1.4804249E-1,-7.751873E-2,-5.067649E-2,-3.446455E-1,-9.88305E-3,-1.0877581E-3,3.5261877E-2,1.8627752E-1,1.7630939E-3,1.5182093E-2,1.3270636E-2,5.639174E-3,-2.6809735E-2,-1.1403452E-2],"categories":[],"categories_nodes":[],"categories_segments":[],"categories_sizes":[],"default_left":[0,0,0,0,0,0,0,0,0,0,0,0,0,0,0],"id":39,"left_children":[1,7,3,5,13,-1,-1,9,11,-1,-1,-1,-1,-1,-1],"loss_changes":[4.7108173E1,1.00862255E1,1.9464468E1,1.1851056E1,5.355982E0,0E0,0E0,7.0924025E0,7.0834236E0,0E0,0E0,0E0,0E0,0E0,0E0],"parents":[2147483647,0,0,2,2,3,3,1,1,7,7,8,8,4,4],"right_children":[2,8,4,6,14,-1,-1,10,12,-1,-1,-1,-1,-1,-1],"split_conditions":[2E0,5E0,1.1E1,-8.8791065E-2,-4.5743442E2,-9.88305E-3,-1.0877581E-3,6.9645605E0,5.283466E-2,1.7630939E-3,1.5182093E-2,1.3270636E-2,5.639174E-3,-2.6809735E-2,-1.1403452E-2],"split_indices":[0,6,0,9,1,0,0,1,10,0,0,0,0,0,0],"split_type":[0,0,0,0,0,0,0,0,0,0,0,0,0,0,0],"sum_hessian":[4.1194526E3,1.402751E3,2.7167017E3,2.4702388E3,2.4646274E2,3.6108893E2,2.10915E3,1.7870049E2,1.2240505E3,8.1688995E1,9.701149E1,5.8754376E2,6.365067E2,9.123368E1,1.5522905E2],"tree_param":{"num_deleted":"0","num_feature":"11","num_nodes":"15","size_leaf_vector":"1"}},{"base_weights":[-6.374238E-3,4.542385E-2,-1.6750777E-1,1.1834661E-1,-1.4479045E-2,-1.3849817E-1,-2.8592346E-2,-1.1701568E-2,-3.052098E-3,2.5966892E-3,8.598702E-3,2.359863E-3,-3.052098E-3],"categories":[],"categories_nodes":[],"categories_segments":[],"categories_sizes":[],"default_left":[0,0,0,0,0,0,0,0,0,0,0,0,0],"id":40,"left_children":[1,3,5,9,11,7,-1,-1,-1,-1,-1,-1,-1],"loss_changes":[3.461735E1,1.3713613E1,1.1717703E1,7.188986E0,7.096082E0,7.6173706E0,0E0,0E0,0E0,0E0,0E0,0E0,0E0],"parents":[2147483647,0,0,1,1,2,2,5,5,3,3,4,4],"right_children":[2,4,6,10,12,8,-1,-1,-1,-1,-1,-1,-1],"split_conditions":[6E0,2E0,1.7E1,-2.072332E-3,7.221677E-2,4.155605E-1,-2.8592346E-2,-1.1701568E-2,-3.052098E-3,2.5966892E-3,8.598702E-3,2.359863E-3,-3.052098E-3],"split_indices":[0,0,0,9,10,7,0,0,0,0,0,0,0],"split_type":[0,0,0,0,0,0,0,0,0,0,0,0,0],"sum_hessian":[4.14471E3,3.1372607E3,1.0074494E3,1.4142247E3,1.7230359E3,9.418592E2,6.5590195E1,4.4236993E2,4.9948926E2,4.8319626E2,9.3102856E2,9.238016E2,7.9923425E2],"tree_param":{"num_deleted":"0","num_feature":"11","num_nodes":"13","size_leaf_vector":"1"}},{"base_weights":[-7.712708E-3,8.932179E-2,-1.0389524E-1,-7.597349E-2,-3.110906E-1,-7.6319324E-3,-3.6433619E-4,-7.2867237E-3,1.21636294E-1,-3.6433619E-4,8.146695E-3,-3.6433619E-4,1.3530478E-2,-1.2834574E-2,-3.3136867E-2],"categories":[],"categories_nodes":[],"categories_segments":[],"categories_sizes":[],"default_left":[0,0,0,0,0,0,0,0,0,0,0,0,0,0,0],"id":41,"left_children":[1,7,3,5,13,-1,-1,11,9,-1,-1,-1,-1,-1,-1],"loss_changes":[3.85799E1,1.1270878E1,1.1974817E1,1.1574791E1,4.4556675E0,0E0,0E0,8.965521E0,1.1679552E1,0E0,0E0,0E0,0E0,0E0,0E0],"parents":[2147483647,0,0,2,2,3,3,1,1,8,8,7,7,4,4],"right_children":[2,8,4,6,14,-1,-1,12,10,-1,-1,-1,-1,-1,-1],"split_conditions":[3E0,4E0,1.1E1,1E0,2E1,-7.6319324E-3,-3.6433619E-4,6.9645605E0,3.880597E-1,-3.6433619E-4,8.146695E-3,-3.6433619E-4,1.3530478E-2,-1.2834574E-2,-3.3136867E-2],"split_indices":[0,6,0,2,0,0,0,1,7,0,0,0,0,0,0],"split_type":[0,0,0,0,0,0,0,0,0,0,0,0,0,0,0],"sum_hessian":[4.1307256E3,2.056305E3,2.0744207E3,1.8298505E3,2.4457028E2,9.5533514E2,8.745153E2,2.2417676E2,1.8321283E3,3.7869162E2,1.4534366E3,1.09563065E2,1.1461369E2,2.1401855E2,3.055172E1],"tree_param":{"num_deleted":"0","num_feature":"11","num_nodes":"15","size_leaf_vector":"1"}},{"base_weights":[-8.437154E-3,9.148125E-2,-1.0653404E-1,-7.526394E-3,1.4301823E-1,-9.6905515E-2,-3.7741356E-2,-8.784421E-3,-1.421042E-3,1.0741807E-2,3.3872959E-3,-3.7631972E-4,3.3872959E-3],"categories":[],"categories_nodes":[],"categories_segments":[],"categories_sizes":[],"default_left":[0,0,0,0,0,0,0,0,0,0,0,0,0],"id":42,"left_children":[1,3,5,11,9,7,-1,-1,-1,-1,-1,-1,-1],"loss_changes":[4.032087E1,1.5193266E1,1.2849052E1,3.236696E0,9.3334255E0,1.1037083E1,0E0,0E0,0E0,0E0,0E0,0E0,0E0],"parents":[2147483647,0,0,1,1,2,2,5,5,4,4,3,3],"right_children":[2,4,6,12,10,8,-1,-1,-1,-1,-1,-1,-1],"split_conditions":[3E0,3.9300737E-1,2E1,1.7761288E1,8.271684E-2,4.1599065E-1,-3.7741356E-2,-8.784421E-3,-1.421042E-3,1.0741807E-2,3.3872959E-3,-3.7631972E-4,3.3872959E-3],"split_indices":[0,7,0,1,10,7,0,0,0,0,0,0,0],"split_type":[0,0,0,0,0,0,0,0,0,0,0,0,0],"sum_hessian":[4.1106963E3,2.0364872E3,2.074209E3,4.8612207E2,1.5503652E3,2.045527E3,2.868195E1,9.501635E2,1.0953634E3,8.3662274E2,7.1374243E2,3.7770404E2,1.0841801E2],"tree_param":{"num_deleted":"0","num_feature":"11","num_nodes":"13","size_leaf_vector":"1"}},{"base_weights":[-1.5191805E-2,6.951023E-2,-9.934252E-2,-3.204781E-1,-6.816405E-2,-7.4580725E-4,1.1666447E-1,-1.5778957E-3,-9.716054E-3,-2.6456995E-2,-9.716054E-3,9.1461595E-3,2.543708E-3],"categories":[],"categories_nodes":[],"categories_segments":[],"categories_sizes":[],"default_left":[0,0,0,0,0,0,0,0,0,0,0,0,0],"id":43,"left_children":[1,5,3,9,7,-1,11,-1,-1,-1,-1,-1,-1],"loss_changes":[2.9297935E1,1.3649292E1,1.4183258E1,9.91394E0,1.0553167E1,0E0,7.493759E0,0E0,0E0,0E0,0E0,0E0,0E0],"parents":[2147483647,0,0,2,2,1,1,4,4,3,3,6,6],"right_children":[2,6,4,10,8,-1,12,-1,-1,-1,-1,-1,-1],"split_conditions":[3E0,3.880597E-1,-6.855137E2,3.8E1,1E1,-7.4580725E-4,7.221677E-2,-1.5778957E-3,-9.716054E-3,-2.6456995E-2,-9.716054E-3,9.1461595E-3,2.543708E-3],"split_indices":[0,7,1,6,0,0,10,0,0,0,0,0,0],"split_type":[0,0,0,0,0,0,0,0,0,0,0,0,0],"sum_hessian":[4.1074736E3,2.0471554E3,2.0603184E3,2.5289793E2,1.8074204E3,4.1684808E2,1.6303074E3,1.4857224E3,3.21698E2,1.2356794E2,1.2932999E2,8.3355817E2,7.967492E2],"tree_param":{"num_deleted":"0","num_feature":"11","num_nodes":"13","size_leaf_vector":"1"}},{"base_weights":[-1.2195225E-2,-1.9464391E-1,2.6322648E-2,1.1349065E-1,-2.6730087E-2,-4.2080316E-3,2.1690142E-3,-1.0127186E-1,-3.4243083E-1,3.7879196E-3,1.3907007E-2,-1.1092568E-2,-4.2080316E-3,-1.1092568E-2,-2.4036188E-2],"categories":[],"categories_nodes":[],"categories_segments":[],"categories_sizes":[],"default_left":[0,0,0,0,0,0,0,0,0,0,0,0,0,0,0],"id":44,"left_children":[1,7,3,9,5,-1,-1,11,13,-1,-1,-1,-1,-1,-1],"loss_changes":[2.891158E1,9.844522E0,1.5715345E1,7.956171E0,1.2413173E1,0E0,0E0,5.5260057E0,5.126728E0,0E0,0E0,0E0,0E0,0E0,0E0],"parents":[2147483647,0,0,2,2,4,4,1,1,3,3,7,7,8,8],"right_children":[2,8,4,10,6,-1,-1,12,14,-1,-1,-1,-1,-1,-1],"split_conditions":[-3.9434232E2,7E0,2E0,4.578686E-1,4.163741E-1,-4.2080316E-3,2.1690142E-3,1.4E1,6.82E1,3.7879196E-3,1.3907007E-2,-1.1092568E-2,-4.2080316E-3,-1.1092568E-2,-2.4036188E-2],"split_indices":[1,0,0,7,7,0,0,6,5,0,0,0,0,0,0],"split_type":[0,0,0,0,0,0,0,0,0,0,0,0,0,0,0],"sum_hessian":[4.111435E3,7.1564594E2,3.3957893E3,1.2841703E3,2.111619E3,9.3617255E2,1.1754464E3,4.4008957E2,2.755564E2,1.0465057E3,2.3766461E2,6.929863E1,3.7079092E2,1.393455E2,1.3621088E2],"tree_param":{"num_deleted":"0","num_feature":"11","num_nodes":"15","size_leaf_vector":"1"}},{"base_weights":[-5.530808E-3,3.132429E-2,-1.6350953E-1,-3.3046312E-3,6.059453E-2,1.6510133E-3,1.1065873E-2,-3.0390418E-1,-7.856332E-2,-2.0410879E-2,-9.561688E-3,-9.561688E-3,-3.3046312E-3],"categories":[],"categories_nodes":[],"categories_segments":[],"categories_sizes":[],"default_left":[0,0,0,0,0,0,0,0,0,0,0,0,0],"id":45,"left_children":[1,3,7,-1,5,-1,-1,9,11,-1,-1,-1,-1],"loss_changes":[2.3910818E1,1.0084646E1,9.229176E0,0E0,1.1502166E1,0E0,0E0,6.2481117E0,4.451563E0,0E0,0E0,0E0,0E0],"parents":[2147483647,0,0,1,1,4,4,2,2,7,7,8,8],"right_children":[2,4,8,-1,6,-1,-1,10,12,-1,-1,-1,-1],"split_conditions":[7E0,4.0849724E-1,-4.642857E-3,-3.3046312E-3,5.6E1,1.6510133E-3,1.1065873E-2,-4.456823E1,3.8E1,-2.0410879E-2,-9.561688E-3,-9.561688E-3,-3.3046312E-3],"split_indices":[0,8,9,0,6,0,0,1,6,0,0,0,0],"split_type":[0,0,0,0,0,0,0,0,0,0,0,0,0],"sum_hessian":[4.1039175E3,3.32857E3,7.7534735E2,7.322689E2,2.5963013E3,2.2176216E3,3.7867972E2,2.908431E2,4.8450424E2,2.1119199E2,7.9651115E1,2.3261095E2,2.5189331E2],"tree_param":{"num_deleted":"0","num_feature":"11","num_nodes":"13","size_leaf_vector":"1"}},{"base_weights":[7.201407E-5,1.09162286E-1,-5.5863243E-2,-1.1705806E-1,1.8646954E-2,5.718658E-2,2.4617559E-1,1.3324762E-3,1.2572639E-2,-3.5336197E-3,-1.1277038E-2,3.6865354E-2,1.0593071E-2,-2.4602776E-3,1.3324762E-3],"categories":[],"categories_nodes":[],"categories_segments":[],"categories_sizes":[],"default_left":[0,0,0,0,0,0,0,0,0,0,0,0,0,0,0],"id":46,"left_children":[1,5,3,9,13,7,11,-1,-1,-1,-1,-1,-1,-1,-1],"loss_changes":[2.493305E1,9.84202E0,1.231924E1,7.440279E0,4.251103E0,9.718678E0,6.181074E0,0E0,0E0,0E0,0E0,0E0,0E0,0E0,0E0],"parents":[2147483647,0,0,2,2,1,1,5,5,3,3,6,6,4,4],"right_children":[2,6,4,10,14,8,12,-1,-1,-1,-1,-1,-1,-1,-1],"split_conditions":[2E0,5E1,5.3374868E-2,7E0,2.6E1,4.6653304E-1,4.1E1,1.3324762E-3,1.2572639E-2,-3.5336197E-3,-1.1277038E-2,3.6865354E-2,1.0593071E-2,-2.4602776E-3,1.3324762E-3],"split_indices":[0,6,9,0,6,8,5,0,0,0,0,0,0,0,0],"split_type":[0,0,0,0,0,0,0,0,0,0,0,0,0,0,0],"sum_hessian":[4.0830574E3,1.3834763E3,2.699581E3,1.4817738E3,1.2178073E3,1.0045139E3,3.789624E2,7.9510205E2,2.0941188E2,1.0396703E3,4.4210355E2,2.2771145E1,3.5619125E2,3.0007047E2,9.177369E2],"tree_param":{"num_deleted":"0","num_feature":"11","num_nodes":"15","size_leaf_vector":"1"}},{"base_weights":[-6.125852E-3,-1.8379992E-1,2.205088E-2,6.0907677E-2,-4.043726E-3,-4.9917103E-4,6.3541266E-3,-1.0128794E-1,-3.5430968E-1,-1.138994E-2,-4.043726E-3,-2.2476764E-2,-1.138994E-2],"categories":[],"categories_nodes":[],"categories_segments":[],"categories_sizes":[],"default_left":[0,0,0,0,0,0,0,0,0,0,0,0,0],"id":47,"left_children":[1,7,3,5,-1,-1,-1,9,11,-1,-1,-1,-1],"loss_changes":[2.040026E1,7.794283E0,1.636095E1,1.3229738E1,0E0,0E0,0E0,3.7346556E0,3.5995312E0,0E0,0E0,0E0,0E0],"parents":[2147483647,0,0,2,2,3,3,1,1,7,7,8,8],"right_children":[2,8,4,6,-1,-1,-1,10,12,-1,-1,-1,-1],"split_conditions":[-9.114156E-2,6.288372E-2,6E0,-7.790936E0,-4.043726E-3,-4.9917103E-4,6.3541266E-3,4.78E1,4.2141718E-1,-1.138994E-2,-4.043726E-3,-2.2476764E-2,-1.138994E-2],"split_indices":[9,10,0,1,0,0,0,5,8,0,0,0,0],"split_type":[0,0,0,0,0,0,0,0,0,0,0,0,0],"sum_hessian":[4.0721934E3,5.562861E2,3.5159075E3,2.6665137E3,8.493937E2,1.2501055E3,1.4164083E3,3.7646655E2,1.7981953E2,5.379806E1,3.226685E2,1.3230556E2,4.751397E1],"tree_param":{"num_deleted":"0","num_feature":"11","num_nodes":"13","size_leaf_vector":"1"}},{"base_weights":[-1.1720853E-2,5.7244804E-2,-8.009132E-2,-1.691879E-2,-1.7933346E-1,-1.7050883E-2,-4.9063065E-3,2.0099381E-2,1.8586768E-1,3.8749762E-3,-5.711629E-4,1.4972768E-2,5.149177E-3,-4.9063065E-3,-5.711629E-4],"categories":[],"categories_nodes":[],"categories_segments":[],"categories_sizes":[],"default_left":[0,0,0,0,0,0,0,0,0,0,0,0,0,0,0],"id":48,"left_children":[1,7,3,13,5,-1,-1,9,11,-1,-1,-1,-1,-1,-1],"loss_changes":[1.9378155E1,9.770161E0,1.2933285E1,4.0123696E0,1.4900082E1,0E0,0E0,5.916151E0,5.0623837E0,0E0,0E0,0E0,0E0,0E0,0E0],"parents":[2147483647,0,0,2,2,4,4,1,1,7,7,8,8,3,3],"right_children":[2,8,4,14,6,-1,-1,10,12,-1,-1,-1,-1,-1,-1],"split_conditions":[3E0,4.5124376E-1,1.04572445E-1,-1.1847403E-1,4.1908017E-1,-1.7050883E-2,-4.9063065E-3,8.271684E-2,7.7643715E-2,3.8749762E-3,-5.711629E-4,1.4972768E-2,5.149177E-3,-4.9063065E-3,-5.711629E-4],"split_indices":[0,7,10,9,7,0,0,10,10,0,0,0,0,0,0],"split_type":[0,0,0,0,0,0,0,0,0,0,0,0,0,0,0],"sum_hessian":[4.1067583E3,2.0445951E3,2.0621633E3,1.261128E3,8.010352E2,3.4102557E2,4.6000967E2,1.5877703E3,4.5682483E2,9.464454E2,6.413249E2,2.116341E2,2.4519073E2,1.638488E2,1.0972792E3],"tree_param":{"num_deleted":"0","num_feature":"11","num_nodes":"15","size_leaf_vector":"1"}},{"base_weights":[-3.6918146E-3,-5.2767374E-2,1.0406471E-1,-6.728704E-1,-2.9747996E-2,-4.7575544E-5,-1.1959667E-2,2.3382802E-1,6.622881E-2,8.942198E-3,1.2824334E-3,1.4908551E-2,1.2824334E-3,-5.4924905E-2,-2.7371382E-2],"categories":[],"categories_nodes":[],"categories_segments":[],"categories_sizes":[],"default_left":[0,0,0,0,0,0,0,0,0,0,0,0,0,0,0],"id":49,"left_children":[1,3,7,13,5,-1,-1,11,9,-1,-1,-1,-1,-1,-1],"loss_changes":[2.1640003E1,4.010373E1,6.264077E0,4.4814796E0,1.6359318E1,0E0,0E0,6.0409317E0,6.7670183E0,0E0,0E0,0E0,0E0,0E0,0E0],"parents":[2147483647,0,0,1,1,4,4,2,2,8,8,7,7,3,3],"right_children":[2,4,8,14,6,-1,-1,12,10,-1,-1,-1,-1,-1,-1],"split_conditions":[6.9645605E0,3E0,1.6E1,5.52E1,1E1,-4.7575544E-5,-1.1959667E-2,4E0,-2.6627865E-2,8.942198E-3,1.2824334E-3,1.4908551E-2,1.2824334E-3,-5.4924905E-2,-2.7371382E-2],"split_indices":[1,6,6,5,0,0,0,0,10,0,0,0,0,0,0],"split_type":[0,0,0,0,0,0,0,0,0,0,0,0,0,0,0],"sum_hessian":[4.0890796E3,2.8100554E3,1.2790242E3,9.908755E1,2.710968E3,2.384598E3,3.263701E2,2.8701184E2,9.920123E2,3.566103E2,6.3540204E2,2.482191E2,3.8792725E1,1.9947035E1,7.914051E1],"tree_param":{"num_deleted":"0","num_feature":"11","num_nodes":"15","size_leaf_vector":"1"}},{"base_weights":[-9.0858975E-4,2.4644852E-2,-1.4579833E-1,-3.0288368E-3,4.796001E-2,9.587735E-4,8.484277E-3,-2.7312538E-1,-6.0576737E-2,-8.342553E-3,-1.9641787E-2,-3.0288368E-3,-8.342553E-3],"categories":[],"categories_nodes":[],"categories_segments":[],"categories_sizes":[],"default_left":[0,0,0,0,0,0,0,0,0,0,0,0,0],"id":50,"left_children":[1,3,7,-1,5,-1,-1,9,11,-1,-1,-1,-1],"loss_changes":[1.5088764E1,1.0409711E1,8.852902E0,0E0,1.0576589E1,0E0,0E0,6.466196E0,2.8338385E0,0E0,0E0,0E0,0E0],"parents":[2147483647,0,0,1,1,4,4,2,2,7,7,8,8],"right_children":[2,4,8,-1,6,-1,-1,10,12,-1,-1,-1,-1],"split_conditions":[8E0,9E0,4.155605E-1,-3.0288368E-3,1.5631245E-1,9.587735E-4,8.484277E-3,1.3134804E-2,1.5E1,-8.342553E-3,-1.9641787E-2,-3.0288368E-3,-8.342553E-3],"split_indices":[0,6,7,0,9,0,0,10,0,0,0,0,0],"split_type":[0,0,0,0,0,0,0,0,0,0,0,0,0],"sum_hessian":[4.072376E3,3.462869E3,6.0950696E2,4.443975E2,3.0184714E3,2.442586E3,5.758856E2,2.9282303E2,3.1668393E2,1.01794975E2,1.9102805E2,2.678765E2,4.8807457E1],"tree_param":{"num_deleted":"0","num_feature":"11","num_nodes":"13","size_leaf_vector":"1"}},{"base_weights":[-1.5952257E-2,3.2999203E-2,-9.755179E-2,-2.5815463E-1,-3.3882022E-2,-6.4516063E-3,1.15932174E-1,-2.6101226E-2,-9.564877E-3,-1.6138147E-3,2.7370143E-3,-7.3009166E-3,-1.6138147E-3,9.793114E-3,2.7370143E-3],"categories":[],"categories_nodes":[],"categories_segments":[],"categories_sizes":[],"default_left":[0,0,0,0,0,0,0,0,0,0,0,0,0,0,0],"id":51,"left_children":[1,5,3,7,11,9,13,-1,-1,-1,-1,-1,-1,-1,-1],"loss_changes":[1.6152729E1,8.271929E0,1.549101E1,7.442274E0,5.9241858E0,6.8681297E0,5.5523777E0,0E0,0E0,0E0,0E0,0E0,0E0,0E0,0E0],"parents":[2147483647,0,0,2,2,1,1,3,3,5,5,4,4,6,6],"right_children":[2,6,4,8,12,10,14,-1,-1,-1,-1,-1,-1,-1,-1],"split_conditions":[1.04572445E-1,7.5445354E-2,-3.2243777E2,-4.693563E-2,4.0907064E-1,4.5E1,3E0,-2.6101226E-2,-9.564877E-3,-1.6138147E-3,2.7370143E-3,-7.3009166E-3,-1.6138147E-3,9.793114E-3,2.7370143E-3],"split_indices":[10,9,1,9,8,6,0,0,0,0,0,0,0,0,0],"split_type":[0,0,0,0,0,0,0,0,0,0,0,0,0,0,0],"sum_hessian":[4.0411125E3,2.5264E3,1.5147126E3,4.2873517E2,1.0859775E3,1.7129242E3,8.134757E2,8.4635315E1,3.4409985E2,1.206475E3,5.0644928E2,1.623256E2,9.2365186E2,4.3076364E2,3.8271204E2],"tree_param":{"num_deleted":"0","num_feature":"11","num_nodes":"15","size_leaf_vector":"1"}},{"base_weights":[-9.635149E-3,-6.944819E-2,6.118299E-2,-5.7002825E-1,-5.1318098E-2,-2.0662993E-4,-6.597046E-3,3.961387E-2,2.386477E-1,5.1224553E-3,-2.0662993E-4,-3.4324255E-2,-2.2714597E-3,8.298799E-3,2.4540192E-2],"categories":[],"categories_nodes":[],"categories_segments":[],"categories_sizes":[],"default_left":[0,0,0,0,0,0,0,0,0,0,0,0,0,0,0],"id":52,"left_children":[1,3,7,11,5,-1,-1,9,13,-1,-1,-1,-1,-1,-1],"loss_changes":[1.7227272E1,1.9965967E1,7.114494E0,4.652462E0,1.0901922E1,0E0,0E0,4.823183E0,3.5725298E0,0E0,0E0,0E0,0E0,0E0,0E0],"parents":[2147483647,0,0,1,1,4,4,2,2,7,7,3,3,8,8],"right_children":[2,4,8,12,6,-1,-1,10,14,-1,-1,-1,-1,-1,-1],"split_conditions":[-7.790936E0,3E0,4.862958E-1,7.97E1,1.04572445E-1,-2.0662993E-4,-6.597046E-3,2E0,4.5E1,5.1224553E-3,-2.0662993E-4,-3.4324255E-2,-2.2714597E-3,8.298799E-3,2.4540192E-2],"split_indices":[1,6,8,5,10,0,0,0,6,0,0,0,0,0,0],"split_type":[0,0,0,0,0,0,0,0,0,0,0,0,0,0,0],"sum_hessian":[4.0640217E3,2.2032192E3,1.8608025E3,7.543501E1,2.1277842E3,1.1716476E3,9.561367E2,1.6607628E3,2.0003966E2,7.0314325E2,9.5761957E2,6.135725E1,1.4077759E1,1.5718895E2,4.285071E1],"tree_param":{"num_deleted":"0","num_feature":"11","num_nodes":"15","size_leaf_vector":"1"}},{"base_weights":[-8.6863255E-3,8.434463E-2,-5.6518894E-2,-1.8251E-2,-1.5517844E-1,-2.4565084E-2,-5.0064884E-3,-4.3357364E-3,6.956435E-4,1.391287E-2,1.17296174E-1,6.956435E-4,7.5358483E-3,6.956435E-4,1.0117192E-2],"categories":[],"categories_nodes":[],"categories_segments":[],"categories_sizes":[],"default_left":[0,0,0,0,0,0,0,0,0,0,0,0,0,0,0],"id":53,"left_children":[1,9,3,7,5,-1,-1,-1,-1,13,11,-1,-1,-1,-1],"loss_changes":[1.8187618E1,5.905286E0,1.0186429E1,6.5823865E0,1.3881517E1,0E0,0E0,0E0,0E0,3.6336682E0,6.022545E0,0E0,0E0,0E0,0E0],"parents":[2147483647,0,0,2,2,4,4,3,3,1,1,10,10,9,9],"right_children":[2,10,4,8,6,-1,-1,-1,-1,14,12,-1,-1,-1,-1],"split_conditions":[2E0,6E0,1.4145343E-1,4.150845E-1,3.8693282E-1,-2.4565084E-2,-5.0064884E-3,-4.3357364E-3,6.956435E-4,6.9645605E0,4.019066E-1,6.956435E-4,7.5358483E-3,6.956435E-4,1.0117192E-2],"split_indices":[0,6,10,8,7,0,0,0,0,1,8,0,0,0,0],"split_type":[0,0,0,0,0,0,0,0,0,0,0,0,0,0,0],"sum_hessian":[4.084095E3,1.3864355E3,2.6976594E3,1.9449948E3,7.5266473E2,1.0427212E2,6.4839264E2,6.3893176E2,1.306063E3,1.9121317E2,1.1952224E3,1.9146918E2,1.0037532E3,9.0349846E1,1.0086331E2],"tree_param":{"num_deleted":"0","num_feature":"11","num_nodes":"15","size_leaf_vector":"1"}},{"base_weights":[-5.4417523E-3,7.9694174E-2,-4.9524143E-2,-1.2288922E-1,1.3778135E-2,-2.7277772E-3,-1.2844428E-2,2.568427E-2,1.5755695E-1,1.6443117E-2,7.542508E-4,7.542508E-4,-2.7277772E-3,2.0107353E-2,6.3496158E-3],"categories":[],"categories_nodes":[],"categories_segments":[],"categories_sizes":[],"default_left":[0,0,0,0,0,0,0,0,0,0,0,0,0,0,0],"id":54,"left_children":[1,7,3,5,11,-1,-1,9,13,-1,-1,-1,-1,-1,-1],"loss_changes":[1.5271526E1,5.83191E0,1.2453004E1,1.1467087E1,4.587692E0,0E0,0E0,8.728962E0,4.1729164E0,0E0,0E0,0E0,0E0,0E0,0E0],"parents":[2147483647,0,0,2,2,3,3,1,1,7,7,4,4,8,8],"right_children":[2,8,4,6,12,-1,-1,10,14,-1,-1,-1,-1,-1,-1],"split_conditions":[2E0,7.07E1,4.1599065E-1,1.0022723E-1,1.9888164E-1,-2.7277772E-3,-1.2844428E-2,-8.5678905E-2,7.27E1,1.6443117E-2,7.542508E-4,7.542508E-4,-2.7277772E-3,2.0107353E-2,6.3496158E-3],"split_indices":[0,5,7,10,10,0,0,10,5,0,0,0,0,0,0],"split_type":[0,0,0,0,0,0,0,0,0,0,0,0,0,0,0],"sum_hessian":[4.0660894E3,1.3867206E3,2.6793687E3,1.2404044E3,1.4389642E3,8.20024E2,4.2038043E2,8.199385E2,5.6678217E2,8.811828E1,7.318202E2,1.1781824E3,2.607819E2,6.096248E1,5.0581967E2],"tree_param":{"num_deleted":"0","num_feature":"11","num_nodes":"15","size_leaf_vector":"1"}},{"base_weights":[-1.6704872E-3,1.416601E-2,-2.6341602E-1,3.764612E-2,-1.1946811E-1,-9.947843E-4,4.8776004E-3,-2.059381E-1,-3.3387385E-2,-1.8133184E-2,-6.2312502E-3,-2.04555E-3,-6.2312502E-3],"categories":[],"categories_nodes":[],"categories_segments":[],"categories_sizes":[],"default_left":[0,0,0,0,0,0,0,0,0,0,0,0,0],"id":55,"left_children":[1,3,7,5,11,-1,-1,9,-1,-1,-1,-1,-1],"loss_changes":[1.6882208E1,1.20571165E1,5.197075E0,1.1266859E1,3.1318178E0,0E0,0E0,4.9929705E0,0E0,0E0,0E0,0E0,0E0],"parents":[2147483647,0,0,1,1,3,3,2,2,7,7,4,4],"right_children":[2,4,8,6,12,-1,-1,10,-1,-1,-1,-1,-1],"split_conditions":[1.1E1,1.9687463E-1,2E1,-5.387965E0,5.2E1,-9.947843E-4,4.8776004E-3,4.2E1,-3.3387385E-2,-1.8133184E-2,-6.2312502E-3,-2.04555E-3,-6.2312502E-3],"split_indices":[0,10,0,1,5,0,0,6,0,0,0,0,0],"split_type":[0,0,0,0,0,0,0,0,0,0,0,0,0],"sum_hessian":[4.0698477E3,3.8389712E3,2.3087651E2,3.2661582E3,5.72813E2,1.6664486E3,1.5997097E3,2.0409395E2,2.6782564E1,1.11029915E2,9.306403E1,1.12093796E2,4.6071918E2],"tree_param":{"num_deleted":"0","num_feature":"11","num_nodes":"13","size_leaf_vector":"1"}},{"base_weights":[-8.600768E-3,-2.6376091E-2,1.6572584E-1,2.0724075E-2,-1.1211651E-1,6.967488E-2,3.739157E-1,-1.2013278E-2,-3.5445124E-3,3.3125866E-2,1.0327711E-2,-2.2848109E-3,2.7838692E-3,3.483744E-3,2.6902495E-2],"categories":[],"categories_nodes":[],"categories_segments":[],"categories_sizes":[],"default_left":[0,0,0,0,0,0,0,0,0,0,0,0,0,0,0],"id":56,"left_children":[1,3,5,11,7,13,9,-1,-1,-1,-1,-1,-1,-1,-1],"loss_changes":[1.266188E1,1.4975639E1,8.923832E0,5.653953E0,6.9208374E0,4.6657324E0,6.278446E0,0E0,0E0,0E0,0E0,0E0,0E0,0E0,0E0],"parents":[2147483647,0,0,1,1,2,2,4,4,6,6,3,3,5,5],"right_children":[2,4,6,12,8,14,10,-1,-1,-1,-1,-1,-1,-1,-1],"split_conditions":[4.7370875E-1,1.0712386E-1,4E1,4.150845E-1,-3.9434232E2,5.325751E-1,7.636678E-2,-1.2013278E-2,-3.5445124E-3,3.3125866E-2,1.0327711E-2,-2.2848109E-3,2.7838692E-3,3.483744E-3,2.6902495E-2],"split_indices":[7,10,6,8,1,8,10,0,0,0,0,0,0,0,0],"split_type":[0,0,0,0,0,0,0,0,0,0,0,0,0,0,0],"sum_hessian":[4.0825679E3,3.7059458E3,3.7662207E2,2.3926777E3,1.3132681E3,2.439301E2,1.3269199E2,3.1791266E2,9.953554E2,4.7099567E1,8.5592415E1,8.158928E2,1.5767849E3,2.2410864E2,1.9821455E1],"tree_param":{"num_deleted":"0","num_feature":"11","num_nodes":"15","size_leaf_vector":"1"}},{"base_weights":[4.0775562E-6,-1.000877E-1,3.1923685E-2,-2.0120709E-1,-3.408201E-2,1.5189993E-2,1.4537674E-1,-1.4649738E-3,3.6708266E-3,-1.7041005E-3,-5.8822273E-3,5.3283777E-3,1.9769538E-2,-1.40924E-2,-5.8822273E-3],"categories":[],"categories_nodes":[],"categories_segments":[],"categories_sizes":[],"default_left":[0,0,0,0,0,0,0,0,0,0,0,0,0,0,0],"id":57,"left_children":[1,3,5,13,9,7,11,-1,-1,-1,-1,-1,-1,-1,-1],"loss_changes":[1.2942371E1,8.332766E0,5.827886E0,3.3777676E0,3.8486493E0,6.9413657E0,3.766778E0,0E0,0E0,0E0,0E0,0E0,0E0,0E0,0E0],"parents":[2147483647,0,0,1,1,2,2,5,5,4,4,6,6,3,3],"right_children":[2,4,6,14,10,8,12,-1,-1,-1,-1,-1,-1,-1,-1],"split_conditions":[-2.7022415E2,4.2381006E-1,5.6E1,3.935155E-1,1.9687463E-1,6.9645605E0,4.6578065E-1,-1.4649738E-3,3.6708266E-3,-1.7041005E-3,-5.8822273E-3,5.3283777E-3,1.9769538E-2,-1.40924E-2,-5.8822273E-3],"split_indices":[1,8,6,7,10,1,7,0,0,0,0,0,0,0,0],"split_type":[0,0,0,0,0,0,0,0,0,0,0,0,0,0,0],"sum_hessian":[4.0479666E3,9.78008E2,3.0699585E3,4.4969995E2,5.2830804E2,2.6768223E3,3.931362E2,1.5178176E3,1.1590046E3,3.8585767E2,1.4245038E2,3.421359E2,5.1000305E1,2.4139629E2,2.0830368E2],"tree_param":{"num_deleted":"0","num_feature":"11","num_nodes":"15","size_leaf_vector":"1"}},{"base_weights":[-9.926486E-3,1.455114E-2,-1.4782259E-1,-3.3317865E-3,4.5659382E-2,-1.2409963E-1,-7.7952474E-1,-1.7018909E-2,-3.522686E-3,-3.3317865E-3,-5.1357817E-2,-5.2440865E-4,3.2286495E-3],"categories":[],"categories_nodes":[],"categories_segments":[],"categories_sizes":[],"default_left":[0,0,0,0,0,0,0,0,0,0,0,0,0],"id":58,"left_children":[1,3,5,-1,11,7,9,-1,-1,-1,-1,-1,-1],"loss_changes":[1.3612178E1,1.0316989E1,8.96774E0,0E0,4.3602133E0,6.783161E0,4.5629168E0,0E0,0E0,0E0,0E0,0E0,0E0],"parents":[2147483647,0,0,1,1,2,2,5,5,6,6,4,4],"right_children":[2,4,6,-1,12,8,10,-1,-1,-1,-1,-1,-1],"split_conditions":[1.9687463E-1,4.0849724E-1,8.82E1,-3.3317865E-3,-3.7663614E2,3.997272E-1,2.2618605E-1,-1.7018909E-2,-3.522686E-3,-3.3317865E-3,-5.1357817E-2,-5.2440865E-4,3.2286495E-3],"split_indices":[10,8,5,0,1,7,10,0,0,0,0,0,0],"split_type":[0,0,0,0,0,0,0,0,0,0,0,0,0],"sum_hessian":[4.0302954E3,3.4238513E3,6.06444E2,8.162562E2,2.6075952E3,5.8619775E2,2.0246206E1,1.149323E2,4.7126544E2,4.804466E0,1.5441741E1,3.7528107E2,2.2323142E3],"tree_param":{"num_deleted":"0","num_feature":"11","num_nodes":"13","size_leaf_vector":"1"}},{"base_weights":[3.944787E-3,-7.329677E-2,4.8265155E-2,-3.544338E-2,-2.2392297E-1,-6.4841583E-3,-1.778226E-2,7.719351E-2,-6.257904E-4,6.342818E-3,1.6169427E-3,-5.1108785E-3,-6.257904E-4],"categories":[],"categories_nodes":[],"categories_segments":[],"categories_sizes":[],"default_left":[0,0,0,0,0,0,0,0,0,0,0,0,0],"id":59,"left_children":[1,3,7,11,5,-1,-1,9,-1,-1,-1,-1,-1],"loss_changes":[1.3951275E1,8.460109E0,6.4003816E0,4.4074802E0,6.5684156E0,0E0,0E0,4.8488836E0,0E0,0E0,0E0,0E0,0E0],"parents":[2147483647,0,0,1,1,4,4,2,2,7,7,3,3],"right_children":[2,4,8,12,6,-1,-1,10,-1,-1,-1,-1,-1],"split_conditions":[-9.350176E-4,7E0,6E0,4.1553652E-1,8.641754E-3,-6.4841583E-3,-1.778226E-2,7.867409E-2,-6.257904E-4,6.342818E-3,1.6169427E-3,-5.1108785E-3,-6.257904E-4],"split_indices":[9,0,0,8,10,0,0,10,0,0,0,0,0],"split_type":[0,0,0,0,0,0,0,0,0,0,0,0,0],"sum_hessian":[4.0722568E3,1.4843503E3,2.5879065E3,1.1877014E3,2.9664893E2,1.1714275E2,1.7950616E2,1.9825033E3,6.0540314E2,9.8827594E2,9.942274E2,6.239881E2,5.637133E2],"tree_param":{"num_deleted":"0","num_feature":"11","num_nodes":"13","size_leaf_vector":"1"}},{"base_weights":[-1.3404046E-2,2.0907935E-2,-9.140799E-2,-2.6018357E-1,-4.7294512E-2,-5.0820196E-3,1.0972676E-1,-1.7625015E-3,5.231777E-3,9.445249E-3,-3.7927492E-4,-7.6869517E-3,-1.9883921E-2,-7.6869517E-3,-1.7625015E-3],"categories":[],"categories_nodes":[],"categories_segments":[],"categories_sizes":[],"default_left":[0,0,0,0,0,0,0,0,0,0,0,0,0,0,0],"id":60,"left_children":[1,5,3,11,13,7,9,-1,-1,-1,-1,-1,-1,-1,-1],"loss_changes":[1.0817132E1,6.48139E0,9.173985E0,4.6837997E0,4.5661054E0,7.6737847E0,5.9059577E0,0E0,0E0,0E0,0E0,0E0,0E0,0E0,0E0],"parents":[2147483647,0,0,2,2,1,1,5,5,6,6,3,3,4,4],"right_children":[2,6,4,12,14,8,10,-1,-1,-1,-1,-1,-1,-1,-1],"split_conditions":[5E0,5E1,-5.495267E2,6.84E1,2.6E1,4.5124376E-1,2E0,-1.7625015E-3,5.231777E-3,9.445249E-3,-3.7927492E-4,-7.6869517E-3,-1.9883921E-2,-7.6869517E-3,-1.7625015E-3],"split_indices":[0,6,1,5,6,7,0,0,0,0,0,0,0,0,0],"split_type":[0,0,0,0,0,0,0,0,0,0,0,0,0,0,0],"sum_hessian":[4.0389707E3,2.8058293E3,1.2331414E3,2.5402164E2,9.791197E2,2.1717283E3,6.341011E2,1.679886E3,4.9184216E2,3.7804758E2,2.5605347E2,1.2755532E2,1.2646632E2,1.6668433E2,8.1243536E2],"tree_param":{"num_deleted":"0","num_feature":"11","num_nodes":"15","size_leaf_vector":"1"}},{"base_weights":[-1.8564996E-3,-3.3438355E-2,6.7189135E-2,-5.9599644E-1,-1.2932158E-2,-5.7540513E-3,8.437695E-4,2.1510611E-1,2.905471E-2,8.437695E-4,8.642755E-3,1.3729259E-2,8.437695E-4,-4.35788E-2,-2.0158272E-2],"categories":[],"categories_nodes":[],"categories_segments":[],"categories_sizes":[],"default_left":[0,0,0,0,0,0,0,0,0,0,0,0,0,0,0],"id":61,"left_children":[1,3,7,13,5,-1,-1,11,9,-1,-1,-1,-1,-1,-1],"loss_changes":[8.85005E0,3.2113045E1,7.1758137E0,4.68375E0,1.0588483E1,0E0,0E0,4.766059E0,5.4237447E0,0E0,0E0,0E0,0E0,0E0,0E0],"parents":[2147483647,0,0,1,1,4,4,2,2,8,8,7,7,3,3],"right_children":[2,4,8,14,6,-1,-1,12,10,-1,-1,-1,-1,-1,-1],"split_conditions":[6.9645605E0,3E0,1.4E1,6.4E1,-4.1338447E-2,-5.7540513E-3,8.437695E-4,4E0,4.5842853E-1,8.437695E-4,8.642755E-3,1.3729259E-2,8.437695E-4,-4.35788E-2,-2.0158272E-2],"split_indices":[1,6,6,5,9,0,0,0,7,0,0,0,0,0,0],"split_type":[0,0,0,0,0,0,0,0,0,0,0,0,0,0,0],"sum_hessian":[4.055512E3,2.783222E3,1.2722903E3,9.642642E1,2.6867954E3,7.438085E2,1.9429869E3,2.5936954E2,1.0129207E3,7.85276E2,2.2764471E2,2.2462599E2,3.4743538E1,3.755472E1,5.88717E1],"tree_param":{"num_deleted":"0","num_feature":"11","num_nodes":"15","size_leaf_vector":"1"}},{"base_weights":[2.3854214E-3,8.109443E-2,-3.8233764E-2,-3.358556E-2,-2.9924257E-2,-1.17062805E-2,-9.898568E-4,1.0715167E-3,1.1948629E-1,5.3783343E-3,1.958945E-2],"categories":[],"categories_nodes":[],"categories_segments":[],"categories_sizes":[],"default_left":[0,0,0,0,0,0,0,0,0,0,0],"id":62,"left_children":[1,7,3,5,-1,-1,-1,-1,9,-1,-1],"loss_changes":[1.2949922E1,6.0787497E0,6.928344E0,7.324554E0,0E0,0E0,0E0,0E0,3.647007E0,0E0,0E0],"parents":[2147483647,0,0,2,2,3,3,1,1,8,8],"right_children":[2,8,4,6,-1,-1,-1,-1,10,-1,-1],"split_conditions":[2E0,-1.70019E2,2.1E1,4.05E1,-2.9924257E-2,-1.17062805E-2,-9.898568E-4,1.0715167E-3,5.065393E-1,5.3783343E-3,1.958945E-2],"split_indices":[0,1,0,5,0,0,0,0,8,0,0],"split_type":[0,0,0,0,0,0,0,0,0,0,0],"sum_hessian":[4.0475615E3,1.37729E3,2.6702715E3,2.649853E3,2.0418457E1,1.6895222E2,2.480901E3,2.3601556E2,1.1412745E3,1.0953882E3,4.5886326E1],"tree_param":{"num_deleted":"0","num_feature":"11","num_nodes":"11","size_leaf_vector":"1"}},{"base_weights":[-1.197823E-2,-1.695932E-1,2.8380542E-3,-4.557396E-1,1.9046807E-1,3.2596786E-2,-8.098841E-2,2.6592226E-5,5.8610616E-3,-7.9086125E-3,-1.2097906E-3,-3.1030113E-2,-1.2871908E-2,1.2147448E-2,-6.631788E-3],"categories":[],"categories_nodes":[],"categories_segments":[],"categories_sizes":[],"default_left":[0,0,0,0,0,0,0,0,0,0,0,0,0,0,0],"id":63,"left_children":[1,3,5,11,13,7,9,-1,-1,-1,-1,-1,-1,-1,-1],"loss_changes":[9.451E0,3.5956512E1,9.234844E0,6.112694E0,3.8968706E0,7.4130344E0,6.600723E0,0E0,0E0,0E0,0E0,0E0,0E0,0E0,0E0],"parents":[2147483647,0,0,1,1,2,2,5,5,6,6,3,3,4,4],"right_children":[2,4,6,12,14,8,10,-1,-1,-1,-1,-1,-1,-1,-1],"split_conditions":[6E0,6.9645605E0,6E0,3E0,8.6E1,7.68E1,4E1,2.6592226E-5,5.8610616E-3,-7.9086125E-3,-1.2097906E-3,-3.1030113E-2,-1.2871908E-2,1.2147448E-2,-6.631788E-3],"split_indices":[6,1,0,6,5,5,6,0,0,0,0,0,0,0,0],"split_type":[0,0,0,0,0,0,0,0,0,0,0,0,0,0,0],"sum_hessian":[4.0451562E3,3.462613E2,3.698895E3,1.9271613E2,1.5354517E2,2.7304753E3,9.6841956E2,1.9812545E3,7.4922095E2,5.405824E2,4.278372E2,1.0351137E2,8.920476E1,1.4105772E2,1.2487445E1],"tree_param":{"num_deleted":"0","num_feature":"11","num_nodes":"15","size_leaf_vector":"1"}},{"base_weights":[-5.704889E-4,2.1725792E-2,-1.2862779E-1,-5.3451E-2,4.4802014E-2,6.387711E-4,7.900238E-3,-2.67255E-3,8.423769E-3,-9.259793E-2,-2.2591688E-2,-1.1820774E-2,-2.67255E-3],"categories":[],"categories_nodes":[],"categories_segments":[],"categories_sizes":[],"default_left":[0,0,0,0,0,0,0,0,0,0,0,0,0],"id":64,"left_children":[1,3,9,7,5,-1,-1,-1,-1,11,-1,-1,-1],"loss_changes":[1.1606056E1,9.597406E0,6.957818E0,9.298876E0,1.0951128E1,0E0,0E0,0E0,0E0,6.0007453E0,0E0,0E0,0E0],"parents":[2147483647,0,0,1,1,4,4,3,3,2,2,9,9],"right_children":[2,4,10,8,6,-1,-1,-1,-1,12,-1,-1,-1],"split_conditions":[8E0,9E0,2.3893978E-1,6.9645605E0,4.5124376E-1,6.387711E-4,7.900238E-3,-2.67255E-3,8.423769E-3,-1.1423366E-2,-2.2591688E-2,-1.1820774E-2,-2.67255E-3],"split_indices":[0,6,10,1,7,0,0,0,0,9,0,0,0],"split_type":[0,0,0,0,0,0,0,0,0,0,0,0,0],"sum_hessian":[4.0618672E3,3.4605635E3,6.0130365E2,4.4064694E2,3.0199167E3,2.3552373E3,6.6467944E2,2.5323921E2,1.8740773E2,5.427065E2,5.859717E1,2.0281085E2,3.3989563E2],"tree_param":{"num_deleted":"0","num_feature":"11","num_nodes":"13","size_leaf_vector":"1"}},{"base_weights":[-2.791377E-3,1.6458157E-2,-1.7286459E-1,-1.1227871E-3,1.6426164E-1,1.8281738E-3,-3.910161E-3,-1.3818394E-1,-6.88237E-1,4.172992E-3,1.8810079E-2,-3.910161E-3,-1.0837942E-2,-3.910161E-3,-4.2285673E-2],"categories":[],"categories_nodes":[],"categories_segments":[],"categories_sizes":[],"default_left":[0,0,0,0,0,0,0,0,0,0,0,0,0,0,0],"id":65,"left_children":[1,3,7,5,9,-1,-1,11,13,-1,-1,-1,-1,-1,-1],"loss_changes":[1.31737995E1,9.394054E0,7.172454E0,1.0306871E1,6.5347977E0,0E0,0E0,4.4684896E0,3.0060062E0,0E0,0E0,0E0,0E0,0E0,0E0],"parents":[2147483647,0,0,1,1,3,3,2,2,4,4,7,7,8,8],"right_children":[2,4,8,6,10,-1,-1,12,14,-1,-1,-1,-1,-1,-1],"split_conditions":[2.2618605E-1,4.8044893E-1,8.64E1,5E0,4.5E1,1.8281738E-3,-3.910161E-3,5.2E1,3.9E0,4.172992E-3,1.8810079E-2,-3.910161E-3,-1.0837942E-2,-3.910161E-3,-4.2285673E-2],"split_indices":[10,8,5,0,6,0,0,5,4,0,0,0,0,0,0],"split_type":[0,0,0,0,0,0,0,0,0,0,0,0,0,0,0],"sum_hessian":[4.0211072E3,3.613453E3,4.0765436E2,3.230636E3,3.828169E2,2.239661E3,9.90975E2,3.8370767E2,2.3946665E1,2.7864514E2,1.0417174E2,7.977264E1,3.0393506E2,4.244442E0,1.9702223E1],"tree_param":{"num_deleted":"0","num_feature":"11","num_nodes":"15","size_leaf_vector":"1"}},{"base_weights":[-6.190344E-3,-1.4188324E-1,1.0640055E-2,-3.4205785E-1,1.3196507E-1,2.3824923E-2,-1.8381485E-1,-2.7767777E-2,-9.669243E-3,-1.0719071E-3,3.6322684E-3,-1.863064E-2,-3.9997483E-3,2.216965E-2,2.918922E-3],"categories":[],"categories_nodes":[],"categories_segments":[],"categories_sizes":[],"default_left":[0,0,0,0,0,0,0,0,0,0,0,0,0,0,0],"id":66,"left_children":[1,3,5,7,13,9,11,-1,-1,-1,-1,-1,-1,-1,-1],"loss_changes":[9.257568E0,2.4586601E1,9.25378E0,8.048967E0,4.315008E0,7.4692554E0,5.130931E0,0E0,0E0,0E0,0E0,0E0,0E0,0E0,0E0],"parents":[2147483647,0,0,1,1,2,2,3,3,5,5,6,6,4,4],"right_children":[2,4,6,8,14,10,12,-1,-1,-1,-1,-1,-1,-1,-1],"split_conditions":[9E0,6.9645605E0,1.1E1,3E0,5.2E1,1E0,-2.072332E-3,-2.7767777E-2,-9.669243E-3,-1.0719071E-3,3.6322684E-3,-1.863064E-2,-3.9997483E-3,2.216965E-2,2.918922E-3],"split_indices":[6,1,0,6,5,2,9,0,0,0,0,0,0,0,0],"split_type":[0,0,0,0,0,0,0,0,0,0,0,0,0,0,0],"sum_hessian":[4.051069E3,4.4581442E2,3.6052546E3,2.5734082E2,1.884736E2,3.377542E3,2.2771254E2,1.0403721E2,1.5330362E2,1.7530479E3,1.6244941E3,8.740445E1,1.4030809E2,3.4602283E1,1.5387132E2],"tree_param":{"num_deleted":"0","num_feature":"11","num_nodes":"15","size_leaf_vector":"1"}},{"base_weights":[-1.2022088E-2,-1.2760837E-1,1.1681173E-2,-8.1405836E-1,-1.0851993E-1,-7.8756055E-3,1.456695E-1,-6.376362E-4,2.600169E-2,1.36847E-2,6.2363094E-4,-2.8981802E-3,-9.233318E-3,-5.1540982E-2,-2.8981802E-3],"categories":[],"categories_nodes":[],"categories_segments":[],"categories_sizes":[],"default_left":[0,0,0,0,0,0,0,0,0,0,0,0,0,0,0],"id":67,"left_children":[1,3,5,13,11,7,9,-1,-1,-1,-1,-1,-1,-1,-1],"loss_changes":[1.1053003E1,8.86537E0,8.775951E0,3.6333284E0,3.6810355E0,7.5366592E0,7.268779E0,0E0,0E0,0E0,0E0,0E0,0E0,0E0,0E0],"parents":[2147483647,0,0,1,1,2,2,5,5,6,6,4,4,3,3],"right_children":[2,4,6,14,12,8,10,-1,-1,-1,-1,-1,-1,-1,-1],"split_conditions":[-3.9434232E2,3E0,5.7E1,7.97E1,1.0568141E-1,5.384994E-1,6.84E1,-6.376362E-4,2.600169E-2,1.36847E-2,6.2363094E-4,-2.8981802E-3,-9.233318E-3,-5.1540982E-2,-2.8981802E-3],"split_indices":[1,6,6,5,10,8,5,0,0,0,0,0,0,0,0],"split_type":[0,0,0,0,0,0,0,0,0,0,0,0,0,0,0],"sum_hessian":[4.0319106E3,6.850237E2,3.346887E3,1.6868572E1,6.6815515E2,2.9218083E3,4.2507858E2,2.8964912E3,2.5317099E1,2.1595099E2,2.0912758E2,3.3341815E2,3.3473697E2,1.3448151E1,3.4204223E0],"tree_param":{"num_deleted":"0","num_feature":"11","num_nodes":"15","size_leaf_vector":"1"}},{"base_weights":[-6.3288994E-3,5.9924796E-3,-1.444872E-1,-6.5764025E-2,2.999113E-2,-9.8019265E-2,-5.270917E-1,-1.6167765E-2,-3.4623684E-3,1.0058604E-3,7.309073E-3,-8.9432247E-4,-3.4623684E-3,-9.505642E-3,-3.91948E-2],"categories":[],"categories_nodes":[],"categories_segments":[],"categories_sizes":[],"default_left":[0,0,0,0,0,0,0,0,0,0,0,0,0,0,0],"id":68,"left_children":[1,3,5,11,9,7,13,-1,-1,-1,-1,-1,-1,-1,-1],"loss_changes":[6.8817263E0,6.395576E0,5.8087063E0,2.937553E0,3.1883342E0,3.6965468E0,2.852643E0,0E0,0E0,0E0,0E0,0E0,0E0,0E0,0E0],"parents":[2147483647,0,0,1,1,2,2,5,5,4,4,3,3,6,6],"right_children":[2,4,6,12,10,8,14,-1,-1,-1,-1,-1,-1,-1,-1],"split_conditions":[2.4207577E-1,-4.4220284E-2,8.28E1,6.9230483E-3,8.6E1,4.0728107E-1,7.1E0,-1.6167765E-2,-3.4623684E-3,1.0058604E-3,7.309073E-3,-8.9432247E-4,-3.4623684E-3,-9.505642E-3,-3.91948E-2],"split_indices":[10,9,5,10,5,7,4,0,0,0,0,0,0,0,0],"split_type":[0,0,0,0,0,0,0,0,0,0,0,0,0,0,0],"sum_hessian":[4.0402124E3,3.71069E3,3.2952264E2,9.293414E2,2.7813486E3,2.954915E2,3.403117E1,5.9683563E1,2.358079E2,2.5651025E3,2.1624591E2,4.3173306E2,4.9760828E2,1.5830657E1,1.8200512E1],"tree_param":{"num_deleted":"0","num_feature":"11","num_nodes":"15","size_leaf_vector":"1"}},{"base_weights":[-1.486248E-2,-5.921387E-3,-3.1814513E-1,9.535782E-3,-7.868402E-3,-3.6958063E-3,1.4681251E-3,-8.101664E-3,-4.974884E-1,-8.675086E-3,-3.267323E-2],"categories":[],"categories_nodes":[],"categories_segments":[],"categories_sizes":[],"default_left":[0,0,0,0,0,0,0,0,0,0,0],"id":69,"left_children":[1,3,7,5,-1,-1,-1,-1,9,-1,-1],"loss_changes":[1.0969383E1,9.206684E0,4.609145E0,8.601933E0,0E0,0E0,0E0,0E0,3.187397E0,0E0,0E0],"parents":[2147483647,0,0,1,1,3,3,2,2,8,8],"right_children":[2,4,8,6,-1,-1,-1,-1,10,-1,-1],"split_conditions":[3.0350778E-1,1E1,6.6E1,9E0,-7.868402E-3,-3.6958063E-3,1.4681251E-3,-8.101664E-3,3.4E1,-8.675086E-3,-3.267323E-2],"split_indices":[10,0,5,6,0,0,0,0,6,0,0],"split_type":[0,0,0,0,0,0,0,0,0,0,0],"sum_hessian":[4.0447166E3,3.9303533E3,1.1436325E2,3.56761E3,3.6274316E2,4.316037E2,3.1360063E3,4.945057E1,6.491268E1,2.2110107E1,4.280257E1],"tree_param":{"num_deleted":"0","num_feature":"11","num_nodes":"11","size_leaf_vector":"1"}},{"base_weights":[1.6469194E-3,1.6977059E-2,-1.5927078E-1,-1.55863315E-2,8.7291874E-2,-3.1522827E-3,3.0947966E-3,2.456208E-3,1.3672936E-2,-6.183122E-1,-1.1055753E-1,-1.4302409E-2,-3.557343E-3,-6.3792244E-3,-5.191592E-2],"categories":[],"categories_nodes":[],"categories_segments":[],"categories_sizes":[],"default_left":[0,0,0,0,0,0,0,0,0,0,0,0,0,0,0],"id":70,"left_children":[1,3,9,5,7,-1,-1,-1,-1,13,11,-1,-1,-1,-1],"loss_changes":[9.904881E0,8.39548E0,7.708618E0,9.223556E0,8.226338E0,0E0,0E0,0E0,0E0,6.643407E0,6.75693E0,0E0,0E0,0E0,0E0],"parents":[2147483647,0,0,1,1,3,3,4,4,2,2,10,10,9,9],"right_children":[2,4,10,6,8,-1,-1,-1,-1,14,12,-1,-1,-1,-1],"split_conditions":[2.3893978E-1,4.4E1,6E0,6.9645605E0,1.4652796E-1,-3.1522827E-3,3.0947966E-3,2.456208E-3,1.3672936E-2,7E0,0E0,-1.4302409E-2,-3.557343E-3,-6.3792244E-3,-5.191592E-2],"split_indices":[10,6,6,1,9,0,0,0,0,4,2,0,0,0,0],"split_type":[0,0,0,0,0,0,0,0,0,0,0,0,0,0,0],"sum_hessian":[4.0119775E3,3.6642231E3,3.4775443E2,2.505189E3,1.1590342E3,1.5537634E3,9.514255E2,9.6339087E2,1.956434E2,3.1705185E1,3.1604922E2,1.556682E2,1.6038103E2,1.5510207E1,1.6194979E1],"tree_param":{"num_deleted":"0","num_feature":"11","num_nodes":"15","size_leaf_vector":"1"}},{"base_weights":[2.422969E-3,-8.751324E-2,2.2148812E-2,-6.771284E-2,-2.849938E-2,4.8660957E-3,1.4016019E-1,-1.5942512E-2,-2.1258867E-3,-1.5900141E-3,2.8960248E-3,1.2725557E-2,1.2999958E-3],"categories":[],"categories_nodes":[],"categories_segments":[],"categories_sizes":[],"default_left":[0,0,0,0,0,0,0,0,0,0,0,0,0],"id":71,"left_children":[1,3,5,7,-1,9,11,-1,-1,-1,-1,-1,-1],"loss_changes":[7.152218E0,6.8710713E0,6.7421737E0,6.173827E0,0E0,5.615785E0,5.5027866E0,0E0,0E0,0E0,0E0,0E0,0E0],"parents":[2147483647,0,0,1,1,2,2,3,3,5,5,6,6],"right_children":[2,4,6,8,-1,10,12,-1,-1,-1,-1,-1,-1],"split_conditions":[-3.7663614E2,1.7E1,5.7E1,6E0,-2.849938E-2,7.5445354E-2,6.84E1,-1.5942512E-2,-2.1258867E-3,-1.5900141E-3,2.8960248E-3,1.2725557E-2,1.2999958E-3],"split_indices":[1,0,6,6,0,9,5,0,0,0,0,0,0],"split_type":[0,0,0,0,0,0,0,0,0,0,0,0,0],"sum_hessian":[4.028392E3,7.237023E2,3.3046897E3,6.967918E2,2.6910484E1,2.8838887E3,4.2080112E2,3.8708405E1,6.580834E2,1.7056665E3,1.1782222E3,2.0931517E2,2.1148596E2],"tree_param":{"num_deleted":"0","num_feature":"11","num_nodes":"13","size_leaf_vector":"1"}},{"base_weights":[8.953838E-3,1.3304088E-2,-2.4702996E-2,-9.8461814E-2,2.7159264E-2,-1.2018896E-2,8.670989E-3,4.277876E-3,-2.422922E-5],"categories":[],"categories_nodes":[],"categories_segments":[],"categories_sizes":[],"default_left":[0,0,0,0,0,0,0,0,0],"id":72,"left_children":[1,3,-1,5,7,-1,-1,-1,-1],"loss_changes":[8.845045E0,6.204884E0,0E0,2.3708803E1,5.753477E0,0E0,0E0,0E0,0E0],"parents":[2147483647,0,0,1,1,3,3,4,4],"right_children":[2,4,-1,6,8,-1,-1,-1,-1],"split_conditions":[1.9E1,9E0,-2.4702996E-2,6.9645605E0,2E0,-1.2018896E-2,8.670989E-3,4.277876E-3,-2.422922E-5],"split_indices":[0,6,0,1,0,0,0,0,0],"split_type":[0,0,0,0,0,0,0,0,0],"sum_hessian":[4.0360232E3,4.0028442E3,3.3179123E1,4.4048755E2,3.5623567E3,2.5102269E2,1.8946484E2,1.1435375E3,2.418819E3],"tree_param":{"num_deleted":"0","num_feature":"11","num_nodes":"9","size_leaf_vector":"1"}},{"base_weights":[-4.3927473E-3,1.4996728E-2,-9.772465E-2,-1.8487293E-2,9.437632E-2,3.530527E-3,1.9615723E-2,-2.068198E-3,2.216357E-3,-1.877062E-1,-2.068198E-3,-7.7342503E-3,-2.4628637E-2],"categories":[],"categories_nodes":[],"categories_segments":[],"categories_sizes":[],"default_left":[0,0,0,0,0,0,0,0,0,0,0,0,0],"id":73,"left_children":[1,3,9,7,5,-1,-1,-1,-1,11,-1,-1,-1],"loss_changes":[7.3028626E0,8.884382E0,5.105305E0,5.551064E0,6.9805536E0,0E0,0E0,0E0,0E0,3.32512E0,0E0,0E0,0E0],"parents":[2147483647,0,0,1,1,4,4,3,3,2,2,9,9],"right_children":[2,4,10,8,6,-1,-1,-1,-1,12,-1,-1,-1],"split_conditions":[1.8480329E-1,4.5E1,4.299072E-1,5.091137E0,4.7370875E-1,3.530527E-3,1.9615723E-2,-2.068198E-3,2.216357E-3,1E1,-2.068198E-3,-7.7342503E-3,-2.4628637E-2],"split_indices":[10,6,7,1,7,0,0,0,0,0,0,0,0],"split_type":[0,0,0,0,0,0,0,0,0,0,0,0,0],"sum_hessian":[4.0327166E3,3.3400598E3,6.926568E2,2.3499324E3,9.9012744E2,9.1867584E2,7.145159E1,1.427526E3,9.224064E2,3.399797E2,3.526771E2,3.0876447E2,3.1215246E1],"tree_param":{"num_deleted":"0","num_feature":"11","num_nodes":"13","size_leaf_vector":"1"}},{"base_weights":[1.3056187E-3,1.1306833E-2,-1.6779873E-1,-7.8245945E-2,2.738744E-2,-3.9122975E-3,7.4336925E-3,-6.7308074E-4,3.6043886E-3,-3.4062722E-1,-7.8245945E-2,-1.0992638E-2,-3.6116082E-2,-3.9122975E-3,-2.6785119E-2],"categories":[],"categories_nodes":[],"categories_segments":[],"categories_sizes":[],"default_left":[0,0,0,0,0,0,0,0,0,0,0,0,0,0,0],"id":74,"left_children":[1,3,9,5,7,-1,-1,-1,-1,11,13,-1,-1,-1,-1],"loss_changes":[6.7855396E0,6.981711E0,4.341905E0,9.784971E0,6.116498E0,0E0,0E0,0E0,0E0,3.8820333E0,3.5499375E0,0E0,0E0,0E0,0E0],"parents":[2147483647,0,0,1,1,3,3,4,4,2,2,9,9,10,10],"right_children":[2,4,10,6,8,-1,-1,-1,-1,12,14,-1,-1,-1,-1],"split_conditions":[1.1E1,9E0,6.4E1,6.9645605E0,1E0,-3.9122975E-3,7.4336925E-3,-6.7308074E-4,3.6043886E-3,5.86E1,2E1,-1.0992638E-2,-3.6116082E-2,-3.9122975E-3,-2.6785119E-2],"split_indices":[0,6,5,1,2,0,0,0,0,5,0,0,0,0,0],"split_type":[0,0,0,0,0,0,0,0,0,0,0,0,0,0,0],"sum_hessian":[4.0089375E3,3.786384E3,2.2255348E2,4.3897583E2,3.3474082E3,2.5025592E2,1.887199E2,1.7495829E3,1.5978253E3,8.781767E1,1.3473581E2,6.847885E1,1.9338823E1,1.1920846E2,1.5527358E1],"tree_param":{"num_deleted":"0","num_feature":"11","num_nodes":"15","size_leaf_vector":"1"}},{"base_weights":[-5.4385164E-4,1.3485085E-2,-1.4124274E-1,-1.0773462E-2,1.12107016E-1,-3.1939414E-3,8.637309E-4,-8.1990584E-4,8.115123E-3,-1.1539743E-1,-2.8816313E-2,-1.2206178E-2,-3.1939414E-3],"categories":[],"categories_nodes":[],"categories_segments":[],"categories_sizes":[],"default_left":[0,0,0,0,0,0,0,0,0,0,0,0,0],"id":75,"left_children":[1,3,9,5,7,-1,-1,-1,-1,11,-1,-1,-1],"loss_changes":[7.9086204E0,8.718369E0,3.9869862E0,5.5683074E0,4.644409E0,0E0,0E0,0E0,0E0,3.4949403E0,0E0,0E0,0E0],"parents":[2147483647,0,0,1,1,3,3,4,4,2,2,9,9],"right_children":[2,4,10,6,8,-1,-1,-1,-1,12,-1,-1,-1],"split_conditions":[1E1,5.2E1,2.1E1,4.163205E-1,4.1126922E-1,-3.1939414E-3,8.637309E-4,-8.1990584E-4,8.115123E-3,2.345505E-3,-2.8816313E-2,-1.2206178E-2,-3.1939414E-3],"split_indices":[0,6,0,8,8,0,0,0,0,9,0,0,0],"split_type":[0,0,0,0,0,0,0,0,0,0,0,0,0],"sum_hessian":[4.0036414E3,3.6418472E3,3.6179413E2,2.9239397E3,7.179077E2,8.263262E2,2.0976135E3,2.0192967E2,5.15978E2,3.4327258E2,1.8521553E1,1.3444417E2,2.088284E2],"tree_param":{"num_deleted":"0","num_feature":"11","num_nodes":"13","size_leaf_vector":"1"}},{"base_weights":[-6.72504E-3,5.98754E-3,-1.17861055E-1,-1.4124076E-2,8.367586E-2,-9.092601E-4,8.460385E-3,-2.443392E-3,2.2725235E-3,-1.1592238E-2,-2.7968378E-3],"categories":[],"categories_nodes":[],"categories_segments":[],"categories_sizes":[],"default_left":[0,0,0,0,0,0,0,0,0,0,0],"id":76,"left_children":[1,3,9,7,5,-1,-1,-1,-1,-1,-1],"loss_changes":[5.6804967E0,5.6400514E0,4.451212E0,5.9391747E0,6.471828E0,0E0,0E0,0E0,0E0,0E0,0E0],"parents":[2147483647,0,0,1,1,4,4,3,3,2,2],"right_children":[2,4,10,8,6,-1,-1,-1,-1,-1,-1],"split_conditions":[2.2618605E-1,5.2E1,0E0,5.091137E0,-1.8108507E2,-9.092601E-4,8.460385E-3,-2.443392E-3,2.2725235E-3,-1.1592238E-2,-2.7968378E-3],"split_indices":[10,6,2,1,1,0,0,0,0,0,0],"split_type":[0,0,0,0,0,0,0,0,0,0,0],"sum_hessian":[4.0182915E3,3.6070781E3,4.112136E2,2.8662703E3,7.408077E2,3.3865448E2,4.0215323E2,1.810605E3,1.0556653E3,1.936586E2,2.1755498E2],"tree_param":{"num_deleted":"0","num_feature":"11","num_nodes":"11","size_leaf_vector":"1"}},{"base_weights":[-1.1257409E-3,-9.214369E-3,2.5285363E-1,2.417722E-2,-6.7206115E-2,-1.1638814E-2,-1.8084705E-3,-6.723902E-5,4.1181087E-3,1.1010376E-2,5.255388E-2],"categories":[],"categories_nodes":[],"categories_segments":[],"categories_sizes":[],"default_left":[0,0,0,0,0,0,0,0,0,0,0],"id":77,"left_children":[1,3,9,7,5,-1,-1,-1,-1,-1,-1],"loss_changes":[8.266621E0,7.553651E0,2.8950405E0,3.6766849E0,7.311797E0,0E0,0E0,0E0,0E0,0E0,0E0],"parents":[2147483647,0,0,1,1,4,4,3,3,2,2],"right_children":[2,4,10,8,6,-1,-1,-1,-1,-1,-1],"split_conditions":[5.0883645E-1,1.0568141E-1,7.3E1,4.4E1,-4.5901485E-2,-1.1638814E-2,-1.8084705E-3,-6.723902E-5,4.1181087E-3,1.1010376E-2,5.255388E-2],"split_indices":[8,10,6,6,9,0,0,0,0,0,0],"split_type":[0,0,0,0,0,0,0,0,0,0,0],"sum_hessian":[4.0207302E3,3.8980137E3,1.2271658E2,2.4742139E3,1.4237998E3,2.2324498E2,1.2005548E3,1.7208285E3,7.533854E2,1.1970574E2,3.0108385E0],"tree_param":{"num_deleted":"0","num_feature":"11","num_nodes":"11","size_leaf_vector":"1"}},{"base_weights":[-9.39905E-3,-2.016217E-1,7.0511614E-4,-5.5247283E-1,1.5447289E-1,4.2580478E-2,-3.695743E-2,1.4057616E-4,-4.837336E-3,-3.9888408E-2,-1.9577177E-2,3.2787476E-4,4.758511E-3,4.930911E-3,3.8302474E-2],"categories":[],"categories_nodes":[],"categories_segments":[],"categories_sizes":[],"default_left":[0,0,0,0,0,0,0,0,0,0,0,0,0,0,0],"id":78,"left_children":[1,3,5,9,13,11,7,-1,-1,-1,-1,-1,-1,-1,-1],"loss_changes":[7.8083277E0,2.52096E1,6.0281157E0,3.543541E0,3.33174E0,3.4277236E0,6.3971663E0,0E0,0E0,0E0,0E0,0E0,0E0,0E0,0E0],"parents":[2147483647,0,0,1,1,2,2,6,6,3,3,5,5,4,4],"right_children":[2,4,6,10,14,12,8,-1,-1,-1,-1,-1,-1,-1,-1],"split_conditions":[3E0,6.9645605E0,3E0,6.4E1,5.0256777E-1,7.07E1,6.96E1,1.4057616E-4,-4.837336E-3,-3.9888408E-2,-1.9577177E-2,3.2787476E-4,4.758511E-3,4.930911E-3,3.8302474E-2],"split_indices":[6,1,0,5,8,5,5,0,0,0,0,0,0,0,0],"split_type":[0,0,0,0,0,0,0,0,0,0,0,0,0,0,0],"sum_hessian":[4.0184688E3,1.99287E2,3.819182E3,9.997326E1,9.931374E1,1.8083641E3,2.0108176E3,1.0458058E3,9.6501196E2,3.728857E1,6.2684692E1,1.0742181E3,7.3414594E2,9.25749E1,6.7388463E0],"tree_param":{"num_deleted":"0","num_feature":"11","num_nodes":"15","size_leaf_vector":"1"}},{"base_weights":[-5.8975923E-3,-2.1757996E-3,-3.4165388E-1,-1.8750224E-2,9.381432E-2,5.353691E-3,-3.8012713E-2,-5.988684E-4,-1.2814316E-2,-2.7483085E-2,9.906052E-2,-1.1265029E-2,2.2111075E-2],"categories":[],"categories_nodes":[],"categories_segments":[],"categories_sizes":[],"default_left":[0,0,0,0,0,0,0,0,0,0,0,0,0],"id":79,"left_children":[1,3,9,7,5,-1,-1,-1,-1,-1,11,-1,-1],"loss_changes":[5.0317554E0,6.342252E0,4.1276484E0,5.464245E0,6.767838E0,0E0,0E0,0E0,0E0,0E0,3.039996E0,0E0,0E0],"parents":[2147483647,0,0,1,1,4,4,3,3,2,2,10,10],"right_children":[2,4,10,8,6,-1,-1,-1,-1,-1,12,-1,-1],"split_conditions":[8.2E1,5.7E1,4.4524926E-1,3.0350778E-1,7.1E-2,5.353691E-3,-3.8012713E-2,-5.988684E-4,-1.2814316E-2,-2.7483085E-2,5.6926325E-2,-1.1265029E-2,2.2111075E-2],"split_indices":[6,6,8,10,3,0,0,0,0,0,9,0,0],"split_type":[0,0,0,0,0,0,0,0,0,0,0,0,0],"sum_hessian":[4.025874E3,3.983209E3,4.2664856E1,3.3977256E3,5.854836E2,5.778054E2,7.6781325E0,3.305043E3,9.2682625E1,2.8737688E1,1.3927167E1,4.777088E0,9.150079E0],"tree_param":{"num_deleted":"0","num_feature":"11","num_nodes":"13","size_leaf_vector":"1"}},{"base_weights":[-6.7017623E-3,-3.8398582E-2,6.1828528E-2,-1.4416452E-1,-1.3330805E-2,-3.743764E-2,-6.410637E-3,5.8574864E-4,-2.9552581E-3,4.3232837E-3,5.8574864E-4],"categories":[],"categories_nodes":[],"categories_segments":[],"categories_sizes":[],"default_left":[0,0,0,0,0,0,0,0,0,0,0],"id":80,"left_children":[1,3,9,5,7,-1,-1,-1,-1,-1,-1],"loss_changes":[8.749791E0,7.298912E0,2.7689672E0,4.9460554E0,4.2173915E0,0E0,0E0,0E0,0E0,0E0,0E0],"parents":[2147483647,0,0,1,1,3,3,4,4,2,2],"right_children":[2,4,10,6,8,-1,-1,-1,-1,-1,-1],"split_conditions":[1.0173345E-1,-3.9434232E2,2.2618605E-1,3E0,3.7040412E-2,-3.743764E-2,-6.410637E-3,5.8574864E-4,-2.9552581E-3,4.3232837E-3,5.8574864E-4],"split_indices":[9,1,10,6,10,0,0,0,0,0,0],"split_type":[0,0,0,0,0,0,0,0,0,0,0],"sum_hessian":[4.0249526E3,2.752512E3,1.2724408E3,5.260329E2,2.226479E3,1.1777425E1,5.142555E2,1.1084023E3,1.1180767E3,1.0666637E3,2.057771E2],"tree_param":{"num_deleted":"0","num_feature":"11","num_nodes":"11","size_leaf_vector":"1"}},{"base_weights":[-5.2582985E-3,-1.3013921E-3,-2.4104107E-2,-1.767553E-1,8.28329E-3,-1.20845875E-2,6.640758E-3,3.2418983E-3,-9.1404293E-4],"categories":[],"categories_nodes":[],"categories_segments":[],"categories_sizes":[],"default_left":[0,0,0,0,0,0,0,0,0],"id":81,"left_children":[1,3,-1,5,7,-1,-1,-1,-1],"loss_changes":[7.5945125E0,6.718878E0,0E0,1.3438187E1,5.693291E0,0E0,0E0,0E0,0E0],"parents":[2147483647,0,0,1,1,3,3,4,4],"right_children":[2,4,-1,6,8,-1,-1,-1,-1],"split_conditions":[1.9E1,3E0,-2.4104107E-2,6.9645605E0,2E0,-1.20845875E-2,6.640758E-3,3.2418983E-3,-9.1404293E-4],"split_indices":[0,6,0,1,0,0,0,0,0],"split_type":[0,0,0,0,0,0,0,0,0],"sum_hessian":[4.0240396E3,3.9923909E3,3.1648594E1,2.0546838E2,3.7869224E3,1.0430014E2,1.0116825E2,1.2095997E3,2.5773228E3],"tree_param":{"num_deleted":"0","num_feature":"11","num_nodes":"9","size_leaf_vector":"1"}},{"base_weights":[-1.1670341E-2,-5.2713934E-2,3.2448955E-2,-1.12939574E-1,-1.013249E-2,-3.3548042E-2,-5.149936E-3,1.4310324E-1,1.4556875E-2,3.941503E-3,1.3620378E-2,-5.066245E-4,3.6222592E-3,-5.066245E-4,-3.0768018E-3],"categories":[],"categories_nodes":[],"categories_segments":[],"categories_sizes":[],"default_left":[0,0,0,0,0,0,0,0,0,0,0,0,0,0,0],"id":82,"left_children":[1,3,7,5,13,-1,-1,9,11,-1,-1,-1,-1,-1,-1],"loss_changes":[7.297972E0,7.1540174E0,3.8428857E0,5.6397915E0,3.5440795E0,0E0,0E0,4.331431E0,3.9117944E0,0E0,0E0,0E0,0E0,0E0,0E0],"parents":[2147483647,0,0,1,1,3,3,2,2,7,7,8,8,4,4],"right_children":[2,4,8,6,14,-1,-1,10,12,-1,-1,-1,-1,-1,-1],"split_conditions":[1E0,4.1842744E-1,-8.918085E-2,3.4206766E-1,1.555488E-1,-3.3548042E-2,-5.149936E-3,4.2651474E-1,7.054001E-2,3.941503E-3,1.3620378E-2,-5.066245E-4,3.6222592E-3,-5.066245E-4,-3.0768018E-3],"split_indices":[2,7,10,8,10,0,0,8,9,0,0,0,0,0,0],"split_type":[0,0,0,0,0,0,0,0,0,0,0,0,0,0,0],"sum_hessian":[4.0272837E3,2.0862244E3,1.9410596E3,1.0335464E3,1.0526779E3,1.6369995E1,1.0171764E3,2.6872824E2,1.6723313E3,1.2458602E2,1.4414223E2,9.505182E2,7.218131E2,7.237032E2,3.2897467E2],"tree_param":{"num_deleted":"0","num_feature":"11","num_nodes":"15","size_leaf_vector":"1"}},{"base_weights":[-2.5308852E-3,1.3367496E-3,-4.9717414E-1,1.4267657E-2,-1.4135385E-1,-2.0801327E-4,5.50659E-3,-3.1771548E-3,-1.1539139E-2,-3.7773278E-2,-1.2395935E-2],"categories":[],"categories_nodes":[],"categories_segments":[],"categories_sizes":[],"default_left":[0,0,0,0,0,0,0,0,0,0,0],"id":83,"left_children":[1,3,9,5,7,-1,-1,-1,-1,-1,-1],"loss_changes":[7.6745954E0,7.348406E0,2.8632708E0,6.4515343E0,5.4969587E0,0E0,0E0,0E0,0E0,0E0,0E0],"parents":[2147483647,0,0,1,1,3,3,4,4,2,2],"right_children":[2,4,10,6,8,-1,-1,-1,-1,-1,-1],"split_conditions":[1.9E1,2.4207577E-1,6.3E1,5.6E1,5.2E1,-2.0801327E-4,5.50659E-3,-3.1771548E-3,-1.1539139E-2,-3.7773278E-2,-1.2395935E-2],"split_indices":[0,10,6,6,5,0,0,0,0,0,0],"split_type":[0,0,0,0,0,0,0,0,0,0,0],"sum_hessian":[4.009109E3,3.9794648E3,2.9644152E1,3.650026E3,3.2943903E2,3.062692E3,5.8733405E2,6.253617E1,2.6690283E2,1.749499E1,1.2149163E1],"tree_param":{"num_deleted":"0","num_feature":"11","num_nodes":"11","size_leaf_vector":"1"}},{"base_weights":[5.824821E-3,6.2884115E-2,-2.32676E-2,-1.9238343E-2,-2.9163191E-2,-9.715415E-3,-3.520366E-4,9.904129E-4,1.0825509E-1,4.237174E-3,1.7333759E-2],"categories":[],"categories_nodes":[],"categories_segments":[],"categories_sizes":[],"default_left":[0,0,0,0,0,0,0,0,0,0,0],"id":84,"left_children":[1,7,3,5,-1,-1,-1,-1,9,-1,-1],"loss_changes":[6.6542873E0,3.5912871E0,5.974709E0,5.630669E0,