{"learner":{"attributes":{"best_iteration":"98","best_score":"7.73621290876149"},"feature_names":["punt_team_end_yards_to_goal","elevation","temperature","punting_team_pregame_elo","receiving_team_pregame_elo"],"feature_types":["float","float","float","float","float"],"gradient_booster":{"model":{"gbtree_model_param":{"num_parallel_tree":"1","num_trees":"109"},"iteration_indptr":[0,1,2,3,4,5,6,7,8,9,10,11,12,13,14,15,16,17,18,19,20,21,22,23,24,25,26,27,28,29,30,31,32,33,34,35,36,37,38,39,40,41,42,43,44,45,46,47,48,49,50,51,52,53,54,55,56,57,58,59,60,61,62,63,64,65,66,67,68,69,70,71,72,73,74,75,76,77,78,79,80,81,82,83,84,85,86,87,88,89,90,91,92,93,94,95,96,97,98,99,100,101,102,103,104,105,106,107,108,109],"tree_info":[0,0,0,0,0,0,0,0,0,0,0,0,0,0,0,0,0,0,0,0,0,0,0,0,0,0,0,0,0,0,0,0,0,0,0,0,0,0,0,0,0,0,0,0,0,0,0,0,0,0,0,0,0,0,0,0,0,0,0,0,0,0,0,0,0,0,0,0,0,0,0,0,0,0,0,0,0,0,0,0,0,0,0,0,0,0,0,0,0,0,0,0,0,0,0,0,0,0,0,0,0,0,0,0,0,0,0,0,0],"trees":[{"base_weights":[-2.0509928E-2,6.3069624E-1,-5.5628633E-1,-2.619083E-1,-7.479919E-1,7.702742E-1,3.3291593E-1,-1.7379288E-2,-4.5516275E-2,-6.433202E-2,-8.803991E-2,9.2252195E-2,7.142576E-2,4.849176E-2,2.4372216E-2],"categories":[],"categories_nodes":[],"categories_segments":[],"categories_sizes":[],"default_left":[0,0,0,0,0,0,0,0,0,0,0,0,0,0,0],"id":0,"left_children":[1,5,3,7,9,11,13,-1,-1,-1,-1,-1,-1,-1,-1],"loss_changes":[7.943178E3,4.2662744E2,7.0448926E2,7.7677E1,6.378418E1,5.6887207E1,3.9275757E1,0E0,0E0,0E0,0E0,0E0,0E0,0E0,0E0],"parents":[2147483647,0,0,2,2,1,1,3,3,4,4,5,5,6,6],"right_children":[2,6,4,8,10,12,14,-1,-1,-1,-1,-1,-1,-1,-1],"split_conditions":[6.3E1,5.7E1,7.1E1,6.8E1,7.4E1,5.2E1,6E1,-2.2E-1,-5.5E-1,-8.8E-1,-1.65E0,9.9E-1,5.5E-1,4.4E-1,1.1E-1],"split_indices":[0,0,0,0,0,0,0,0,0,0,0,0,0,0,0],"split_type":[0,0,0,0,0,0,0,0,0,0,0,0,0,0,0],"sum_hessian":[2.2762E4,1.0274E4,1.2488E4,4.927E3,7.561E3,6.993E3,3.281E3,2.928E3,1.999E3,1.843E3,5.718E3,4.46E3,2.533E3,1.663E3,1.618E3],"tree_param":{"num_deleted":"0","num_feature":"5","num_nodes":"15","size_leaf_vector":"1"}},{"base_weights":[-9.828701E-3,5.823869E-1,-5.4050773E-1,7.560998E-1,2.6353326E-1,-2.815744E-1,-7.295036E-1,-1.5359846E-2,-4.53032E-2,4.1962624E-2,1.0643119E-2,9.106456E-2,6.889576E-2,-6.9679566E-2,-8.765488E-2],"categories":[],"categories_nodes":[],"categories_segments":[],"categories_sizes":[],"default_left":[0,0,0,0,0,0,0,0,0,0,0,0,0,0,0],"id":1,"left_children":[1,3,5,11,9,7,13,-1,-1,-1,-1,-1,-1,-1,-1],"loss_changes":[7.1275796E3,5.9327856E2,5.84958E2,6.3679688E1,7.433853E1,9.327176E1,4.3833984E1,0E0,0E0,0E0,0E0,0E0,0E0,0E0,0E0],"parents":[2147483647,0,0,1,1,2,2,5,5,4,4,3,3,6,6],"right_children":[2,4,6,12,10,8,14,-1,-1,-1,-1,-1,-1,-1,-1],"split_conditions":[6.4E1,5.7E1,7.2E1,5.2E1,6.1E1,6.8E1,7.7E1,-1.9579986E-1,-5.632003E-1,3.1789994E-1,9.789993E-2,8.8110024E-1,4.8949966E-1,-9.184998E-1,-1.7984998E0],"split_indices":[0,0,0,0,0,0,0,0,0,0,0,0,0,0,0],"split_type":[0,0,0,0,0,0,0,0,0,0,0,0,0,0,0],"sum_hessian":[2.2675E4,1.0716E4,1.1959E4,6.935E3,3.781E3,5.048E3,6.911E3,2.418E3,2.63E3,2.213E3,1.568E3,4.459E3,2.476E3,2.857E3,4.054E3],"tree_param":{"num_deleted":"0","num_feature":"5","num_nodes":"15","size_leaf_vector":"1"}},{"base_weights":[-9.92406E-2,3.3108196E-1,-5.207308E-1,-2.736359E-1,-6.8194896E-1,3.895171E-1,7.716799E-2,-6.515034E-2,-8.3917655E-2,-2.1840658E-2,-4.045005E-2,5.1083617E-2,3.8466327E-2,1.5823308E-2,9.3707116E-4],"categories":[],"categories_nodes":[],"categories_segments":[],"categories_sizes":[],"default_left":[0,0,0,0,0,0,0,0,0,0,0,0,0,0,0],"id":2,"left_children":[1,5,3,9,7,11,13,-1,-1,-1,-1,-1,-1,-1,-1],"loss_changes":[4.1307695E3,1.6712451E2,4.579673E2,3.1988739E1,4.9725098E1,2.7031982E1,9.659712E0,0E0,0E0,0E0,0E0,0E0,0E0,0E0,0E0],"parents":[2147483647,0,0,2,2,1,1,4,4,3,3,5,5,6,6],"right_children":[2,6,4,10,8,12,14,-1,-1,-1,-1,-1,-1,-1,-1],"split_conditions":[6.5E1,6.1E1,7.2E1,6.9E1,7.8E1,4.9E1,6.3E1,-9.02165E-1,-1.7106649E0,-3.1754744E-1,-5.3754747E-1,8.9417887E-1,4.3565446E-1,8.713089E-2,1.3431091E-2],"split_indices":[0,0,0,0,0,0,0,0,0,0,0,0,0,0,0],"split_type":[0,0,0,0,0,0,0,0,0,0,0,0,0,0,0],"sum_hessian":[2.277E4,1.1267E4,1.1503E4,4.544E3,6.959E3,9.158E3,2.109E3,3.309E3,3.65E3,2.531E3,2.013E3,3.172E3,5.986E3,1.068E3,1.041E3],"tree_param":{"num_deleted":"0","num_feature":"5","num_nodes":"15","size_leaf_vector":"1"}},{"base_weights":[-1.0676648E-1,2.8512627E-1,-4.9124193E-1,-2.6709938E-1,-6.356651E-1,3.8211748E-1,1.5365252E-1,-6.1992597E-2,-8.084924E-2,-2.0701198E-2,-4.0315144E-2,5.1638175E-2,3.6523383E-2,2.0908456E-2,2.2329215E-3],"categories":[],"categories_nodes":[],"categories_segments":[],"categories_sizes":[],"default_left":[0,0,0,0,0,0,0,0,0,0,0,0,0,0,0],"id":3,"left_children":[1,5,3,9,7,11,13,-1,-1,-1,-1,-1,-1,-1,-1],"loss_changes":[3.4253418E3,1.4344928E2,3.71146E2,3.5174774E1,4.9235596E1,2.8056763E1,2.3213203E1,0E0,0E0,0E0,0E0,0E0,0E0,0E0,0E0],"parents":[2147483647,0,0,2,2,1,1,4,4,3,3,5,5,6,6],"right_children":[2,6,4,10,8,12,14,-1,-1,-1,-1,-1,-1,-1,-1],"split_conditions":[6.5E1,5.6E1,7.2E1,6.9E1,8E1,4.7E1,6.3E1,-8.2822603E-1,-1.632492E0,-2.493312E-1,-4.7841758E-1,7.95819E-1,4.9773255E-1,1.9870865E-1,1.195404E-2],"split_indices":[0,0,0,0,0,0,0,0,0,0,0,0,0,0,0],"split_type":[0,0,0,0,0,0,0,0,0,0,0,0,0,0,0],"sum_hessian":[2.2729E4,1.1256E4,1.1473E4,4.498E3,6.975E3,6.475E3,4.781E3,4.049E3,2.926E3,2.511E3,1.987E3,2.354E3,4.121E3,3.754E3,1.027E3],"tree_param":{"num_deleted":"0","num_feature":"5","num_nodes":"15","size_leaf_vector":"1"}},{"base_weights":[-9.548076E-2,2.6824045E-1,-4.5236158E-1,-2.6529586E-1,-6.064162E-1,3.524198E-1,1.0047924E-1,-5.5311702E-2,-7.7021696E-2,4.86063E-2,3.417697E-2,-2.2907184E-2,-3.915454E-2,1.4708931E-2,1.4631145E-3],"categories":[],"categories_nodes":[],"categories_segments":[],"categories_sizes":[],"default_left":[0,0,0,0,0,0,0,0,0,0,0,0,0,0,0],"id":4,"left_children":[1,5,3,11,7,9,13,-1,-1,-1,-1,-1,-1,-1,-1],"loss_changes":[2.9557532E3,1.5917859E2,3.3091528E2,2.6734161E1,6.058496E1,2.778357E1,1.0916927E1,0E0,0E0,0E0,0E0,0E0,0E0,0E0,0E0],"parents":[2147483647,0,0,2,2,1,1,4,4,5,5,3,3,6,6],"right_children":[2,6,4,12,8,10,14,-1,-1,-1,-1,-1,-1,-1,-1],"split_conditions":[6.5E1,5.8E1,7.3E1,7E1,7.9E1,4.7E1,6.3E1,-7.3712134E-1,-1.3429178E0,7.082786E-1,4.4298178E-1,-2.5519073E-1,-4.2579177E-1,1.65689E-1,1.0638962E-2],"split_indices":[0,0,0,0,0,0,0,0,0,0,0,0,0,0,0],"split_type":[0,0,0,0,0,0,0,0,0,0,0,0,0,0,0],"sum_hessian":[2.2766E4,1.1275E4,1.1491E4,5.192E3,6.299E3,7.506E3,3.769E3,2.999E3,3.3E3,2.381E3,5.125E3,3.191E3,2.001E3,2.727E3,1.042E3],"tree_param":{"num_deleted":"0","num_feature":"5","num_nodes":"15","size_leaf_vector":"1"}},{"base_weights":[-8.894602E-2,2.0576738E-1,-4.5246398E-1,-3.2396644E-1,-6.139643E-1,3.0734104E-1,5.3299483E-2,4.4061486E-2,2.6351372E-2,1.2624362E-2,-6.449798E-3,-2.83591E-2,-4.5314506E-2,-5.9436116E-2,-7.534605E-2],"categories":[],"categories_nodes":[],"categories_segments":[],"categories_sizes":[],"default_left":[0,0,0,0,0,0,0,0,0,0,0,0,0,0,0],"id":5,"left_children":[1,5,3,11,13,7,9,-1,-1,-1,-1,-1,-1,-1,-1],"loss_changes":[2.4464822E3,1.9526453E2,2.1182129E2,3.298047E1,2.302002E1,4.7651794E1,3.475593E1,0E0,0E0,0E0,0E0,0E0,0E0,0E0,0E0],"parents":[2147483647,0,0,2,2,1,1,5,5,6,6,3,3,4,4],"right_children":[2,6,4,12,14,8,10,-1,-1,-1,-1,-1,-1,-1,-1],"split_conditions":[6.7E1,5.8E1,7.6E1,7.2E1,8.2E1,4.9E1,6.4E1,6.3036835E-1,3.4812242E-1,1.1946907E-1,-8.383438E-2,-3.0383438E-1,-5.46038E-1,-7.7263814E-1,-1.4151968E0],"split_indices":[0,0,0,0,0,0,0,0,0,0,0,0,0,0,0],"split_type":[0,0,0,0,0,0,0,0,0,0,0,0,0,0,0],"sum_hessian":[2.2831E4,1.2609E4,1.0222E4,5.696E3,4.526E3,7.566E3,5.043E3,3.181E3,4.385E3,3.256E3,1.787E3,3.256E3,2.44E3,2.23E3,2.296E3],"tree_param":{"num_deleted":"0","num_feature":"5","num_nodes":"15","size_leaf_vector":"1"}},{"base_weights":[-8.0449454E-2,-8.4022395E-2,3.1782896E-3,-9.8103285E-2,-7.20064E-2,-1.8373681E-2,-1.0601237E-2,-8.025787E-3,-6.2788115E-3],"categories":[],"categories_nodes":[],"categories_segments":[],"categories_sizes":[],"default_left":[0,0,0,0,0,0,0,0,0],"id":6,"left_children":[1,3,-1,5,7,-1,-1,-1,-1],"loss_changes":[8.938538E0,3.7290344E0,0E0,1.1913757E0,1.613121E-1,0E0,0E0,0E0,0E0],"parents":[2147483647,0,0,1,1,3,3,4,4],"right_children":[2,4,-1,6,8,-1,-1,-1,-1],"split_conditions":[1.5544719E3,1.7250473E2,4.4484407E-2,1.3365276E0,1.406576E3,-2.855156E-1,-1.5597405E-1,-8.5678175E-2,-8.369842E-2],"split_indices":[1,1,0,1,1,0,0,0,0],"split_type":[0,0,0,0,0,0,0,0,0],"sum_hessian":[2.2831E4,2.211E4,7.21E2,1.017E4,1.194E4,2.43E2,9.927E3,1.1208E4,7.32E2],"tree_param":{"num_deleted":"0","num_feature":"5","num_nodes":"9","size_leaf_vector":"1"}},{"base_weights":[-7.487627E-2,2.0295894E-1,-4.1416723E-1,-2.729687E-1,-5.5087477E-1,3.347867E-1,8.451586E-2,1.5843201E-2,-3.0116949E-3,-5.315281E-2,-6.997566E-2,4.5543537E-2,3.0981347E-2,-2.1903774E-2,-3.4920875E-2],"categories":[],"categories_nodes":[],"categories_segments":[],"categories_sizes":[],"default_left":[0,0,0,0,0,0,0,0,0,0,0,0,0,0,0],"id":7,"left_children":[1,5,3,13,9,11,7,-1,-1,-1,-1,-1,-1,-1,-1],"loss_changes":[2.1517324E3,1.9588922E2,1.9808679E2,1.6506226E1,2.9572388E1,2.4801392E1,4.4076767E1,0E0,0E0,0E0,0E0,0E0,0E0,0E0,0E0],"parents":[2147483647,0,0,2,2,1,1,6,6,4,4,5,5,3,3],"right_children":[2,6,4,14,10,12,8,-1,-1,-1,-1,-1,-1,-1,-1],"split_conditions":[6.7E1,5.5E1,7.5E1,7E1,8.2E1,4.7E1,6.3E1,1.782775E-1,-5.7455596E-2,-6.6389066E-1,-1.2501003E0,5.704521E-1,3.731173E-1,-2.5325546E-1,-4.098094E-1],"split_indices":[0,0,0,0,0,0,0,0,0,0,0,0,0,0,0],"split_type":[0,0,0,0,0,0,0,0,0,0,0,0,0,0,0],"sum_hessian":[2.2821E4,1.2547E4,1.0274E4,5.057E3,5.217E3,5.936E3,6.611E3,4.316E3,2.295E3,2.916E3,2.301E3,2.377E3,3.559E3,1.906E3,3.151E3],"tree_param":{"num_deleted":"0","num_feature":"5","num_nodes":"15","size_leaf_vector":"1"}},{"base_weights":[-6.3427724E-2,-1.1377089E-1,-1.3679168E-2,-1.799559E-1,-9.4242625E-2,-4.3537334E-2,2.8278637E-3,-1.2019621E-2,-8.161506E-3,-2.9856941E-5,5.6091025E-3,-2.5137246E-2,-1.9569984E-2,-6.115779E-3,-4.7233435E-3],"categories":[],"categories_nodes":[],"categories_segments":[],"categories_sizes":[],"default_left":[0,0,0,0,0,0,0,0,0,0,0,0,0,0,0],"id":8,"left_children":[1,3,5,11,7,13,9,-1,-1,-1,-1,-1,-1,-1,-1],"loss_changes":[5.7089317E1,1.4617767E1,5.6652226E0,1.901474E-1,2.6218414E0,2.6597977E-2,1.1196324E0,0E0,0E0,0E0,0E0,0E0,0E0,0E0,0E0],"parents":[2147483647,0,0,1,1,2,2,4,4,6,6,3,3,5,5],"right_children":[2,4,6,12,8,14,10,-1,-1,-1,-1,-1,-1,-1,-1],"split_conditions":[1.9600896E3,1.1643242E3,2.3028264E3,4.4885327E2,1.6614243E3,1.9723556E3,3.2735203E3,-1.6360016E-1,-1.07925415E-1,-4.1709899E-4,1.095829E-1,-3.7978458E-1,-2.256581E-1,-1.2312981E-1,-6.1332855E-2],"split_indices":[3,3,3,3,3,3,3,0,0,0,0,0,0,0,0],"split_type":[0,0,0,0,0,0,0,0,0,0,0,0,0,0,0],"sum_hessian":[2.2794E4,1.1327E4,1.1467E4,2.576E3,8.751E3,4.084E3,7.383E3,4.994E3,3.757E3,6.936E3,4.47E2,9.4E1,2.482E3,1.76E2,3.908E3],"tree_param":{"num_deleted":"0","num_feature":"5","num_nodes":"15","size_leaf_vector":"1"}},{"base_weights":[-5.95089E-2,1.9261408E-1,-3.6789605E-1,-2.2834976E-1,-5.023894E-1,2.9966676E-1,8.029033E-2,1.4347861E-2,-4.3691653E-3,-4.9378917E-2,-6.624343E-2,3.9632574E-2,2.6598038E-2,-1.7685378E-2,-2.9616248E-2],"categories":[],"categories_nodes":[],"categories_segments":[],"categories_sizes":[],"default_left":[0,0,0,0,0,0,0,0,0,0,0,0,0,0,0],"id":9,"left_children":[1,5,3,13,9,11,7,-1,-1,-1,-1,-1,-1,-1,-1],"loss_changes":[1.7770206E3,1.5115097E2,1.9272852E2,1.3870453E1,2.7470337E1,2.2429749E1,3.6983025E1,0E0,0E0,0E0,0E0,0E0,0E0,0E0,0E0],"parents":[2147483647,0,0,2,2,1,1,6,6,4,4,5,5,3,3],"right_children":[2,6,4,14,10,12,8,-1,-1,-1,-1,-1,-1,-1,-1],"split_conditions":[6.7E1,5.6E1,7.5E1,7E1,8.4E1,4.9E1,6.4E1,1.4167686E-1,-4.569248E-2,-6.0391736E-1,-1.2225431E0,5.139356E-1,3.3108848E-1,-2.1185271E-1,-3.6657923E-1],"split_indices":[0,0,0,0,0,0,0,0,0,0,0,0,0,0,0],"split_type":[0,0,0,0,0,0,0,0,0,0,0,0,0,0,0],"sum_hessian":[2.285E4,1.2572E4,1.0278E4,5.047E3,5.231E3,6.435E3,6.137E3,4.329E3,1.808E3,3.413E3,1.818E3,3.137E3,3.298E3,1.907E3,3.14E3],"tree_param":{"num_deleted":"0","num_feature":"5","num_nodes":"15","size_leaf_vector":"1"}},{"base_weights":[-5.073276E-2,2.0094918E-1,-2.9860234E-1,-1.6450828E-1,-4.3300542E-1,3.4447208E-1,1.3418593E-1,-3.9618324E-2,-5.7562023E-2,1.920129E-2,6.201677E-3,-9.314528E-3,-2.2456389E-2,4.1359503E-2,3.1181661E-2],"categories":[],"categories_nodes":[],"categories_segments":[],"categories_sizes":[],"default_left":[0,0,0,0,0,0,0,0,0,0,0,0,0,0,0],"id":10,"left_children":[1,5,3,11,7,13,9,-1,-1,-1,-1,-1,-1,-1,-1],"loss_changes":[1.4215708E3,1.0826001E2,2.0677045E2,1.8160263E1,3.7364136E1,6.708252E0,2.4227356E1,0E0,0E0,0E0,0E0,0E0,0E0,0E0,0E0],"parents":[2147483647,0,0,2,2,1,1,4,4,6,6,3,3,5,5],"right_children":[2,6,4,12,8,14,10,-1,-1,-1,-1,-1,-1,-1,-1],"split_conditions":[6.5E1,5E1,7.4E1,6.8E1,8.1E1,4.7E1,6E1,-4.9960992E-1,-9.3559504E-1,2.4158508E-1,2.728012E-2,-1.4595486E-1,-2.4306549E-1,4.7077385E-1,4.1279373E-1],"split_indices":[0,0,0,0,0,0,0,0,0,0,0,0,0,0,0],"split_type":[0,0,0,0,0,0,0,0,0,0,0,0,0,0,0],"sum_hessian":[2.2782E4,1.1304E4,1.1478E4,5.748E3,5.73E3,3.586E3,7.718E3,3.177E3,2.553E3,5.079E3,2.639E3,1.91E3,3.838E3,2.357E3,1.229E3],"tree_param":{"num_deleted":"0","num_feature":"5","num_nodes":"15","size_leaf_vector":"1"}},{"base_weights":[-4.7932737E-2,1.752438E-1,-2.676453E-1,-1.5659083E-1,-4.0200225E-1,2.90059E-1,1.2125989E-1,-3.8288005E-2,-5.5367723E-2,-9.429359E-3,-2.2394622E-2,1.6051805E-2,2.671655E-3,4.171433E-2,3.102911E-2],"categories":[],"categories_nodes":[],"categories_segments":[],"categories_sizes":[],"default_left":[0,0,0,0,0,0,0,0,0,0,0,0,0,0,0],"id":11,"left_children":[1,5,3,9,7,13,11,-1,-1,-1,-1,-1,-1,-1,-1],"loss_changes":[1.1151245E3,6.9865326E1,1.7086743E2,2.0872025E1,2.802771E1,2.3855286E0,1.8347176E1,0E0,0E0,0E0,0E0,0E0,0E0,0E0,0E0],"parents":[2147483647,0,0,2,2,1,1,4,4,3,3,6,6,5,5],"right_children":[2,6,4,10,8,14,12,-1,-1,-1,-1,-1,-1,-1,-1],"split_conditions":[6.5E1,5E1,7.5E1,6.9E1,8.4E1,4.1E1,6.2E1,-4.764051E-1,-9.7332275E-1,-1.1394607E-1,-2.629033E-1,1.8520203E-1,7.42218E-3,5.2004606E-1,3.9131188E-1],"split_indices":[0,0,0,0,0,0,0,0,0,0,0,0,0,0,0],"split_type":[0,0,0,0,0,0,0,0,0,0,0,0,0,0,0],"sum_hessian":[2.2736E4,1.1279E4,1.1457E4,6.275E3,5.182E3,3.604E3,7.675E3,3.388E3,1.794E3,2.505E3,3.77E3,6.117E3,1.558E3,2.88E2,3.316E3],"tree_param":{"num_deleted":"0","num_feature":"5","num_nodes":"15","size_leaf_vector":"1"}},{"base_weights":[-3.99584E-2,1.6472939E-1,-2.3888999E-1,-1.5528518E-1,-4.1650423E-1,2.2683299E-1,4.0558834E-2,-1.097346E-2,-2.5382582E-2,3.2910984E-2,1.916822E-2,-4.1314617E-2,-5.5231623E-2,6.086601E-3,1.996033E-4],"categories":[],"categories_nodes":[],"categories_segments":[],"categories_sizes":[],"default_left":[0,0,0,0,0,0,0,0,0,0,0,0,0,0,0],"id":12,"left_children":[1,5,3,7,11,9,13,-1,-1,-1,-1,-1,-1,-1,-1],"loss_changes":[9.2736255E2,8.652786E1,1.7138934E2,3.2880096E1,1.2614319E1,2.836969E1,2.1405354E0,0E0,0E0,0E0,0E0,0E0,0E0,0E0,0E0],"parents":[2147483647,0,0,2,2,1,1,3,3,5,5,4,4,6,6],"right_children":[2,6,4,8,12,10,14,-1,-1,-1,-1,-1,-1,-1,-1],"split_conditions":[6.5E1,5.8E1,7.8E1,7.2E1,8.7E1,4.9E1,6.3E1,-1.23380736E-1,-3.1014457E-1,3.5638633E-1,2.3715812E-1,-5.107864E-1,-1.0903505E0,7.281273E-2,4.4898986E-4],"split_indices":[0,0,0,0,0,0,0,0,0,0,0,0,0,0,0],"split_type":[0,0,0,0,0,0,0,0,0,0,0,0,0,0,0],"sum_hessian":[2.2769E4,1.1222E4,1.1547E4,7.854E3,3.693E3,7.479E3,3.743E3,4.528E3,3.326E3,3.143E3,4.336E3,2.506E3,1.187E3,2.707E3,1.036E3],"tree_param":{"num_deleted":"0","num_feature":"5","num_nodes":"15","size_leaf_vector":"1"}},{"base_weights":[-4.5036424E-2,1.1658769E-1,-2.4274117E-1,1.903333E-1,6.5416084E-3,-1.7121719E-1,-3.7099978E-1,2.9398903E-2,1.7012136E-2,-3.3857133E-2,-4.8093434E-2,-1.3616101E-2,-2.3931053E-2,7.4498677E-3,-2.613851E-3],"categories":[],"categories_nodes":[],"categories_segments":[],"categories_sizes":[],"default_left":[0,0,0,0,0,0,0,0,0,0,0,0,0,0,0],"id":13,"left_children":[1,3,5,7,13,11,9,-1,-1,-1,-1,-1,-1,-1,-1],"loss_changes":[7.273042E2,1.01612854E2,9.380243E1,2.0508087E1,9.348086E0,1.4406052E1,1.50928955E1,0E0,0E0,0E0,0E0,0E0,0E0,0E0,0E0],"parents":[2147483647,0,0,1,1,2,2,3,3,6,6,5,5,4,4],"right_children":[2,4,6,8,14,12,10,-1,-1,-1,-1,-1,-1,-1,-1],"split_conditions":[6.7E1,5.8E1,7.8E1,4.7E1,6.1E1,7.2E1,8.4E1,3.316172E-1,2.048703E-1,-4.0283623E-1,-8.0490077E-1,-1.5574913E-1,-2.760289E-1,7.9236224E-2,-7.2182463E-3],"split_indices":[0,0,0,0,0,0,0,0,0,0,0,0,0,0,0],"split_type":[0,0,0,0,0,0,0,0,0,0,0,0,0,0,0],"sum_hessian":[2.2755E4,1.252E4,1.0235E4,7.495E3,5.025E3,6.574E3,3.661E3,2.37E3,5.125E3,1.879E3,1.782E3,3.253E3,3.321E3,1.665E3,3.36E3],"tree_param":{"num_deleted":"0","num_feature":"5","num_nodes":"15","size_leaf_vector":"1"}},{"base_weights":[-4.2575616E-2,1.0508877E-1,-2.2566059E-1,-1.225668E-1,-3.0600044E-1,1.6540034E-1,1.4470234E-2,-3.020101E-2,-4.714153E-2,2.6905252E-2,1.5057627E-2,5.208545E-3,-4.8554176E-3,-1.0676492E-2,-1.745181E-2],"categories":[],"categories_nodes":[],"categories_segments":[],"categories_sizes":[],"default_left":[0,0,0,0,0,0,0,0,0,0,0,0,0,0,0],"id":14,"left_children":[1,5,3,13,7,9,11,-1,-1,-1,-1,-1,-1,-1,-1],"loss_changes":[6.153552E2,6.884335E1,8.408826E1,4.0737076E0,2.1804932E1,1.7023819E1,9.728501E0,0E0,0E0,0E0,0E0,0E0,0E0,0E0,0E0],"parents":[2147483647,0,0,2,2,1,1,4,4,5,5,6,6,3,3],"right_children":[2,6,4,14,8,10,12,-1,-1,-1,-1,-1,-1,-1,-1],"split_conditions":[6.7E1,5.8E1,7.4E1,7.1E1,8.7E1,4.6E1,6.4E1,-3.5182342E-1,-8.777798E-1,3.0026427E-1,1.9128352E-1,6.3819505E-2,-4.125839E-2,-1.2480408E-1,-2.0429374E-1],"split_indices":[0,0,0,0,0,0,0,0,0,0,0,0,0,0,0],"split_type":[0,0,0,0,0,0,0,0,0,0,0,0,0,0,0],"sum_hessian":[2.2755E4,1.2596E4,1.0159E4,4.452E3,5.707E3,7.561E3,5.035E3,4.547E3,1.16E3,1.997E3,5.564E3,3.227E3,1.808E3,2.614E3,1.838E3],"tree_param":{"num_deleted":"0","num_feature":"5","num_nodes":"15","size_leaf_vector":"1"}},{"base_weights":[-3.3059966E-2,-8.425923E-2,1.8664269E-2,-1.5411207E-1,-6.6582456E-2,7.6468117E-3,5.396501E-2,-9.8740775E-3,-5.277189E-3,-9.960929E-4,2.2534211E-3,-2.701435E-2,-1.6065503E-2,5.516782E-3,1.6919615E-2],"categories":[],"categories_nodes":[],"categories_segments":[],"categories_sizes":[],"default_left":[0,0,0,0,0,0,0,0,0,0,0,0,0,0,0],"id":15,"left_children":[1,3,5,11,7,9,13,-1,-1,-1,-1,-1,-1,-1,-1],"loss_changes":[6.0175674E1,1.40839E1,4.396476E0,1.6448212E0,3.9247818E0,1.8543179E0,1.0196629E0,0E0,0E0,0E0,0E0,0E0,0E0,0E0,0E0],"parents":[2147483647,0,0,1,1,2,2,4,4,5,5,3,3,6,6],"right_children":[2,4,6,12,8,10,14,-1,-1,-1,-1,-1,-1,-1,-1],"split_conditions":[1.9723556E3,1.1210072E3,2.7459858E3,5.7492914E2,1.5695789E3,2.2894363E3,3.5556204E3,-1.1806251E-1,-6.2764585E-2,-1.2324981E-2,2.7677078E-2,-2.3920333E-1,-2.0105095E-1,7.328018E-2,1.440091E-1],"split_indices":[3,3,3,3,3,3,3,0,0,0,0,0,0,0,0],"split_type":[0,0,0,0,0,0,0,0,0,0,0,0,0,0,0],"sum_hessian":[2.2711E4,1.1414E4,1.1297E4,2.301E3,9.113E3,8.614E3,2.683E3,4.052E3,5.061E3,3.74E3,4.874E3,1.81E2,2.12E3,2.588E3,9.5E1],"tree_param":{"num_deleted":"0","num_feature":"5","num_nodes":"15","size_leaf_vector":"1"}},{"base_weights":[-2.7556803E-2,-3.1240733E-2,7.6920134E-3,-5.241097E-2,-2.0978075E-2,-1.4627718E-2,-5.4545845E-3,-2.7929193E-3,-3.006978E-4],"categories":[],"categories_nodes":[],"categories_segments":[],"categories_sizes":[],"default_left":[0,0,0,0,0,0,0,0,0],"id":16,"left_children":[1,3,-1,5,7,-1,-1,-1,-1],"loss_changes":[8.18618E0,4.7623463E0,0E0,1.6248207E0,1.1873341E0,0E0,0E0,0E0,0E0],"parents":[2147483647,0,0,1,1,3,3,4,4],"right_children":[2,4,-1,6,8,-1,-1,-1,-1],"split_conditions":[1.5075087E3,1.03002815E2,1.1559601E-1,1.3365276E0,3.5415515E2,-2.0493786E-1,-6.0032044E-2,-2.9384078E-2,-4.9128723E-3],"split_indices":[1,1,0,1,1,0,0,0,0],"split_type":[0,0,0,0,0,0,0,0,0],"sum_hessian":[2.2747E4,2.1921E4,8.26E2,7.151E3,1.477E4,2.38E2,6.913E3,1.1888E4,2.882E3],"tree_param":{"num_deleted":"0","num_feature":"5","num_nodes":"9","size_leaf_vector":"1"}},{"base_weights":[-2.7562331E-2,1.2109704E-1,-1.7329903E-1,-1.1309808E-1,-3.236068E-1,1.6806228E-1,4.4786125E-2,2.7274134E-2,1.5017091E-2,-8.07121E-3,-1.7795295E-2,-3.0327866E-2,-4.5006745E-2,9.633525E-3,1.9514221E-3],"categories":[],"categories_nodes":[],"categories_segments":[],"categories_sizes":[],"default_left":[0,0,0,0,0,0,0,0,0,0,0,0,0,0,0],"id":17,"left_children":[1,5,3,9,11,7,13,-1,-1,-1,-1,-1,-1,-1,-1],"loss_changes":[4.9443338E2,4.046689E1,1.0421179E2,1.5895401E1,1.3302124E1,1.7561508E1,4.9834595E0,0E0,0E0,0E0,0E0,0E0,0E0,0E0,0E0],"parents":[2147483647,0,0,2,2,1,1,5,5,3,3,4,4,6,6],"right_children":[2,6,4,10,12,8,14,-1,-1,-1,-1,-1,-1,-1,-1],"split_conditions":[6.5E1,5.7E1,7.9E1,7.2E1,8.7E1,4.6E1,6E1,2.8074372E-1,1.6958389E-1,-9.3909375E-2,-2.2063152E-1,-3.6495742E-1,-7.7622837E-1,9.3000904E-2,1.2021179E-2],"split_indices":[0,0,0,0,0,0,0,0,0,0,0,0,0,0,0],"split_type":[0,0,0,0,0,0,0,0,0,0,0,0,0,0,0],"sum_hessian":[2.2815E4,1.1294E4,1.1521E4,8.229E3,3.292E3,6.989E3,4.305E3,1.974E3,5.015E3,4.535E3,3.694E3,2.116E3,1.176E3,1.664E3,2.641E3],"tree_param":{"num_deleted":"0","num_feature":"5","num_nodes":"15","size_leaf_vector":"1"}},{"base_weights":[-2.1326056E-2,9.219028E-2,-1.7704073E-1,1.5345667E-1,1.0134603E-2,-1.3032325E-1,-3.0446637E-1,2.5741298E-2,1.3716014E-2,-2.851415E-2,-3.9190378E-2,-1.2499535E-2,-1.9145977E-2,5.1423786E-3,-1.4784697E-3],"categories":[],"categories_nodes":[],"categories_segments":[],"categories_sizes":[],"default_left":[0,0,0,0,0,0,0,0,0,0,0,0,0,0,0],"id":18,"left_children":[1,3,5,7,13,11,9,-1,-1,-1,-1,-1,-1,-1,-1],"loss_changes":[4.011644E2,6.597131E1,5.6896484E1,1.7363419E1,4.8615837E0,5.0812683E0,5.8506317E0,0E0,0E0,0E0,0E0,0E0,0E0,0E0,0E0],"parents":[2147483647,0,0,1,1,2,2,3,3,6,6,5,5,4,4],"right_children":[2,4,6,8,14,12,10,-1,-1,-1,-1,-1,-1,-1,-1],"split_conditions":[6.8E1,5.8E1,8.1E1,4.6E1,6.2E1,7.6E1,8.7E1,2.498616E-1,1.5288986E-1,-3.5451317E-1,-6.8864304E-1,-1.4275612E-1,-2.6369008E-1,5.0124053E-2,-9.49089E-3],"split_indices":[0,0,0,0,0,0,0,0,0,0,0,0,0,0,0],"split_type":[0,0,0,0,0,0,0,0,0,0,0,0,0,0,0],"sum_hessian":[2.2688E4,1.3122E4,9.566E3,7.511E3,5.611E3,7.003E3,2.563E3,1.972E3,5.539E3,1.375E3,1.188E3,5.075E3,1.928E3,2.199E3,3.412E3],"tree_param":{"num_deleted":"0","num_feature":"5","num_nodes":"15","size_leaf_vector":"1"}},{"base_weights":[-1.6541412E-2,-6.823897E-2,2.2457229E-2,-1.2071855E-1,-5.1811967E-2,-4.040632E-3,4.1503258E-2,-2.8218115E-2,-1.1989757E-2,-7.0758113E-3,-4.0196567E-3,3.5766063E-3,6.345871E-3,-2.1255189E-3,1.9301214E-4],"categories":[],"categories_nodes":[],"categories_segments":[],"categories_sizes":[],"default_left":[0,0,0,0,0,0,0,0,0,0,0,0,0,0,0],"id":19,"left_children":[1,3,5,7,9,13,11,-1,-1,-1,-1,-1,-1,-1,-1],"loss_changes":[4.583955E1,8.418121E0,6.5470586E0,3.6690216E0,1.418644E0,4.857444E-1,1.0943899E0,0E0,0E0,0E0,0E0,0E0,0E0,0E0,0E0],"parents":[2147483647,0,0,1,1,2,2,3,3,4,4,6,6,5,5],"right_children":[2,4,6,8,10,14,12,-1,-1,-1,-1,-1,-1,-1,-1],"split_conditions":[1.8450504E3,1.1210072E3,2.2894363E3,5.7492914E2,1.5695789E3,1.9600896E3,2.7459858E3,-2.7410957E-1,-1.6269337E-1,-7.926475E-2,-4.8043594E-2,3.451809E-2,7.853294E-2,-2.6795045E-2,4.491577E-3],"split_indices":[3,3,3,3,3,3,3,0,0,0,0,0,0,0,0],"split_type":[0,0,0,0,0,0,0,0,0,0,0,0,0,0,0],"sum_hessian":[2.2722E4,9.771E3,1.2951E4,2.325E3,7.446E3,5.414E3,7.537E3,1.81E2,2.144E3,4.085E3,3.361E3,4.854E3,2.683E3,1.493E3,3.921E3],"tree_param":{"num_deleted":"0","num_feature":"5","num_nodes":"15","size_leaf_vector":"1"}},{"base_weights":[-1.530138E-2,9.104588E-2,-1.4657244E-1,-9.189933E-2,-2.2923864E-1,1.5258604E-1,3.638829E-2,-2.0676127E-2,-3.0909605E-2,8.177137E-3,1.1354235E-3,2.0587066E-2,1.348754E-2,-8.106624E-3,-1.3550706E-2],"categories":[],"categories_nodes":[],"categories_segments":[],"categories_sizes":[],"default_left":[0,0,0,0,0,0,0,0,0,0,0,0,0,0,0],"id":20,"left_children":[1,5,3,13,7,11,9,-1,-1,-1,-1,-1,-1,-1,-1],"loss_changes":[3.183878E2,4.236196E1,4.6092346E1,3.4864006E0,8.583054E0,6.0977783E0,6.602689E0,0E0,0E0,0E0,0E0,0E0,0E0,0E0,0E0],"parents":[2147483647,0,0,2,2,1,1,4,4,6,6,5,5,3,3],"right_children":[2,6,4,14,8,12,10,-1,-1,-1,-1,-1,-1,-1,-1],"split_conditions":[6.7E1,5.5E1,7.7E1,7.3E1,8.4E1,4.8E1,6E1,-2.6060212E-1,-4.679217E-1,7.5564995E-2,5.8889007E-3,2.2766136E-1,1.3227493E-1,-8.4280856E-2,-1.5645577E-1],"split_indices":[0,0,0,0,0,0,0,0,0,0,0,0,0,0,0],"split_type":[0,0,0,0,0,0,0,0,0,0,0,0,0,0,0],"sum_hessian":[2.2799E4,1.2595E4,1.0204E4,6.145E3,4.059E3,5.922E3,6.673E3,2.264E3,1.795E3,2.714E3,3.959E3,2.744E3,3.178E3,3.891E3,2.254E3],"tree_param":{"num_deleted":"0","num_feature":"5","num_nodes":"15","size_leaf_vector":"1"}},{"base_weights":[-1.4858888E-2,7.1570985E-2,-1.4836219E-1,1.1600284E-1,9.497383E-3,-9.432813E-2,-2.1391661E-1,3.455513E-2,1.1973045E-2,-2.0378996E-2,-3.101639E-2,3.0318971E-3,-1.4583296E-3,-9.050024E-3,-1.1955261E-2],"categories":[],"categories_nodes":[],"categories_segments":[],"categories_sizes":[],"default_left":[0,0,0,0,0,0,0,0,0,0,0,0,0,0,0],"id":21,"left_children":[1,3,5,7,11,13,9,-1,-1,-1,-1,-1,-1,-1,-1],"loss_changes":[2.6323535E2,3.818048E1,3.171701E1,1.1402618E1,2.3851426E0,8.356209E-1,7.805237E0,0E0,0E0,0E0,0E0,0E0,0E0,0E0,0E0],"parents":[2147483647,0,0,1,1,2,2,3,3,6,6,4,4,5,5],"right_children":[2,4,6,8,12,14,10,-1,-1,-1,-1,-1,-1,-1,-1],"split_conditions":[6.9E1,5.9E1,7.7E1,4.1E1,6.5E1,7.3E1,8.7E1,3.2111293E-1,1.3212723E-1,-2.3765327E-1,-5.4779994E-1,2.9807052E-2,-3.1054573E-2,-1.0447365E-1,-1.3912475E-1],"split_indices":[0,0,0,0,0,0,0,0,0,0,0,0,0,0,0],"split_type":[0,0,0,0,0,0,0,0,0,0,0,0,0,0,0],"sum_hessian":[2.2805E4,1.3843E4,8.962E3,8.066E3,5.777E3,4.916E3,4.046E3,2.78E2,7.788E3,2.853E3,1.193E3,3.223E3,2.554E3,2.683E3,2.233E3],"tree_param":{"num_deleted":"0","num_feature":"5","num_nodes":"15","size_leaf_vector":"1"}},{"base_weights":[-1.172043E-2,-6.285958E-2,2.6889369E-2,-1.2065175E-1,-4.49056E-2,-6.25084E-3,4.1562147E-2,3.5105888E-3,7.076661E-3,-2.3709277E-2,-1.2399868E-2,-7.5455694E-3,-4.0159323E-3,-1.4994045E-3,-8.9914014E-5],"categories":[],"categories_nodes":[],"categories_segments":[],"categories_sizes":[],"default_left":[0,0,0,0,0,0,0,0,0,0,0,0,0,0,0],"id":22,"left_children":[1,3,5,9,11,13,7,-1,-1,-1,-1,-1,-1,-1,-1],"loss_changes":[4.4985653E1,1.0161274E1,6.318571E0,1.7119713E0,1.4853458E0,1.59834E-1,1.9741917E0,0E0,0E0,0E0,0E0,0E0,0E0,0E0,0E0],"parents":[2147483647,0,0,1,1,2,2,6,6,3,3,4,4,5,5],"right_children":[2,4,6,10,12,14,8,-1,-1,-1,-1,-1,-1,-1,-1],"split_conditions":[1.8450504E3,1.1210072E3,2.1689478E3,5.7492914E2,1.3630271E3,1.9723556E3,2.7459858E3,2.1066017E-2,9.437264E-2,-3.4452042E-1,-1.4634971E-1,-8.114548E-2,-5.0414428E-2,-2.1375274E-2,-3.3791733E-3],"split_indices":[3,3,3,3,3,3,3,0,0,0,0,0,0,0,0],"split_type":[0,0,0,0,0,0,0,0,0,0,0,0,0,0,0],"sum_hessian":[2.2769E4,9.796E3,1.2973E4,2.318E3,7.478E3,3.979E3,8.994E3,6.324E3,2.67E3,1.74E2,2.144E3,1.95E3,5.528E3,1.677E3,2.302E3],"tree_param":{"num_deleted":"0","num_feature":"5","num_nodes":"15","size_leaf_vector":"1"}},{"base_weights":[-1.0049857E-2,6.957496E-2,-1.3271414E-1,1.1257234E-1,-1.5143022E-3,-9.534216E-2,-2.2664216E-1,1.997063E-2,1.0116039E-2,-2.0023083E-2,-3.0697355E-2,-6.6661923E-3,-1.3174051E-2,2.1430952E-3,-1.7944968E-3],"categories":[],"categories_nodes":[],"categories_segments":[],"categories_sizes":[],"default_left":[0,0,0,0,0,0,0,0,0,0,0,0,0,0,0],"id":23,"left_children":[1,3,5,7,13,11,9,-1,-1,-1,-1,-1,-1,-1,-1],"loss_changes":[2.2251244E2,4.2238365E1,3.1440872E1,1.2211128E1,1.6258464E0,5.4310265E0,5.875107E0,0E0,0E0,0E0,0E0,0E0,0E0,0E0,0E0],"parents":[2147483647,0,0,1,1,2,2,3,3,6,6,5,5,4,4],"right_children":[2,4,6,8,14,12,10,-1,-1,-1,-1,-1,-1,-1,-1],"split_conditions":[6.9E1,6E1,8.1E1,4.6E1,6.4E1,7.3E1,8.7E1,1.981665E-1,1.0757042E-1,-2.517889E-1,-5.131627E-1,-7.822998E-2,-1.5183158E-1,2.5116157E-2,-2.5982667E-2],"split_indices":[0,0,0,0,0,0,0,0,0,0,0,0,0,0,0],"split_type":[0,0,0,0,0,0,0,0,0,0,0,0,0,0,0],"sum_hessian":[2.2773E4,1.3809E4,8.964E3,8.605E3,5.204E3,6.416E3,2.548E3,1.975E3,6.63E3,1.382E3,1.166E3,2.653E3,3.763E3,2.148E3,3.056E3],"tree_param":{"num_deleted":"0","num_feature":"5","num_nodes":"15","size_leaf_vector":"1"}},{"base_weights":[-5.2664015E-3,8.352447E-2,-9.224461E-2,-6.526691E-2,-1.8581948E-1,1.5525042E-1,6.048038E-2,-3.47774E-3,-1.0025674E-2,8.433737E-3,2.7206433E-3,3.0269595E-2,1.5582981E-2,-1.781316E-2,-2.5264379E-2],"categories":[],"categories_nodes":[],"categories_segments":[],"categories_sizes":[],"default_left":[0,0,0,0,0,0,0,0,0,0,0,0,0,0,0],"id":24,"left_children":[1,5,3,7,13,11,9,-1,-1,-1,-1,-1,-1,-1,-1],"loss_changes":[1.7585603E2,1.8608223E1,2.9019356E1,7.770401E0,2.630478E0,4.403244E0,4.9309444E0,0E0,0E0,0E0,0E0,0E0,0E0,0E0,0E0],"parents":[2147483647,0,0,2,2,1,1,3,3,6,6,5,5,4,4],"right_children":[2,6,4,8,14,12,10,-1,-1,-1,-1,-1,-1,-1,-1],"split_conditions":[6.5E1,4.8E1,8.1E1,7.1E1,8.9E1,4.1E1,6E1,-5.091965E-2,-1.2384064E-1,8.904099E-2,2.5389329E-2,3.03651E-1,1.6330223E-1,-2.272879E-1,-4.5547882E-1],"split_indices":[0,0,0,0,0,0,0,0,0,0,0,0,0,0,0],"split_type":[0,0,0,0,0,0,0,0,0,0,0,0,0,0,0],"sum_hessian":[2.2762E4,1.1263E4,1.1499E4,8.929E3,2.57E3,2.735E3,8.528E3,3.885E3,5.044E3,5.866E3,2.662E3,2.74E2,2.461E3,1.671E3,8.99E2],"tree_param":{"num_deleted":"0","num_feature":"5","num_nodes":"15","size_leaf_vector":"1"}},{"base_weights":[-1.0095095E-2,4.7993816E-2,-1.11100264E-1,9.433087E-2,1.0604077E-2,-8.326722E-2,-2.1101312E-1,1.8344104E-2,9.052223E-3,-6.838208E-3,-1.3450404E-2,4.107882E-3,-8.554387E-4,-1.8553495E-2,-2.563623E-2],"categories":[],"categories_nodes":[],"categories_segments":[],"categories_sizes":[],"default_left":[0,0,0,0,0,0,0,0,0,0,0,0,0,0,0],"id":25,"left_children":[1,3,5,7,11,9,13,-1,-1,-1,-1,-1,-1,-1,-1],"loss_changes":[1.3365988E2,2.5047794E1,2.310263E1,5.6111526E0,3.9464414E0,5.3456345E0,1.6177368E0,0E0,0E0,0E0,0E0,0E0,0E0,0E0,0E0],"parents":[2147483647,0,0,1,1,2,2,3,3,5,5,4,4,6,6],"right_children":[2,4,6,8,12,10,14,-1,-1,-1,-1,-1,-1,-1,-1],"split_conditions":[7E1,5.6E1,8.4E1,4.3E1,6.2E1,7.7E1,8.7E1,1.6861206E-1,9.908367E-2,-8.429932E-2,-1.6910888E-1,4.1125372E-2,-1.0758972E-2,-1.9083622E-1,-4.1014132E-1],"split_indices":[0,0,0,0,0,0,0,0,0,0,0,0,0,0,0],"split_type":[0,0,0,0,0,0,0,0,0,0,0,0,0,0,0],"sum_hessian":[2.277E4,1.4456E4,8.314E3,6.453E3,8.003E3,6.506E3,1.808E3,9.15E2,5.538E3,4.227E3,2.279E3,3.262E3,4.741E3,6.26E2,1.182E3],"tree_param":{"num_deleted":"0","num_feature":"5","num_nodes":"15","size_leaf_vector":"1"}},{"base_weights":[-1.1829838E-2,3.1408694E-2,-1.1026846E-1,8.1317216E-2,-2.860281E-3,-7.042693E-2,-1.382904E-1,2.1069175E-2,8.366447E-3,1.9215306E-3,-2.1915657E-3,-1.3315053E-2,-1.9807993E-2,-6.803281E-3,-8.414569E-3],"categories":[],"categories_nodes":[],"categories_segments":[],"categories_sizes":[],"default_left":[0,0,0,0,0,0,0,0,0,0,0,0,0,0,0],"id":26,"left_children":[1,3,5,7,9,13,11,-1,-1,-1,-1,-1,-1,-1,-1],"loss_changes":[9.714883E1,2.7133404E1,7.7560806E0,3.727848E0,3.269123E0,1.4137268E-1,2.907631E0,0E0,0E0,0E0,0E0,0E0,0E0,0E0,0E0],"parents":[2147483647,0,0,1,1,2,2,3,3,4,4,6,6,5,5],"right_children":[2,4,6,8,10,14,12,-1,-1,-1,-1,-1,-1,-1,-1],"split_conditions":[7.2E1,5.6E1,7.7E1,4.1E1,6.4E1,7.4E1,8.7E1,1.5621574E-1,9.317169E-2,2.1088257E-2,-3.7191465E-2,-1.5750816E-1,-3.6002567E-1,-6.9980316E-2,-9.995228E-2],"split_indices":[0,0,0,0,0,0,0,0,0,0,0,0,0,0,0],"split_type":[0,0,0,0,0,0,0,0,0,0,0,0,0,0,0],"sum_hessian":[2.2812E4,1.585E4,6.962E3,6.453E3,9.397E3,2.879E3,4.083E3,2.9E2,6.163E3,4.285E3,5.112E3,2.897E3,1.186E3,1.209E3,1.67E3],"tree_param":{"num_deleted":"0","num_feature":"5","num_nodes":"15","size_leaf_vector":"1"}},{"base_weights":[-9.306277E-3,-4.7585044E-2,4.083955E-3,2.618048E-3,2.5638279E-2,5.556941E-4,-1.1988848E-2,-7.309801E-2,-3.4098055E-2,-7.1327817E-3,-2.9441573E-2,-2.9328025E-3,-1.3055546E-2],"categories":[],"categories_nodes":[],"categories_segments":[],"categories_sizes":[],"default_left":[0,0,0,0,0,0,0,0,0,0,0,0,0],"id":27,"left_children":[1,7,3,5,-1,-1,-1,9,11,-1,-1,-1,-1],"loss_changes":[1.1685212E1,2.0281162E0,5.6873593E0,4.5677204E0,0E0,0E0,0E0,3.2621565E0,2.4363484E0,0E0,0E0,0E0,0E0],"parents":[2147483647,0,0,2,2,3,3,1,1,7,7,8,8],"right_children":[2,8,4,6,-1,-1,-1,10,12,-1,-1,-1,-1],"split_conditions":[5.74E1,4.5E1,9.81E1,9.19E1,1.9965027E-1,7.913971E-3,-1.273545E-1,4.46E1,5.67E1,-7.429062E-2,-8.504875E-2,-3.2840043E-2,-1.2983361E-1],"split_indices":[2,2,2,2,0,0,0,2,2,0,0,0,0],"split_type":[0,0,0,0,0,0,0,0,0,0,0,0,0],"sum_hessian":[2.2766E4,5.901E3,1.6865E4,1.676E4,1.05E2,1.6405E4,3.55E2,2.035E3,3.866E3,1.955E3,8E1,3.557E3,3.09E2],"tree_param":{"num_deleted":"0","num_feature":"5","num_nodes":"13","size_leaf_vector":"1"}},{"base_weights":[-9.1233775E-3,-7.635465E-2,-2.407513E-3,-1.55897E-2,1.762405E-2,-6.7353755E-2,-3.213238E-2,1.5604777E-3,1.7442709E-2,-8.383004E-3,6.7872643E-3,-1.2923612E-3,-6.914408E-3],"categories":[],"categories_nodes":[],"categories_segments":[],"categories_sizes":[],"default_left":[0,0,0,0,0,0,0,0,0,0,0,0,0],"id":28,"left_children":[1,5,3,11,7,9,-1,-1,-1,-1,-1,-1,-1],"loss_changes":[1.02948885E1,4.005168E0,5.4787045E0,2.2733736E0,3.9955432E0,2.2981606E0,0E0,0E0,0E0,0E0,0E0,0E0,0E0],"parents":[2147483647,0,0,2,2,1,1,4,4,5,5,3,3],"right_children":[2,6,4,12,8,10,-1,-1,-1,-1,-1,-1,-1],"split_conditions":[4.5E1,4.46E1,7.32E1,7.12E1,9.5E1,4.41E1,-1.1737057E-1,1.713295E-2,1.4500777E-1,-8.695276E-2,9.324387E-2,-1.3208275E-2,-6.606361E-2],"split_indices":[2,2,2,2,2,2,0,0,0,0,0,0,0],"split_type":[0,0,0,0,0,0,0,0,0,0,0,0,0],"sum_hessian":[2.2784E4,2.066E3,2.0718E4,1.2499E4,8.219E3,1.986E3,8E1,8.026E3,1.93E2,1.86E3,1.26E2,1.1564E4,9.35E2],"tree_param":{"num_deleted":"0","num_feature":"5","num_nodes":"13","size_leaf_vector":"1"}},{"base_weights":[-3.0710069E-3,2.9947743E-2,-1.0117017E-1,9.008413E-2,1.9688176E-3,-7.783459E-2,-1.6762236E-2,1.5340014E-2,7.578283E-3,3.3020382E-3,-1.2766501E-3,-6.6117495E-3,-9.969135E-3],"categories":[],"categories_nodes":[],"categories_segments":[],"categories_sizes":[],"default_left":[0,0,0,0,0,0,0,0,0,0,0,0,0],"id":29,"left_children":[1,3,5,7,9,11,-1,-1,-1,-1,-1,-1,-1],"loss_changes":[7.3752045E1,2.8650166E1,6.832424E0,5.6408043E0,4.437603E0,8.840828E-1,0E0,0E0,0E0,0E0,0E0,0E0,0E0],"parents":[2147483647,0,0,1,1,2,2,3,3,4,4,5,5],"right_children":[2,4,6,8,10,12,-1,-1,-1,-1,-1,-1,-1],"split_conditions":[7.4E1,5.4E1,8.4E1,4.5E1,6.1E1,7.7E1,-2.2886692E-1,1.4775585E-1,7.5989224E-2,3.591961E-2,-1.3906097E-2,-8.998261E-2,-1.2946601E-1],"split_indices":[0,0,0,0,0,0,0,0,0,0,0,0,0],"split_type":[0,0,0,0,0,0,0,0,0,0,0,0,0],"sum_hessian":[2.2754E4,1.7024E4,5.73E3,5.403E3,1.1621E4,3.941E3,1.789E3,1.618E3,3.785E3,3.792E3,7.829E3,1.66E3,2.281E3],"tree_param":{"num_deleted":"0","num_feature":"5","num_nodes":"13","size_leaf_vector":"1"}},{"base_weights":[-7.726452E-3,4.853952E-2,-6.286618E-2,-3.2603953E-2,-1.0918303E-1,1.0824247E-1,2.9309187E-2,-1.0322658E-2,-1.6864773E-2,6.5907394E-3,2.073528E-3,2.212881E-2,1.0718811E-2,-1.8255066E-3,-4.583782E-3],"categories":[],"categories_nodes":[],"categories_segments":[],"categories_sizes":[],"default_left":[0,0,0,0,0,0,0,0,0,0,0,0,0,0,0],"id":30,"left_children":[1,5,3,13,7,11,9,-1,-1,-1,-1,-1,-1,-1,-1],"loss_changes":[7.065563E1,1.2934597E1,1.6112858E1,1.0080028E0,3.0529594E0,2.7274895E0,2.7295709E0,0E0,0E0,0E0,0E0,0E0,0E0,0E0,0E0],"parents":[2147483647,0,0,2,2,1,1,4,4,6,6,5,5,3,3],"right_children":[2,6,4,14,8,12,10,-1,-1,-1,-1,-1,-1,-1,-1],"split_conditions":[6.5E1,4.8E1,7.6E1,6.9E1,8.7E1,4.1E1,5.3E1,-1.2218819E-1,-2.8883645E-1,6.546985E-2,2.481865E-2,1.6486572E-1,1.0718689E-1,-3.311447E-2,-6.3508146E-2],"split_indices":[0,0,0,0,0,0,0,0,0,0,0,0,0,0,0],"split_type":[0,0,0,0,0,0,0,0,0,0,0,0,0,0,0],"sum_hessian":[2.2762E4,1.1265E4,1.1497E4,6.957E3,4.54E3,2.741E3,8.524E3,3.375E3,1.165E3,2.166E3,6.358E3,2.81E2,2.46E3,2.522E3,4.435E3],"tree_param":{"num_deleted":"0","num_feature":"5","num_nodes":"15","size_leaf_vector":"1"}},{"base_weights":[-3.7984964E-3,4.4926345E-2,-5.1763386E-2,-3.333965E-2,-1.2645958E-1,1.1530585E-1,3.30198E-2,-1.5127786E-3,-5.749628E-3,6.079621E-3,2.3629004E-3,1.9794673E-2,1.1156581E-2,-9.870913E-3,-1.5708437E-2],"categories":[],"categories_nodes":[],"categories_segments":[],"categories_sizes":[],"default_left":[0,0,0,0,0,0,0,0,0,0,0,0,0,0,0],"id":31,"left_children":[1,5,3,7,13,11,9,-1,-1,-1,-1,-1,-1,-1,-1],"loss_changes":[5.2867462E1,9.398682E0,1.5681808E1,3.3893366E0,1.3272476E0,1.4283409E0,2.4629803E0,0E0,0E0,0E0,0E0,0E0,0E0,0E0,0E0],"parents":[2147483647,0,0,2,2,1,1,3,3,6,6,5,5,4,4],"right_children":[2,6,4,8,14,12,10,-1,-1,-1,-1,-1,-1,-1,-1],"split_conditions":[6.5E1,4.5E1,8.2E1,7.2E1,8.5E1,4.1E1,5.3E1,-2.1206168E-2,-6.874832E-2,6.66259E-2,2.5141334E-2,1.4673072E-1,9.908955E-2,-1.0201973E-1,-2.4572292E-1],"split_indices":[0,0,0,0,0,0,0,0,0,0,0,0,0,0,0],"split_type":[0,0,0,0,0,0,0,0,0,0,0,0,0,0,0],"sum_hessian":[2.2608E4,1.1214E4,1.1394E4,9.143E3,2.251E3,1.619E3,9.595E3,4.498E3,4.645E3,3.271E3,6.324E3,2.81E2,1.338E3,6.99E2,1.552E3],"tree_param":{"num_deleted":"0","num_feature":"5","num_nodes":"15","size_leaf_vector":"1"}},{"base_weights":[-4.12496E-3,-2.3952663E-2,3.5652794E-2,-7.936394E-2,-1.4097542E-2,1.9700082E-3,5.5620138E-2,-1.6385484E-2,-8.089189E-3,-2.3400274E-3,-4.950731E-4,5.869916E-3,6.275907E-3],"categories":[],"categories_nodes":[],"categories_segments":[],"categories_sizes":[],"default_left":[0,0,0,0,0,0,0,0,0,0,0,0,0],"id":32,"left_children":[1,3,5,7,9,-1,11,-1,-1,-1,-1,-1,-1],"loss_changes":[1.7963764E1,8.299347E0,2.680419E0,9.1737175E-1,8.879862E-1,0E0,6.0577393E-3,0E0,0E0,0E0,0E0,0E0,0E0],"parents":[2147483647,0,0,1,1,2,2,3,3,4,4,6,6],"right_children":[2,4,6,8,10,-1,12,-1,-1,-1,-1,-1,-1],"split_conditions":[2.2894363E3,1.1210072E3,2.6349822E3,5.7492914E2,1.83754E3,3.6425665E-2,2.819474E3,-2.524154E-1,-1.1322685E-1,-2.2262344E-2,-4.1046906E-3,6.572079E-2,6.358746E-2],"split_indices":[3,3,3,3,3,0,3,0,0,0,0,0,0],"split_type":[0,0,0,0,0,0,0,0,0,0,0,0,0],"sum_hessian":[2.2758E4,1.519E4,7.568E3,2.29E3,1.29E4,4.012E3,3.556E3,1.72E2,2.118E3,7.373E3,5.527E3,1.439E3,2.117E3],"tree_param":{"num_deleted":"0","num_feature":"5","num_nodes":"13","size_leaf_vector":"1"}},{"base_weights":[-3.7362557E-3,2.463726E-2,-6.777976E-2,4.9656276E-2,-5.4391385E-3,-4.596666E-2,-1.1194009E-1,1.0165083E-2,4.3566157E-3,-3.723387E-3,-7.203848E-3,-1.0294033E-2,-1.4194556E-2,1.0841785E-4,-1.4691663E-3],"categories":[],"categories_nodes":[],"categories_segments":[],"categories_sizes":[],"default_left":[0,0,0,0,0,0,0,0,0,0,0,0,0,0,0],"id":33,"left_children":[1,3,5,7,13,9,11,-1,-1,-1,-1,-1,-1,-1,-1],"loss_changes":[4.131187E1,1.1859662E1,6.714081E0,3.691431E0,3.6716732E-1,1.1028814E0,7.018585E-1,0E0,0E0,0E0,0E0,0E0,0E0,0E0,0E0],"parents":[2147483647,0,0,1,1,2,2,3,3,5,5,6,6,4,4],"right_children":[2,4,6,8,14,10,12,-1,-1,-1,-1,-1,-1,-1,-1],"split_conditions":[7.2E1,6E1,8.2E1,4.5E1,6.7E1,7.7E1,8.7E1,8.9561306E-2,4.8319284E-2,-4.077835E-2,-7.8270264E-2,-1.1518185E-1,-2.3542972E-1,1.5047455E-3,-2.403145E-2],"split_indices":[0,0,0,0,0,0,0,0,0,0,0,0,0,0,0],"split_type":[0,0,0,0,0,0,0,0,0,0,0,0,0,0,0],"sum_hessian":[2.2717E4,1.5742E4,6.975E3,8.595E3,7.147E3,4.673E3,2.302E3,1.631E3,6.964E3,2.89E3,1.783E3,1.119E3,1.183E3,3.938E3,3.209E3],"tree_param":{"num_deleted":"0","num_feature":"5","num_nodes":"15","size_leaf_vector":"1"}},{"base_weights":[-4.929229E-3,2.8756652E-2,-5.7007533E-2,6.182748E-2,7.4340794E-3,-3.687104E-2,-1.0793444E-1,1.0660716E-2,5.163982E-3,-1.0042076E-2,-1.5212938E-2,-3.3739803E-3,-6.290713E-3,2.0920844E-3,1.8656574E-5],"categories":[],"categories_nodes":[],"categories_segments":[],"categories_sizes":[],"default_left":[0,0,0,0,0,0,0,0,0,0,0,0,0,0,0],"id":34,"left_children":[1,3,5,7,13,11,9,-1,-1,-1,-1,-1,-1,-1,-1],"loss_changes":[4.0199974E1,9.806281E0,9.222675E0,2.839632E0,7.123716E-1,8.1107426E-1,1.2664165E0,0E0,0E0,0E0,0E0,0E0,0E0,0E0,0E0],"parents":[2147483647,0,0,1,1,2,2,3,3,6,6,5,5,4,4],"right_children":[2,4,6,8,14,12,10,-1,-1,-1,-1,-1,-1,-1,-1],"split_conditions":[6.9E1,5.4E1,8.1E1,4.5E1,6E1,7.7E1,8.9E1,8.695717E-2,5.0842017E-2,-1.333995E-1,-2.2234502E-1,-4.9203835E-2,-5.735321E-2,2.9697113E-2,7.4691774E-4],"split_indices":[0,0,0,0,0,0,0,0,0,0,0,0,0,0,0],"split_type":[0,0,0,0,0,0,0,0,0,0,0,0,0,0,0],"sum_hessian":[2.2899E4,1.3904E4,8.995E3,5.447E3,8.457E3,6.45E3,2.545E3,1.617E3,3.83E3,1.651E3,8.94E2,4.95E3,1.5E3,3.252E3,5.205E3],"tree_param":{"num_deleted":"0","num_feature":"5","num_nodes":"15","size_leaf_vector":"1"}},{"base_weights":[-3.4599617E-4,2.2428358E-2,-6.0040914E-2,9.107448E-2,1.4921767E-2,-4.0617187E-2,-8.791329E-2,3.3287546E-3,1.3814149E-4,1.5904449E-2,8.755951E-3,-9.084606E-3,-1.0753343E-2,-4.017888E-3,-5.137881E-3],"categories":[],"categories_nodes":[],"categories_segments":[],"categories_sizes":[],"default_left":[0,0,0,0,0,0,0,0,0,0,0,0,0,0,0],"id":35,"left_children":[1,3,5,9,7,13,11,-1,-1,-1,-1,-1,-1,-1,-1],"loss_changes":[3.100079E1,8.502934E0,3.402052E0,9.817114E-1,3.1172848E0,8.979273E-2,1.2163353E-1,0E0,0E0,0E0,0E0,0E0,0E0,0E0,0E0],"parents":[2147483647,0,0,1,1,2,2,4,4,3,3,6,6,5,5],"right_children":[2,4,6,10,8,14,12,-1,-1,-1,-1,-1,-1,-1,-1],"split_conditions":[7.3E1,4.5E1,8.1E1,4.1E1,6E1,7.7E1,8.9E1,3.7381135E-2,2.0389175E-3,1.3153306E-1,7.405396E-2,-9.847774E-2,-1.9632354E-1,-5.054241E-2,-4.839775E-2],"split_indices":[0,0,0,0,0,0,0,0,0,0,0,0,0,0,0],"split_type":[0,0,0,0,0,0,0,0,0,0,0,0,0,0,0],"sum_hessian":[2.2782E4,1.649E4,6.292E3,1.622E3,1.4868E4,3.713E3,2.579E3,7E3,7.868E3,2.81E2,1.341E3,1.692E3,8.87E2,2.24E3,1.473E3],"tree_param":{"num_deleted":"0","num_feature":"5","num_nodes":"15","size_leaf_vector":"1"}},{"base_weights":[1.7494303E-3,-2.4273286E-2,4.224787E-2,-5.7690505E-2,-1.1528637E-2,-2.5673449E-2,-5.854575E-3,3.273355E-2,7.5931326E-2,1.2811201E-3,4.1621677E-3,-1.7677702E-3,1.6467998E-4,7.367368E-3,8.703033E-3],"categories":[],"categories_nodes":[],"categories_segments":[],"categories_sizes":[],"default_left":[0,0,0,0,0,0,0,0,0,0,0,0,0,0,0],"id":36,"left_children":[1,3,7,5,11,-1,-1,9,13,-1,-1,-1,-1,-1,-1],"loss_changes":[2.4045141E1,5.91208E0,2.8573322E0,3.0033102E0,5.978488E-1,0E0,0E0,7.4668694E-1,4.5962334E-2,0E0,0E0,0E0,0E0,0E0,0E0],"parents":[2147483647,0,0,1,1,3,3,2,2,7,7,4,4,8,8],"right_children":[2,4,8,6,12,-1,-1,10,14,-1,-1,-1,-1,-1,-1],"split_conditions":[2.1760327E3,1.3263887E3,2.843321E3,4.4885327E2,1.9600896E3,-4.0448448E-1,-7.319206E-2,2.2894363E3,2.9363167E3,9.75441E-3,3.6120187E-2,-2.1376114E-2,5.571251E-3,7.287903E-2,1.02517396E-1],"split_indices":[3,3,3,3,3,0,0,3,3,0,0,0,0,0,0],"split_type":[0,0,0,0,0,0,0,0,0,0,0,0,0,0,0],"sum_hessian":[2.2796E4,1.3877E4,8.919E3,3.827E3,1.005E4,9.2E1,3.735E3,6.96E3,1.959E3,1.362E3,5.598E3,7.458E3,2.592E3,5.34E2,1.425E3],"tree_param":{"num_deleted":"0","num_feature":"5","num_nodes":"15","size_leaf_vector":"1"}},{"base_weights":[9.1742363E-4,-2.909278E-2,4.2054683E-2,-6.1640773E-2,-1.3473402E-2,3.0885888E-2,6.1012022E-2,-1.3190188E-2,-6.635233E-3,-1.8191417E-3,-2.7506726E-4,6.147871E-3,7.11916E-3,2.496771E-3,3.5116726E-3],"categories":[],"categories_nodes":[],"categories_segments":[],"categories_sizes":[],"default_left":[0,0,0,0,0,0,0,0,0,0,0,0,0,0,0],"id":37,"left_children":[1,3,5,7,9,13,11,-1,-1,-1,-1,-1,-1,-1,-1],"loss_changes":[2.8121574E1,6.6911755E0,2.031002E0,3.220768E-1,2.9817533E-1,4.933548E-2,6.0980797E-2,0E0,0E0,0E0,0E0,0E0,0E0,0E0,0E0],"parents":[2147483647,0,0,1,1,2,2,3,3,4,4,6,6,5,5],"right_children":[2,4,6,8,10,14,12,-1,-1,-1,-1,-1,-1,-1,-1],"split_conditions":[2.1121377E3,1.3630271E3,2.6349822E3,4.4885327E2,1.953316E3,2.1760327E3,2.832054E3,-2.1693176E-1,-7.553185E-2,-2.2498168E-2,-2.1366882E-3,6.15477E-2,7.990803E-2,4.5239296E-2,3.141922E-2],"split_indices":[3,3,3,3,3,3,3,0,0,0,0,0,0,0,0],"split_type":[0,0,0,0,0,0,0,0,0,0,0,0,0,0,0],"sum_hessian":[2.2761E4,1.3159E4,9.602E3,4.263E3,8.896E3,6.049E3,3.553E3,8.9E1,4.174E3,6.945E3,1.951E3,1.517E3,2.036E3,6.98E2,5.351E3],"tree_param":{"num_deleted":"0","num_feature":"5","num_nodes":"15","size_leaf_vector":"1"}},{"base_weights":[-3.5548697E-3,3.07677E-2,-3.707913E-2,-1.6345233E-2,-5.7684448E-2,6.706754E-2,1.9041127E-2,1.55704925E-2,6.4291973E-3,-5.0227996E-3,-8.000415E-3,-1.4471634E-3,-3.1221858E-3,2.578081E-3,1.4711779E-3],"categories":[],"categories_nodes":[],"categories_segments":[],"categories_sizes":[],"default_left":[0,0,0,0,0,0,0,0,0,0,0,0,0,0,0],"id":38,"left_children":[1,5,3,11,9,7,13,-1,-1,-1,-1,-1,-1,-1,-1],"loss_changes":[2.6197983E1,4.7859344E0,4.9169054E0,2.2089458E-1,1.0384369E0,1.7535143E0,2.1108723E-1,0E0,0E0,0E0,0E0,0E0,0E0,0E0,0E0],"parents":[2147483647,0,0,2,2,1,1,5,5,4,4,3,3,6,6],"right_children":[2,6,4,12,10,8,14,-1,-1,-1,-1,-1,-1,-1,-1],"split_conditions":[6.5E1,4.8E1,7.4E1,7.2E1,8.1E1,4.1E1,5.8E1,1.01731874E-1,6.7901954E-2,-5.549263E-2,-1.0535652E-1,-1.9130325E-2,-2.0750884E-2,2.6969604E-2,1.6963424E-2],"split_indices":[0,0,0,0,0,0,0,0,0,0,0,0,0,0,0],"split_type":[0,0,0,0,0,0,0,0,0,0,0,0,0,0,0],"sum_hessian":[2.2751E4,1.124E4,1.1511E4,5.742E3,5.769E3,2.74E3,8.5E3,2.8E2,2.46E3,3.215E3,2.554E3,4.55E3,1.192E3,4.772E3,3.728E3],"tree_param":{"num_deleted":"0","num_feature":"5","num_nodes":"15","size_leaf_vector":"1"}},{"base_weights":[-9.197672E-4,-2.6949357E-2,2.4249602E-2,-1.5560956E-1,-2.4912596E-2,-4.133957E-3,-9.3714637E-4,2.02759E-2,5.204697E-2,7.4350677E-4,2.7553681E-3,-2.191558E-2,-1.1528331E-2,5.5651837E-3,7.666474E-3],"categories":[],"categories_nodes":[],"categories_segments":[],"categories_sizes":[],"default_left":[0,0,0,0,0,0,0,0,0,0,0,0,0,0,0],"id":39,"left_children":[1,3,7,11,5,-1,-1,9,13,-1,-1,-1,-1,-1,-1],"loss_changes":[1.4888208E1,2.9337072E0,1.2758126E0,3.453064E-1,2.2821994E0,0E0,0E0,6.505799E-1,3.2616854E-2,0E0,0E0,0E0,0E0,0E0,0E0],"parents":[2147483647,0,0,1,1,4,4,2,2,7,7,3,3,8,8],"right_children":[2,4,8,12,6,-1,-1,10,14,-1,-1,-1,-1,-1,-1],"split_conditions":[1.953316E3,5.7492914E2,2.9363167E3,4.4885327E2,1.5695789E3,-4.8379287E-2,-1.4085693E-2,2.1760327E3,3.5556204E3,9.104423E-3,2.6534881E-2,-2.7074006E-1,-1.3682023E-1,6.0364798E-2,1.1149551E-1],"split_indices":[3,3,3,3,3,0,0,3,3,0,0,0,0,0,0],"split_type":[0,0,0,0,0,0,0,0,0,0,0,0,0,0,0],"sum_hessian":[2.2703E4,1.1163E4,1.154E4,1.71E2,1.0992E4,6.195E3,4.797E3,1.0103E4,1.437E3,2.644E3,7.459E3,8.8E1,8.3E1,1.34E3,9.7E1],"tree_param":{"num_deleted":"0","num_feature":"5","num_nodes":"15","size_leaf_vector":"1"}},{"base_weights":[-6.962678E-4,-3.6604624E-2,1.3349167E-2,4.594943E-3,4.4613227E-2,-5.061526E-2,-2.8474184E-2,-1.1232269E-4,1.1927957E-3,3.5404807E-3,5.9015756E-3,-1.1847661E-2,-5.302529E-3,-3.5641734E-3,-2.125931E-3],"categories":[],"categories_nodes":[],"categories_segments":[],"categories_sizes":[],"default_left":[0,0,0,0,0,0,0,0,0,0,0,0,0,0,0],"id":40,"left_children":[1,5,3,7,9,11,13,-1,-1,-1,-1,-1,-1,-1,-1],"loss_changes":[1.1520173E1,7.291002E-1,4.4899426E0,4.525735E-1,3.9905214E-1,3.2047844E-1,1.4449811E-1,0E0,0E0,0E0,0E0,0E0,0E0,0E0,0E0],"parents":[2147483647,0,0,2,2,1,1,3,3,4,4,5,5,6,6],"right_children":[2,6,4,8,10,12,14,-1,-1,-1,-1,-1,-1,-1,-1],"split_conditions":[1.5695789E3,1.1210072E3,2.6349822E3,2.1121377E3,2.832054E3,4.4885327E2,1.4588612E3,-3.0841827E-3,1.2395058E-2,3.1745683E-2,6.97789E-2,-1.884786E-1,-6.5643996E-2,-3.9352283E-2,-1.3245621E-2],"split_indices":[3,3,3,3,3,3,3,0,0,0,0,0,0,0,0],"split_type":[0,0,0,0,0,0,0,0,0,0,0,0,0,0,0],"sum_hessian":[2.281E4,6.415E3,1.6395E4,1.2813E4,3.582E3,2.347E3,4.068E3,6.739E3,6.074E3,1.517E3,2.065E3,9E1,2.257E3,2.834E3,1.234E3],"tree_param":{"num_deleted":"0","num_feature":"5","num_nodes":"15","size_leaf_vector":"1"}},{"base_weights":[-2.7545558E-3,3.0472176E-2,-2.7497685E-2,-1.5140662E-2,-5.5049717E-2,5.3663272E-2,2.130322E-2,-4.753274E-3,-8.589629E-3,8.373487E-3,4.7096843E-3,-9.0798095E-4,-1.8213817E-3,2.7629754E-3,2.0812475E-3],"categories":[],"categories_nodes":[],"categories_segments":[],"categories_sizes":[],"default_left":[0,0,0,0,0,0,0,0,0,0,0,0,0,0,0],"id":41,"left_children":[1,5,3,11,7,9,13,-1,-1,-1,-1,-1,-1,-1,-1],"loss_changes":[1.8782322E1,2.07131E0,4.4561815E0,8.736038E-2,1.0995693E0,6.670289E-1,6.2856674E-2,0E0,0E0,0E0,0E0,0E0,0E0,0E0,0E0],"parents":[2147483647,0,0,2,2,1,1,4,4,5,5,3,3,6,6],"right_children":[2,6,4,12,8,10,14,-1,-1,-1,-1,-1,-1,-1,-1],"split_conditions":[6.2E1,4.8E1,7.7E1,6.5E1,8.6E1,4.3E1,5.4E1,-4.813171E-2,-1.5136959E-1,6.9430195E-2,5.4095306E-2,-1.3281708E-2,-2.469654E-2,2.8330002E-2,2.2326546E-2],"split_indices":[0,0,0,0,0,0,0,0,0,0,0,0,0,0,0],"split_type":[0,0,0,0,0,0,0,0,0,0,0,0,0,0,0],"sum_hessian":[2.2827E4,9.741E3,1.3086E4,9.039E3,4.047E3,2.754E3,6.987E3,2.68E3,1.367E3,8.9E2,1.864E3,1.559E3,7.48E3,2.661E3,4.326E3],"tree_param":{"num_deleted":"0","num_feature":"5","num_nodes":"15","size_leaf_vector":"1"}},{"base_weights":[-5.7157394E-3,-1.0001622E-2,1.1628932E-2,-1.4050221E-2,-8.421387E-3,-1.9383411E-3,7.589287E-4],"categories":[],"categories_nodes":[],"categories_segments":[],"categories_sizes":[],"default_left":[0,0,0,0,0,0,0],"id":42,"left_children":[1,3,-1,-1,5,-1,-1],"loss_changes":[1.0869033E1,4.083068E0,0E0,0E0,3.0494192E0,0E0,0E0],"parents":[2147483647,0,0,1,1,4,4],"right_children":[2,4,-1,-1,6,-1,-1],"split_conditions":[1.5075087E3,1.7185818E0,1.4485337E-1,-1.253479E-1,2.2324716E2,-2.2465859E-2,6.8447874E-3],"split_indices":[1,1,0,0,1,0,0],"split_type":[0,0,0,0,0,0,0],"sum_hessian":[2.2722E4,2.1883E4,8.39E2,2.87E2,2.1596E4,1.3498E4,8.098E3],"tree_param":{"num_deleted":"0","num_feature":"5","num_nodes":"7","size_leaf_vector":"1"}},{"base_weights":[-1.2683666E-4,2.4541905E-2,-2.681893E-2,-9.624479E-3,-5.1390037E-2,1.3042908E-2,2.2197122E-2,-4.5039374E-3,-1.0327996E-2,3.5928958E-3,1.3402478E-3,-8.846684E-4,-1.7872299E-3],"categories":[],"categories_nodes":[],"categories_segments":[],"categories_sizes":[],"default_left":[0,0,0,0,0,0,0,0,0,0,0,0,0],"id":43,"left_children":[1,5,3,11,7,-1,9,-1,-1,-1,-1,-1,-1],"loss_changes":[1.4980708E1,2.610342E0,4.613868E0,6.773007E-2,1.9914408E0,0E0,1.2073722E0,0E0,0E0,0E0,0E0,0E0,0E0],"parents":[2147483647,0,0,2,2,1,1,4,4,6,6,3,3],"right_children":[2,6,4,12,8,-1,10,-1,-1,-1,-1,-1,-1],"split_conditions":[6.6E1,4.1E1,7.6E1,7.4E1,8.9E1,9.1769755E-2,5.5E1,-5.0026074E-2,-1.5600972E-1,3.5977516E-2,1.4762116E-2,-1.28587345E-2,-2.1261558E-2],"split_indices":[0,0,0,0,0,0,0,0,0,0,0,0,0],"split_type":[0,0,0,0,0,0,0,0,0,0,0,0,0],"sum_hessian":[2.2729E4,1.181E4,1.0919E4,6.428E3,4.491E3,2.84E2,1.1526E4,3.61E3,8.81E2,5.628E3,5.898E3,5.206E3,1.222E3],"tree_param":{"num_deleted":"0","num_feature":"5","num_nodes":"13","size_leaf_vector":"1"}},{"base_weights":[2.6735053E-3,2.928787E-2,-2.367288E-2,-1.7543122E-2,-6.894247E-2,1.1157259E-2,2.741331E-2,5.28524E-3,2.8735425E-3,-1.7348916E-3,-2.1331804E-3,-6.342132E-3,-7.7608544E-3],"categories":[],"categories_nodes":[],"categories_segments":[],"categories_sizes":[],"default_left":[0,0,0,0,0,0,0,0,0,0,0,0,0],"id":44,"left_children":[1,5,3,9,11,-1,7,-1,-1,-1,-1,-1,-1],"loss_changes":[1.5981718E1,1.535758E0,3.1777182E0,3.2502413E-2,1.6465664E-2,0E0,2.9419804E-1,0E0,0E0,0E0,0E0,0E0,0E0],"parents":[2147483647,0,0,2,2,1,1,6,6,3,3,4,4],"right_children":[2,6,4,10,12,-1,8,-1,-1,-1,-1,-1,-1],"split_conditions":[6.5E1,4.1E1,8.6E1,7.3E1,8.7E1,8.393257E-2,4.3E1,4.8382644E-2,2.794941E-2,-2.2778472E-2,-2.4514008E-2,-7.4910395E-2,-1.20868914E-1],"split_indices":[0,0,0,0,0,0,0,0,0,0,0,0,0],"split_type":[0,0,0,0,0,0,0,0,0,0,0,0,0],"sum_hessian":[2.2771E4,1.133E4,1.1441E4,1.0081E4,1.36E3,2.83E2,1.1047E4,6.41E2,1.0406E4,5.19E3,4.891E3,1.87E2,1.173E3],"tree_param":{"num_deleted":"0","num_feature":"5","num_nodes":"13","size_leaf_vector":"1"}},{"base_weights":[-3.448157E-4,1.33469775E-2,-4.074143E-2,2.981788E-2,1.9678907E-3,-2.4553062E-2,-6.0836643E-2,6.0365763E-3,2.8732254E-3,1.0867084E-3,-4.3664267E-4,-5.5074943E-3,-8.0667315E-3,-2.1927452E-3,-3.259355E-3],"categories":[],"categories_nodes":[],"categories_segments":[],"categories_sizes":[],"default_left":[0,0,0,0,0,0,0,0,0,0,0,0,0,0,0],"id":45,"left_children":[1,3,5,7,9,13,11,-1,-1,-1,-1,-1,-1,-1,-1],"loss_changes":[1.2661613E1,3.2005217E0,1.8812857E0,6.460018E-1,4.7813335E-1,7.436204E-2,3.4078217E-1,0E0,0E0,0E0,0E0,0E0,0E0,0E0,0E0],"parents":[2147483647,0,0,1,1,2,2,3,3,4,4,6,6,5,5],"right_children":[2,4,6,8,10,14,12,-1,-1,-1,-1,-1,-1,-1,-1],"split_conditions":[7.4E1,5.7E1,8.1E1,4.3E1,6.5E1,7.7E1,8.7E1,4.750816E-2,2.8752975E-2,1.3420181E-2,-6.652603E-3,-5.5586413E-2,-1.1434345E-1,-2.258545E-2,-3.1842194E-2],"split_indices":[0,0,0,0,0,0,0,0,0,0,0,0,0,0,0],"split_type":[0,0,0,0,0,0,0,0,0,0,0,0,0,0,0],"sum_hessian":[2.286E4,1.7072E4,5.788E3,6.97E3,1.0102E4,3.211E3,2.577E3,8.89E2,6.081E3,4.339E3,5.763E3,1.394E3,1.183E3,1.698E3,1.513E3],"tree_param":{"num_deleted":"0","num_feature":"5","num_nodes":"15","size_leaf_vector":"1"}},{"base_weights":[-1.5367841E-3,-3.9250594E-2,1.1724285E-2,1.0416053E-2,2.4981566E-2,1.4531568E-3,-1.3023353E-2,-2.0923188E-2,-3.6916673E-2,-3.6050458E-3,-1.3261261E-2],"categories":[],"categories_nodes":[],"categories_segments":[],"categories_sizes":[],"default_left":[0,0,0,0,0,0,0,0,0,0,0],"id":46,"left_children":[1,7,3,5,-1,-1,-1,-1,9,-1,-1],"loss_changes":[1.1367814E1,2.0864935E0,4.7525244E0,6.0277987E0,0E0,0E0,0E0,0E0,2.0196161E0,0E0,0E0],"parents":[2147483647,0,0,2,2,3,3,1,1,8,8],"right_children":[2,8,4,6,-1,-1,-1,-1,10,-1,-1],"split_conditions":[5.74E1,2.43E1,9.81E1,9.19E1,1.5864532E-1,1.8032609E-2,-1.1766094E-1,-3.5938323E-1,5.7E1,-4.221596E-2,-1.2356201E-1],"split_indices":[2,2,2,2,0,0,0,0,2,0,0],"split_type":[0,0,0,0,0,0,0,0,0,0,0],"sum_hessian":[2.2697E4,5.906E3,1.6791E4,1.6692E4,9.9E1,1.634E4,3.52E2,8.7E1,5.819E3,5.548E3,2.71E2],"tree_param":{"num_deleted":"0","num_feature":"5","num_nodes":"11","size_leaf_vector":"1"}},{"base_weights":[-5.466614E-3,-2.7436258E-2,1.6071225E-2,-5.382103E-2,-2.061063E-2,-1.5947597E-2,-5.4748436E-3,1.0653499E-2,2.7980339E-2,-3.491271E-3,-1.9225124E-3,2.542032E-4,1.6074158E-3,2.9939853E-3,3.1431045E-3],"categories":[],"categories_nodes":[],"categories_segments":[],"categories_sizes":[],"default_left":[0,0,0,0,0,0,0,0,0,0,0,0,0,0,0],"id":47,"left_children":[1,3,7,5,9,-1,-1,11,13,-1,-1,-1,-1,-1,-1],"loss_changes":[1.0734058E1,2.0212908E0,7.384603E-1,8.472047E-1,3.110366E-1,0E0,0E0,2.5950867E-1,2.2649765E-4,0E0,0E0,0E0,0E0,0E0,0E0],"parents":[2147483647,0,0,1,1,3,3,2,2,4,4,7,7,8,8],"right_children":[2,4,8,6,10,-1,-1,12,14,-1,-1,-1,-1,-1,-1],"split_conditions":[1.9600896E3,1.1210072E3,2.6349822E3,4.4885327E2,1.3630271E3,-1.944487E-1,-6.7428626E-2,2.1760327E3,2.8590906E3,-2.976509E-2,-1.9325446E-2,5.0788308E-3,1.6173705E-2,4.5621987E-2,4.091053E-2],"split_indices":[3,3,3,3,3,0,0,3,3,0,0,0,0,0,0],"split_type":[0,0,0,0,0,0,0,0,0,0,0,0,0,0,0],"sum_hessian":[2.266E4,1.122E4,1.144E4,2.3E3,8.92E3,9.4E1,2.206E3,7.872E3,3.568E3,1.948E3,6.972E3,2.544E3,5.328E3,1.684E3,1.884E3],"tree_param":{"num_deleted":"0","num_feature":"5","num_nodes":"15","size_leaf_vector":"1"}},{"base_weights":[-8.2636613E-4,-2.1999845E-2,1.7145753E-2,1.5413039E-2,2.4027705E-2,-5.9694152E-2,-1.4316924E-2,2.7323565E-3,-5.008301E-4,-5.6241015E-3,-2.2839833E-2,-1.4469263E-3,-1.7932024E-2],"categories":[],"categories_nodes":[],"categories_segments":[],"categories_sizes":[],"default_left":[0,0,0,0,0,0,0,0,0,0,0,0,0],"id":48,"left_children":[1,5,3,7,-1,9,11,-1,-1,-1,-1,-1,-1],"loss_changes":[8.705644E0,3.0413122E0,4.327473E0,2.3123217E0,0E0,2.2454133E0,1.5220503E0,0E0,0E0,0E0,0E0,0E0,0E0],"parents":[2147483647,0,0,2,2,1,1,3,3,5,5,6,6],"right_children":[2,6,4,8,-1,10,12,-1,-1,-1,-1,-1,-1],"split_conditions":[6.78E1,4.33E1,9.81E1,8.11E1,1.4861146E-1,4.3E1,6.76E1,2.9770965E-2,-6.838913E-3,-6.617355E-2,-1.519281E-1,-1.4586716E-2,-3.362355E-1],"split_indices":[2,2,2,2,0,2,2,0,0,0,0,0,0],"split_type":[0,0,0,0,0,0,0,0,0,0,0,0,0],"sum_hessian":[2.2849E4,1.0493E4,1.2356E4,1.2253E4,1.03E2,1.772E3,8.721E3,8.327E3,3.926E3,1.678E3,9.4E1,8.656E3,6.5E1],"tree_param":{"num_deleted":"0","num_feature":"5","num_nodes":"13","size_leaf_vector":"1"}},{"base_weights":[-1.7992134E-3,-1.7124789E-2,2.2029733E-2,-5.8523707E-2,-8.836532E-3,-1.4245223E-2,-6.1032083E-3,1.8124437E-3,3.0306283E-2,-1.5653467E-3,-8.217479E-4,3.0366285E-3,3.6169786E-3],"categories":[],"categories_nodes":[],"categories_segments":[],"categories_sizes":[],"default_left":[0,0,0,0,0,0,0,0,0,0,0,0,0],"id":49,"left_children":[1,3,7,5,9,-1,-1,-1,11,-1,-1,-1,-1],"loss_changes":[8.307001E0,4.7493243E0,4.0810013E-1,4.9260426E-1,8.5241675E-2,0E0,0E0,0E0,2.3145676E-2,0E0,0E0,0E0,0E0],"parents":[2147483647,0,0,1,1,3,3,2,2,4,4,8,8],"right_children":[2,4,8,6,10,-1,-1,-1,12,-1,-1,-1,-1],"split_conditions":[2.1760327E3,1.1210072E3,2.6349822E3,4.4885327E2,1.404242E3,-2.0142734E-1,-6.9136046E-2,1.6516952E-2,2.874308E3,-1.739563E-2,-8.807754E-3,4.0600434E-2,3.842766E-2],"split_indices":[3,3,3,3,3,0,0,0,3,0,0,0,0],"split_type":[0,0,0,0,0,0,0,0,0,0,0,0,0],"sum_hessian":[2.2721E4,1.3831E4,8.89E3,2.303E3,1.1528E4,9E1,2.213E3,5.332E3,3.558E3,2.309E3,9.219E3,1.769E3,1.789E3],"tree_param":{"num_deleted":"0","num_feature":"5","num_nodes":"13","size_leaf_vector":"1"}},{"base_weights":[-1.0047568E-3,1.7466992E-2,-2.9366808E-2,6.520859E-2,1.1084375E-2,-2.3351304E-2,-9.165007E-3,-1.2259114E-3,-3.452673E-3,1.5829987E-3,-1.6951626E-4,1.1122502E-2,6.3471585E-3],"categories":[],"categories_nodes":[],"categories_segments":[],"categories_sizes":[],"default_left":[0,0,0,0,0,0,0,0,0,0,0,0,0],"id":50,"left_children":[1,3,5,11,9,7,-1,-1,-1,-1,-1,-1,-1],"loss_changes":[1.1944632E1,4.205833E0,2.9184642E0,4.30727E-1,5.106751E-1,7.924075E-1,0E0,0E0,0E0,0E0,0E0,0E0,0E0],"parents":[2147483647,0,0,1,1,2,2,5,5,4,4,3,3],"right_children":[2,4,6,12,10,8,-1,-1,-1,-1,-1,-1,-1],"split_conditions":[6.9E1,4.5E1,8.9E1,4.1E1,6.5E1,7.4E1,-1.19302064E-1,-1.2306099E-2,-3.698082E-2,1.5149841E-2,-3.6515044E-3,1.0506783E-1,5.7339784E-2],"split_indices":[0,0,0,0,0,0,0,0,0,0,0,0,0],"split_type":[0,0,0,0,0,0,0,0,0,0,0,0,0],"sum_hessian":[2.2773E4,1.3789E4,8.984E3,1.622E3,1.2167E4,8.087E3,8.97E2,3.218E3,4.869E3,9.649E3,2.518E3,2.74E2,1.348E3],"tree_param":{"num_deleted":"0","num_feature":"5","num_nodes":"13","size_leaf_vector":"1"}},{"base_weights":[1.0075882E-3,-3.0111433E-3,1.1740647E-2,-1.3910141E-2,-1.3836201E-3,-1.2093618E-3,4.2428361E-4],"categories":[],"categories_nodes":[],"categories_segments":[],"categories_sizes":[],"default_left":[0,0,0,0,0,0,0],"id":51,"left_children":[1,3,-1,-1,5,-1,-1],"loss_changes":[9.687524E0,4.4097757E0,0E0,0E0,1.0918633E0,0E0,0E0],"parents":[2147483647,0,0,1,1,4,4],"right_children":[2,4,-1,-1,6,-1,-1],"split_conditions":[1.5075087E3,1.7185818E0,1.3007614E-1,-1.3606113E-1,1.2104126E2,-1.26883695E-2,6.6181947E-3],"split_indices":[1,1,0,0,1,0,0],"split_type":[0,0,0,0,0,0,0],"sum_hessian":[2.2709E4,2.1878E4,8.31E2,2.82E2,2.1596E4,7.628E3,1.3968E4],"tree_param":{"num_deleted":"0","num_feature":"5","num_nodes":"7","size_leaf_vector":"1"}},{"base_weights":[-2.5479225E-3,-2.732935E-2,1.4585748E-2,1.3128612E-2,2.0739818E-2,1.7378022E-3,-9.292009E-3,-5.153849E-2,-1.6905716E-2,1.3420217E-2,-2.335506E-3,-4.8817885E-3,-2.3851015E-2],"categories":[],"categories_nodes":[],"categories_segments":[],"categories_sizes":[],"default_left":[0,0,0,0,0,0,0,0,0,0,0,0,0],"id":52,"left_children":[1,7,3,5,-1,-1,-1,11,9,-1,-1,-1,-1],"loss_changes":[9.657285E0,2.3443232E0,3.4199924E0,3.4854956E0,0E0,0E0,0E0,3.304863E0,3.928258E0,0E0,0E0,0E0,0E0],"parents":[2147483647,0,0,2,2,3,3,1,1,8,8,7,7],"right_children":[2,8,4,6,-1,-1,-1,12,10,-1,-1,-1,-1],"split_conditions":[6.53E1,4.82E1,9.81E1,9.19E1,1.4702362E-1,1.9405594E-2,-8.7103195E-2,4.78E1,4.89E1,1.1335693E-1,-2.3721352E-2,-5.0793342E-2,-2.1418831E-1],"split_indices":[2,2,2,2,0,0,0,2,2,0,0,0,0],"split_type":[0,0,0,0,0,0,0,0,0,0,0,0,0],"sum_hessian":[2.2716E4,9.288E3,1.3428E4,1.3319E4,1.09E2,1.2967E4,3.52E2,2.79E3,6.498E3,1.94E2,6.304E3,2.677E3,1.13E2],"tree_param":{"num_deleted":"0","num_feature":"5","num_nodes":"13","size_leaf_vector":"1"}},{"base_weights":[-1.4818266E-3,-3.0694708E-2,1.4459611E-2,1.2652168E-2,1.5978706E-1,1.6400066E-3,-1.1821481E-2,-2.4638833E-2,-6.321066E-2,-3.0935844E-3,3.7753195E-2,-2.2309294E-2,-5.355772E-3,1.4823448E-2,1.9331193E-2],"categories":[],"categories_nodes":[],"categories_segments":[],"categories_sizes":[],"default_left":[0,0,0,0,0,0,0,0,0,0,0,0,0,0,0],"id":53,"left_children":[1,7,3,5,13,-1,-1,9,11,-1,-1,-1,-1,-1,-1],"loss_changes":[1.0661368E1,1.5905704E0,3.8985877E0,3.9793067E0,2.9424667E-2,0E0,0E0,8.795311E0,2.559217E0,0E0,0E0,0E0,0E0,0E0,0E0],"parents":[2147483647,0,0,2,2,3,3,1,1,7,7,8,8,4,4],"right_children":[2,8,4,6,14,-1,-1,10,12,-1,-1,-1,-1,-1,-1],"split_conditions":[6.28E1,6.01E1,9.5E1,9.19E1,9.81E1,1.8321304E-2,-7.841545E-2,5.97E1,6.03E1,-3.3044394E-2,2.8106135E-1,-2.52292E-1,-4.977955E-2,1.866539E-1,1.5615763E-1],"split_indices":[2,2,2,2,2,0,0,2,2,0,0,0,0,0,0],"split_type":[0,0,0,0,0,0,0,0,0,0,0,0,0,0,0],"sum_hessian":[2.2864E4,8.074E3,1.479E4,1.4611E4,1.79E2,1.4344E4,2.67E2,6.812E3,1.262E3,6.75E3,6.2E1,1.16E2,1.146E3,7.9E1,1E2],"tree_param":{"num_deleted":"0","num_feature":"5","num_nodes":"15","size_leaf_vector":"1"}},{"base_weights":[2.1484206E-4,-2.3241807E-2,2.3282621E-2,-4.0218238E-2,-1.28482245E-2,1.712928E-2,3.473154E-2,-1.2633405E-2,-4.232996E-3,5.2009855E-4,2.3399E-3,-2.2757829E-3,-1.0099127E-3,3.200697E-3,3.8920953E-3],"categories":[],"categories_nodes":[],"categories_segments":[],"categories_sizes":[],"default_left":[0,0,0,0,0,0,0,0,0,0,0,0,0,0,0],"id":54,"left_children":[1,3,5,7,11,9,13,-1,-1,-1,-1,-1,-1,-1,-1],"loss_changes":[1.2310152E1,1.9880118E0,8.071132E-1,5.5459404E-1,2.0130587E-1,3.8238907E-1,1.2276173E-2,0E0,0E0,0E0,0E0,0E0,0E0,0E0,0E0],"parents":[2147483647,0,0,1,1,2,2,3,3,5,5,4,4,6,6],"right_children":[2,4,6,8,12,10,14,-1,-1,-1,-1,-1,-1,-1,-1],"split_conditions":[1.9600896E3,1.3630271E3,2.5884417E3,4.4885327E2,1.5770507E3,2.1121377E3,2.6349822E3,-1.283406E-1,-5.0153427E-2,6.1901854E-3,2.4399871E-2,-2.2598457E-2,-9.451027E-3,3.0135192E-2,4.0287398E-2],"split_indices":[3,3,3,3,3,3,3,0,0,0,0,0,0,0,0],"split_type":[0,0,0,0,0,0,0,0,0,0,0,0,0,0,0],"sum_hessian":[2.2727E4,1.1266E4,1.1461E4,4.272E3,6.994E3,7.464E3,3.997E3,9.3E1,4.179E3,1.877E3,5.587E3,2.216E3,4.778E3,4.41E2,3.556E3],"tree_param":{"num_deleted":"0","num_feature":"5","num_nodes":"15","size_leaf_vector":"1"}},{"base_weights":[8.726105E-4,3.7153482E-2,-1.0480904E-2,1.70173E-4,-2.9235313E-2,-2.4047906E-3,-6.736591E-3,6.8017403E-3,3.2191265E-2,6.1549904E-4,-6.544591E-4,4.2809225E-3,3.0131016E-3],"categories":[],"categories_nodes":[],"categories_segments":[],"categories_sizes":[],"default_left":[0,0,0,0,0,0,0,0,0,0,0,0,0],"id":55,"left_children":[1,7,3,9,5,-1,-1,-1,11,-1,-1,-1,-1],"loss_changes":[9.400542E0,6.642747E-1,3.4743254E0,3.7007767E-1,1.4849195E0,0E0,0E0,0E0,1.4464378E-1,0E0,0E0,0E0,0E0],"parents":[2147483647,0,0,2,2,4,4,1,1,3,3,8,8],"right_children":[2,8,4,10,6,-1,-1,-1,12,-1,-1,-1,-1],"split_conditions":[5.4E1,4.3E1,7.3E1,6.5E1,8.7E1,-2.4013825E-2,-7.7263184E-2,4.9704857E-2,4.8E1,5.1377867E-3,-6.857376E-3,3.9350815E-2,2.4692765E-2],"split_indices":[0,0,0,0,0,0,0,0,0,0,0,0,0],"split_type":[0,0,0,0,0,0,0,0,0,0,0,0,0],"sum_hessian":[2.2784E4,5.432E3,1.7352E4,1.1064E4,6.288E3,5.116E3,1.172E3,9.02E2,4.53E3,5.875E3,5.189E3,1.871E3,2.659E3],"tree_param":{"num_deleted":"0","num_feature":"5","num_nodes":"13","size_leaf_vector":"1"}},{"base_weights":[3.8615723E-5,-2.1964302E-2,1.636237E-2,7.69319E-3,3.5766892E-2,-4.8355535E-2,-1.3720225E-2,-2.8709085E-3,-8.8269915E-4,-1.082274E-2,-4.839879E-3,1.2197875E-4,1.297896E-3,2.449839E-3,4.1114236E-3],"categories":[],"categories_nodes":[],"categories_segments":[],"categories_sizes":[],"default_left":[0,0,0,0,0,0,0,0,0,0,0,0,0,0,0],"id":56,"left_children":[1,5,3,11,13,9,7,-1,-1,-1,-1,-1,-1,-1,-1],"loss_changes":[8.222709E0,2.1196117E0,2.2099802E0,2.4525952E-1,8.514261E-2,5.020633E-1,5.239775E-1,0E0,0E0,0E0,0E0,0E0,0E0,0E0,0E0],"parents":[2147483647,0,0,2,2,1,1,6,6,5,5,3,3,4,4],"right_children":[2,6,4,12,14,10,8,-1,-1,-1,-1,-1,-1,-1,-1],"split_conditions":[1.83754E3,1.1210072E3,2.5884417E3,2.1121377E3,2.6349822E3,5.7492914E2,1.404242E3,-3.404602E-2,-7.272377E-3,-1.2833725E-1,-5.3264044E-2,1.2760544E-3,1.5663872E-2,1.7807273E-2,4.4649735E-2],"split_indices":[3,3,3,3,3,3,3,0,0,0,0,0,0,0,0],"split_type":[0,0,0,0,0,0,0,0,0,0,0,0,0,0,0],"sum_hessian":[2.2867E4,9.736E3,1.3131E4,9.082E3,4.049E3,2.312E3,7.424E3,2.331E3,5.093E3,1.8E2,2.132E3,3.5E3,5.582E3,4.42E2,3.607E3],"tree_param":{"num_deleted":"0","num_feature":"5","num_nodes":"15","size_leaf_vector":"1"}},{"base_weights":[-2.6730357E-3,-6.097302E-3,8.879953E-2,-1.3741959E-2,6.8637608E-3,-9.758504E-3,-1.3326035E-3,3.022761E-4,2.5475256E-3,9.016594E-3,1.1930716E-2],"categories":[],"categories_nodes":[],"categories_segments":[],"categories_sizes":[],"default_left":[0,0,0,0,0,0,0,0,0,0,0],"id":57,"left_children":[1,3,9,5,7,-1,-1,-1,-1,-1,-1],"loss_changes":[7.1471305E0,2.1800005E0,9.60803E-2,1.6925547E0,5.473734E-1,0E0,0E0,0E0,0E0,0E0,0E0],"parents":[2147483647,0,0,1,1,3,3,4,4,2,2],"right_children":[2,4,10,6,8,-1,-1,-1,-1,-1,-1],"split_conditions":[1.5075087E3,2.2324716E2,2.2001536E3,1.7185818E0,7.42153E2,-1.2110138E-1,-1.2762222E-2,3.4685517E-3,3.2237474E-2,7.873688E-2,1.3994217E-1],"split_indices":[1,1,1,1,1,0,0,0,0,0,0],"split_type":[0,0,0,0,0,0,0,0,0,0,0],"sum_hessian":[2.2775E4,2.1956E4,8.19E2,1.3816E4,8.14E3,2.9E2,1.3526E4,6.506E3,1.634E3,6.19E2,2E2],"tree_param":{"num_deleted":"0","num_feature":"5","num_nodes":"11","size_leaf_vector":"1"}},{"base_weights":[-1.5380038E-3,2.2057319E-2,-2.2427162E-2,-1.5909374E-2,-5.4122053E-2,-1.2578906E-3,-2.2524216E-3,2.3481157E-2,9.479805E-4,-5.210001E-3,-6.893268E-3,4.740139E-3,2.5174133E-3],"categories":[],"categories_nodes":[],"categories_segments":[],"categories_sizes":[],"default_left":[0,0,0,0,0,0,0,0,0,0,0,0,0],"id":58,"left_children":[1,7,3,5,9,-1,-1,11,-1,-1,-1,-1,-1],"loss_changes":[1.1189995E1,2.0200777E-1,2.487368E0,2.036643E-1,1.13289356E-1,0E0,0E0,1.128459E-1,0E0,0E0,0E0,0E0,0E0],"parents":[2147483647,0,0,2,2,3,3,1,1,4,4,7,7],"right_children":[2,8,4,6,10,-1,-1,12,-1,-1,-1,-1,-1],"split_conditions":[6.4E1,6.2E1,8.3E1,7.2E1,8.9E1,-1.3183937E-2,-2.1340027E-2,4.1E1,6.394119E-3,-4.2898253E-2,-6.9152415E-2,4.7279052E-2,2.0582618E-2],"split_indices":[0,0,0,0,0,0,0,0,0,0,0,0,0],"split_type":[0,0,0,0,0,0,0,0,0,0,0,0,0],"sum_hessian":[2.2679E4,1.0647E4,1.2032E4,9.985E3,2.047E3,5.06E3,4.925E3,9.618E3,1.029E3,1.157E3,8.9E2,2.74E2,9.344E3],"tree_param":{"num_deleted":"0","num_feature":"5","num_nodes":"13","size_leaf_vector":"1"}},{"base_weights":[5.640396E-4,-1.3073075E-2,2.3714885E-2,-9.396425E-3,-7.840565E-2,-2.9024775E-3,3.9813548E-4,2.111411E-2,1.3639916E-1,3.8214053E-3,-2.1026342E-4,-1.6013132E-2,-7.784384E-3,1.1008802E-2,1.8072616E-2],"categories":[],"categories_nodes":[],"categories_segments":[],"categories_sizes":[],"default_left":[0,0,0,0,0,0,0,0,0,0,0,0,0,0,0],"id":59,"left_children":[1,3,7,5,11,-1,-1,9,13,-1,-1,-1,-1,-1,-1],"loss_changes":[7.2213326E0,3.4580805E0,2.4902973E0,3.0172513E0,3.806882E-1,0E0,0E0,2.6062655E0,1.6234398E-1,0E0,0E0,0E0,0E0,0E0,0E0],"parents":[2147483647,0,0,1,1,3,3,2,2,7,7,4,4,8,8],"right_children":[2,4,8,6,12,-1,-1,10,14,-1,-1,-1,-1,-1,-1],"split_conditions":[7.3E1,7.12E1,9.5E1,5.74E1,7.14E1,-2.7074927E-2,4.598999E-3,8.29E1,9.81E1,3.3275604E-2,-3.0596352E-3,-2.984809E-1,-6.5098494E-2,1.7001106E-1,1.4785236E-1],"split_indices":[2,2,2,2,2,0,0,2,2,0,0,0,0,0,0],"split_type":[0,0,0,0,0,0,0,0,0,0,0,0,0,0,0],"sum_hessian":[2.2839E4,1.437E4,8.469E3,1.3608E4,7.62E2,5.906E3,7.702E3,8.281E3,1.88E2,5.205E3,3.076E3,7.3E1,6.89E2,8.7E1,1.01E2],"tree_param":{"num_deleted":"0","num_feature":"5","num_nodes":"15","size_leaf_vector":"1"}},{"base_weights":[5.2321324E-4,2.0636735E-2,-1.3043745E-2,-9.433085E-3,-5.110526E-2,-5.186329E-4,-1.9228888E-3,4.0946644E-2,1.8401686E-2,2.8580832E-3,1.941507E-3,-4.672365E-3,-5.8932384E-3,5.011815E-3,4.2389645E-3],"categories":[],"categories_nodes":[],"categories_segments":[],"categories_sizes":[],"default_left":[0,0,0,0,0,0,0,0,0,0,0,0,0,0,0],"id":60,"left_children":[1,7,3,5,11,-1,-1,13,9,-1,-1,-1,-1,-1,-1],"loss_changes":[6.206684E0,4.162643E-1,1.8667963E0,4.7073483E-1,2.0246506E-2,0E0,0E0,7.189274E-3,4.7020674E-2,0E0,0E0,0E0,0E0,0E0,0E0],"parents":[2147483647,0,0,2,2,3,3,1,1,8,8,4,4,7,7],"right_children":[2,8,4,6,12,-1,-1,14,10,-1,-1,-1,-1,-1,-1],"split_conditions":[6.1E1,4.3E1,8.7E1,7.4E1,8.9E1,-5.4214476E-3,-1.8816452E-2,4.1E1,4.5E1,2.9173432E-2,1.620224E-2,-7.2445355E-2,-7.6610886E-2,4.744858E-2,2.9694175E-2],"split_indices":[0,0,0,0,0,0,0,0,0,0,0,0,0,0,0],"split_type":[0,0,0,0,0,0,0,0,0,0,0,0,0,0,0],"sum_hessian":[2.271E4,9.151E3,1.3559E4,1.2389E4,1.17E3,7.821E3,4.568E3,8.99E2,8.252E3,7.25E2,7.527E3,2.78E2,8.92E2,2.81E2,6.18E2],"tree_param":{"num_deleted":"0","num_feature":"5","num_nodes":"15","size_leaf_vector":"1"}},{"base_weights":[2.1418573E-3,2.1976732E-2,-1.2958182E-2,1.4245223E-2,2.0951848E-2,-1.25883445E-2,-6.6196905E-3,2.4978213E-3,1.4725626E-3,-1.3622075E-3,-2.3638974E-3],"categories":[],"categories_nodes":[],"categories_segments":[],"categories_sizes":[],"default_left":[0,0,0,0,0,0,0,0,0,0,0],"id":61,"left_children":[1,3,5,-1,7,9,-1,-1,-1,-1,-1],"loss_changes":[6.844808E0,1.095222E0,2.3040342E-1,0E0,1.2865877E-1,2.3973942E-2,0E0,0E0,0E0,0E0,0E0],"parents":[2147483647,0,0,1,1,2,2,4,4,5,5],"right_children":[2,4,6,-1,8,10,-1,-1,-1,-1,-1],"split_conditions":[1.8808649E3,4.7692648E2,3.5761194E3,2.728457E-1,1.7227533E3,3.3633599E3,-1.0512615E-1,2.527771E-2,1.3549423E-2,-1.5231666E-2,-4.597027E-2],"split_indices":[4,4,4,0,4,4,0,0,0,0,0],"split_type":[0,0,0,0,0,0,0,0,0,0,0],"sum_hessian":[2.2821E4,9.867E3,1.2954E4,9E1,9.777E3,1.2858E4,9.6E1,7.92E3,1.857E3,1.2586E4,2.72E2],"tree_param":{"num_deleted":"0","num_feature":"5","num_nodes":"11","size_leaf_vector":"1"}},{"base_weights":[-2.8579386E-3,-1.4746286E-2,1.7359264E-2,-1.0370456E-2,-7.2393715E-2,-4.744921E-3,-1.5668273E-4,7.92457E-2,1.2975829E-2,-4.6128416E-3,2.009438E-3,6.0867555E-3,2.2415023E-2,-6.9087627E-3,-1.5637772E-2],"categories":[],"categories_nodes":[],"categories_segments":[],"categories_sizes":[],"default_left":[0,0,0,0,0,0,0,0,0,0,0,0,0,0,0],"id":62,"left_children":[1,3,7,5,13,-1,-1,11,9,-1,-1,-1,-1,-1,-1],"loss_changes":[5.4635725E0,3.61235E0,2.2846448E0,3.8999243E0,6.646924E-1,0E0,0E0,1.6408157E0,2.2911572E0,0E0,0E0,0E0,0E0,0E0,0E0],"parents":[2147483647,0,0,1,1,3,3,2,2,8,8,7,7,4,4],"right_children":[2,4,8,6,14,-1,-1,12,10,-1,-1,-1,-1,-1,-1],"split_conditions":[7.3E1,7.09E1,7.38E1,4.82E1,7.25E1,-5.1403884E-2,-1.1346436E-3,7.36E1,7.52E1,-3.1905137E-2,1.9075776E-2,8.655098E-2,2.2429897E-1,-7.4403286E-2,-7.061813E-2],"split_indices":[2,2,2,2,2,0,0,2,2,0,0,0,0,0,0],"split_type":[0,0,0,0,0,0,0,0,0,0,0,0,0,0,0],"sum_hessian":[2.2701E4,1.4299E4,8.402E3,1.3294E4,1.005E3,2.847E3,1.0447E4,5.52E2,7.85E3,6.87E2,7.163E3,4.66E2,8.6E1,8.88E2,1.17E2],"tree_param":{"num_deleted":"0","num_feature":"5","num_nodes":"15","size_leaf_vector":"1"}},{"base_weights":[-2.9354312E-3,-6.3253E-3,9.529431E-3,-1.0177085E-2,-5.2070827E-3,-1.7607871E-3,7.763203E-5],"categories":[],"categories_nodes":[],"categories_segments":[],"categories_sizes":[],"default_left":[0,0,0,0,0,0,0],"id":63,"left_children":[1,3,-1,-1,5,-1,-1],"loss_changes":[6.930513E0,2.1253617E0,0E0,0E0,1.3888824E0,0E0,0E0],"parents":[2147483647,0,0,1,1,4,4],"right_children":[2,4,-1,-1,6,-1,-1],"split_conditions":[1.5075087E3,1.7185818E0,1.0018936E-1,-9.954818E-2,1.2104126E2,-1.55971525E-2,6.164169E-4],"split_indices":[1,1,0,0,1,0,0],"split_type":[0,0,0,0,0,0,0],"sum_hessian":[2.2783E4,2.1955E4,8.28E2,2.78E2,2.1677E4,7.675E3,1.4002E4],"tree_param":{"num_deleted":"0","num_feature":"5","num_nodes":"7","size_leaf_vector":"1"}},{"base_weights":[4.7549778E-3,-1.9357998E-2,2.15393E-2,8.924503E-3,3.24211E-2,1.2430658E-2,2.8514944E-3,1.6709482E-3,-5.3908764E-3,-4.611158E-2,-1.3104991E-2,1.0888767E-2,-1.7593922E-3,-3.5350064E-3,-1.1285285E-2],"categories":[],"categories_nodes":[],"categories_segments":[],"categories_sizes":[],"default_left":[0,0,0,0,0,0,0,0,0,0,0,0,0,0,0],"id":64,"left_children":[1,9,3,7,5,-1,-1,-1,-1,13,11,-1,-1,-1,-1],"loss_changes":[9.277025E0,1.5731528E0,1.8531098E0,2.2833066E0,3.7974038E0,0E0,0E0,0E0,0E0,1.4008522E0,2.4855409E0,0E0,0E0,0E0,0E0],"parents":[2147483647,0,0,2,2,4,4,3,3,1,1,10,10,9,9],"right_children":[2,10,4,8,6,-1,-1,-1,-1,14,12,-1,-1,-1,-1],"split_conditions":[6.53E1,4.33E1,7.52E1,7.39E1,7.63E1,1.3542038E-1,2.7429085E-2,1.9643096E-2,-3.981533E-2,4.12E1,4.46E1,1.2443314E-1,-1.5061722E-2,-4.4259492E-2,-1.1895504E-1],"split_indices":[2,2,2,2,2,0,0,0,0,2,2,0,0,0,0],"split_type":[0,0,0,0,0,0,0,0,0,0,0,0,0,0,0],"sum_hessian":[2.2897E4,9.394E3,1.3503E4,6.26E3,7.243E3,5.37E2,6.706E3,5.652E3,6.08E2,1.774E3,7.62E3,1.89E2,7.431E3,1.426E3,3.48E2],"tree_param":{"num_deleted":"0","num_feature":"5","num_nodes":"15","size_leaf_vector":"1"}},{"base_weights":[-3.6430913E-3,1.2925631E-2,-1.6399955E-2,7.132158E-2,1.2436339E-3,-1.6053196E-2,-6.6196905E-3,1.076621E-2,6.1853714E-3,-2.8013706E-4,-1.8060536E-3],"categories":[],"categories_nodes":[],"categories_segments":[],"categories_sizes":[],"default_left":[0,0,0,0,0,0,0,0,0,0,0],"id":65,"left_children":[1,3,5,7,-1,9,-1,-1,-1,-1,-1],"loss_changes":[4.8154974E0,9.411057E-1,1.9858336E-1,9.774649E-2,0E0,6.139016E-2,0E0,0E0,0E0,0E0,0E0],"parents":[2147483647,0,0,1,1,2,2,3,3,5,5],"right_children":[2,4,6,8,-1,10,-1,-1,-1,-1,-1],"split_conditions":[1.8808649E3,6.7754944E2,3.5761194E3,4.7692648E2,1.2211685E-2,1.9046892E3,-8.892013E-2,1.5487465E-1,9.247681E-2,-1.6986084E-3,-1.8738404E-2],"split_indices":[4,4,4,4,0,4,0,0,0,0,0],"split_type":[0,0,0,0,0,0,0,0,0,0,0],"sum_hessian":[2.2749E4,9.892E3,1.2857E4,2.63E2,9.629E3,1.2761E4,9.6E1,8.9E1,1.74E2,3.45E2,1.2416E4],"tree_param":{"num_deleted":"0","num_feature":"5","num_nodes":"11","size_leaf_vector":"1"}},{"base_weights":[1.968664E-3,-1.2243652E-3,9.371315E-3,-9.129626E-3,-1.3304072E-4,-1.134776E-3,5.599829E-4],"categories":[],"categories_nodes":[],"categories_segments":[],"categories_sizes":[],"default_left":[0,0,0,0,0,0,0],"id":66,"left_children":[1,3,-1,-1,5,-1,-1],"loss_changes":[6.088293E0,1.9688349E0,0E0,0E0,1.1570386E0,0E0,0E0],"parents":[2147483647,0,0,1,1,4,4],"right_children":[2,4,-1,-1,6,-1,-1],"split_conditions":[1.5075087E3,1.7185818E0,9.555721E-2,-1.0250858E-1,1.17008995E2,-1.2275887E-2,6.9530485E-3],"split_indices":[1,1,0,0,1,0,0],"split_type":[0,0,0,0,0,0,0],"sum_hessian":[2.2797E4,2.1955E4,8.42E2,2.86E2,2.1669E4,7.354E3,1.4315E4],"tree_param":{"num_deleted":"0","num_feature":"5","num_nodes":"7","size_leaf_vector":"1"}},{"base_weights":[-8.276694E-5,1.6392147E-2,-1.628645E-2,9.2583215E-3,1.4630045E-2,-6.4113736E-3,-2.6186125E-2,3.687846E-3,1.3196126E-3,-2.2452592E-3,-3.6662822E-3,-5.046848E-4,-1.1186908E-3],"categories":[],"categories_nodes":[],"categories_segments":[],"categories_sizes":[],"default_left":[0,0,0,0,0,0,0,0,0,0,0,0,0],"id":67,"left_children":[1,3,5,-1,7,11,9,-1,-1,-1,-1,-1,-1],"loss_changes":[6.081759E0,1.3525207E0,1.1214805E0,0E0,5.484302E-1,3.956814E-2,2.3508263E-1,0E0,0E0,0E0,0E0,0E0,0E0],"parents":[2147483647,0,0,1,1,2,2,4,4,6,6,5,5],"right_children":[2,4,6,-1,8,12,10,-1,-1,-1,-1,-1,-1],"split_conditions":[6.5E1,4.1E1,7.4E1,8.42028E-2,4.5E1,7.1E1,8.1E1,3.1884994E-2,1.3299751E-2,-1.7840423E-2,-3.9722174E-2,-4.484024E-3,-1.6448135E-2],"split_indices":[0,0,0,0,0,0,0,0,0,0,0,0,0],"split_type":[0,0,0,0,0,0,0,0,0,0,0,0,0],"sum_hessian":[2.275E4,1.1277E4,1.1473E4,2.82E2,1.0995E4,5.751E3,5.722E3,1.337E3,9.658E3,3.177E3,2.545E3,3.896E3,1.855E3],"tree_param":{"num_deleted":"0","num_feature":"5","num_nodes":"13","size_leaf_vector":"1"}},{"base_weights":[1.6633075E-3,-1.1082175E-2,1.9127073E-2,-2.8182317E-2,-5.1928097E-3,-6.7726914E-3,-2.8909254E-3,1.8689597E-2,6.6196905E-3,-1.5689929E-3,-4.2321775E-4,1.8364904E-3,2.0717117E-3],"categories":[],"categories_nodes":[],"categories_segments":[],"categories_sizes":[],"default_left":[0,0,0,0,0,0,0,0,0,0,0,0,0],"id":68,"left_children":[1,3,7,5,9,-1,-1,11,-1,-1,-1,-1,-1],"loss_changes":[5.077511E0,1.3267623E0,1.7542458E-1,2.1454048E-1,1.2038651E-1,0E0,0E0,1.9664764E-3,0E0,0E0,0E0,0E0,0E0],"parents":[2147483647,0,0,1,1,3,3,2,2,4,4,7,7],"right_children":[2,4,8,6,10,-1,-1,12,-1,-1,-1,-1,-1],"split_conditions":[2.1121377E3,1.2726534E3,3.5556204E3,5.7492914E2,1.404242E3,-9.951462E-2,-2.7456779E-2,2.1760327E3,6.972477E-2,-2.465332E-2,-4.034195E-3,1.8031139E-2,2.053646E-2],"split_indices":[3,3,3,3,3,0,0,3,0,0,0,0,0],"split_type":[0,0,0,0,0,0,0,0,0,0,0,0,0],"sum_hessian":[2.2774E4,1.3162E4,9.612E3,3.365E3,9.797E3,1.75E2,3.19E3,9.516E3,9.6E1,1.252E3,8.545E3,7.1E2,8.806E3],"tree_param":{"num_deleted":"0","num_feature":"5","num_nodes":"13","size_leaf_vector":"1"}},{"base_weights":[-1.8377226E-3,-5.197054E-3,4.728514E-2,4.6505887E-2,3.3327006E-2,-7.3505053E-3,5.577418E-3,-3.2401577E-2,-1.0206107E-3,3.4875443E-4,-4.3356256E-3,-2.828484E-3,-2.0099716E-2],"categories":[],"categories_nodes":[],"categories_segments":[],"categories_sizes":[],"default_left":[0,0,0,0,0,0,0,0,0,0,0,0,0],"id":69,"left_children":[1,7,3,-1,5,-1,-1,11,9,-1,-1,-1,-1],"loss_changes":[3.768284E0,2.4267635E0,7.652665E0,0E0,2.4719253E0,0E0,0E0,2.8595223E0,2.9913678E0,0E0,0E0,0E0,0E0],"parents":[2147483647,0,0,2,2,4,4,1,1,8,8,7,7],"right_children":[2,8,4,-1,6,-1,-1,12,10,-1,-1,-1,-1],"split_conditions":[8.76E1,4.82E1,8.78E1,3.783818E-1,8.83E1,-1.19241215E-1,4.0414963E-2,4.78E1,8.29E1,4.179802E-3,-5.0158463E-2,-3.2100257E-2,-1.7614082E-1],"split_indices":[2,2,2,0,2,0,0,2,2,0,0,0,0],"split_type":[0,0,0,0,0,0,0,0,0,0,0,0,0],"sum_hessian":[2.2789E4,2.1334E4,1.455E3,5E1,1.405E3,2.06E2,1.199E3,2.834E3,1.85E4,1.6678E4,1.822E3,2.716E3,1.18E2],"tree_param":{"num_deleted":"0","num_feature":"5","num_nodes":"13","size_leaf_vector":"1"}},{"base_weights":[2.6336408E-3,-1.6701249E-3,3.8292125E-2,-9.818988E-3,-4.4391587E-4,2.7576962E-3,6.427524E-2,-3.893579E-4,6.5956806E-4,4.9387715E-3,7.358809E-3],"categories":[],"categories_nodes":[],"categories_segments":[],"categories_sizes":[],"default_left":[0,0,0,0,0,0,0,0,0,0,0],"id":70,"left_children":[1,3,5,-1,7,-1,9,-1,-1,-1,-1],"loss_changes":[3.5025892E0,2.1890914E0,8.409653E-1,0E0,4.0081614E-1,0E0,3.457403E-2,0E0,0E0,0E0,0E0],"parents":[2147483647,0,0,1,1,2,2,4,4,6,6],"right_children":[2,4,6,-1,8,-1,10,-1,-1,-1,-1],"split_conditions":[7.42153E2,1.7185818E0,1.5075087E3,-8.230697E-2,2.2324716E2,2.7583923E-2,1.5544719E3,-4.005661E-3,6.8271635E-3,3.5205003E-2,8.185169E-2],"split_indices":[1,1,1,0,1,0,1,0,0,0,0],"split_type":[0,0,0,0,0,0,0,0,0,0,0],"sum_hessian":[2.2736E4,2.0286E4,2.45E3,2.77E2,2.0009E4,1.629E3,8.21E2,1.3526E4,6.483E3,1.07E2,7.14E2],"tree_param":{"num_deleted":"0","num_feature":"5","num_nodes":"11","size_leaf_vector":"1"}},{"base_weights":[3.7205343E-3,1.6893122E-2,-6.329001E-3,9.880825E-3,1.6224546E-2,3.5730128E-3,1.7666974E-3,-6.926669E-4,-1.0251203E-3],"categories":[],"categories_nodes":[],"categories_segments":[],"categories_sizes":[],"default_left":[0,0,0,0,0,0,0,0,0],"id":71,"left_children":[1,3,7,-1,5,-1,-1,-1,-1],"loss_changes":[3.0261636E0,4.875803E-1,1.4816523E-3,0E0,2.7019262E-2,0E0,0E0,0E0,0E0],"parents":[2147483647,0,0,1,1,4,4,2,2],"right_children":[2,4,8,-1,6,-1,-1,-1,-1],"split_conditions":[1.8808649E3,4.7692648E2,3.5761194E3,1.5845734E-1,5.913091E2,3.0278701E-2,1.4180107E-2,-7.109985E-3,-2.0597305E-2],"split_indices":[4,4,4,0,4,0,0,0,0],"split_type":[0,0,0,0,0,0,0,0,0],"sum_hessian":[2.2813E4,9.877E3,1.2936E4,8.6E1,9.791E3,8.7E1,9.704E3,1.2843E4,9.3E1],"tree_param":{"num_deleted":"0","num_feature":"5","num_nodes":"9","size_leaf_vector":"1"}},{"base_weights":[1.6628695E-3,1.7589752E-2,-1.4018163E-2,-4.0098224E-3,-2.3889264E-2,2.7074544E-2,1.1295109E-2,5.458753E-3,2.8096153E-3,-2.0653175E-3,-3.035396E-3,-1.7510331E-4,-4.6706488E-4,1.2834913E-3,1.1746478E-3],"categories":[],"categories_nodes":[],"categories_segments":[],"categories_sizes":[],"default_left":[0,0,0,0,0,0,0,0,0,0,0,0,0,0,0],"id":72,"left_children":[1,5,3,11,9,7,13,-1,-1,-1,-1,-1,-1,-1,-1],"loss_changes":[5.6975965E0,6.748867E-1,1.1336429E0,2.992615E-3,1.0828304E-1,1.5580964E-1,1.3175011E-3,0E0,0E0,0E0,0E0,0E0,0E0,0E0,0E0],"parents":[2147483647,0,0,2,2,1,1,5,5,4,4,3,3,6,6],"right_children":[2,6,4,12,10,8,14,-1,-1,-1,-1,-1,-1,-1,-1],"split_conditions":[6.5E1,5.2E1,7.4E1,6.6E1,7.9E1,4.1E1,6E1,3.910492E-2,2.5666274E-2,-1.7025528E-2,-2.99642E-2,-3.0657195E-3,-3.728714E-3,1.073883E-2,9.552155E-3],"split_indices":[0,0,0,0,0,0,0,0,0,0,0,0,0,0,0],"split_type":[0,0,0,0,0,0,0,0,0,0,0,0,0,0,0],"sum_hessian":[2.278E4,1.1305E4,1.1475E4,5.705E3,5.77E3,4.5E3,6.805E3,2.78E2,4.222E3,2.442E3,3.328E3,5.53E2,5.152E3,4.102E3,2.703E3],"tree_param":{"num_deleted":"0","num_feature":"5","num_nodes":"15","size_leaf_vector":"1"}},{"base_weights":[9.5912185E-4,-1.2229171E-3,6.441541E-3,-7.6451213E-3,9.697041E-3,-4.976615E-3,-7.5310096E-4,9.477903E-4,1.5248373E-3],"categories":[],"categories_nodes":[],"categories_segments":[],"categories_sizes":[],"default_left":[0,0,0,0,0,0,0,0,0],"id":73,"left_children":[1,3,-1,5,7,-1,-1,-1,-1],"loss_changes":[2.8882089E0,1.5453147E0,0E0,4.1967082E-1,3.6769092E-2,0E0,0E0,0E0,0E0],"parents":[2147483647,0,0,1,1,3,3,4,4],"right_children":[2,4,-1,6,8,-1,-1,-1,-1],"split_conditions":[1.5075087E3,2.2324716E2,6.5466076E-2,1.7185818E0,7.42153E2,-6.064804E-2,-6.982422E-3,7.859001E-3,1.586403E-2],"split_indices":[1,1,0,1,1,0,0,0,0],"split_type":[0,0,0,0,0,0,0,0,0],"sum_hessian":[2.2814E4,2.1981E4,8.33E2,1.3848E4,8.133E3,2.83E2,1.3565E4,6.484E3,1.649E3],"tree_param":{"num_deleted":"0","num_feature":"5","num_nodes":"9","size_leaf_vector":"1"}},{"base_weights":[-3.9117475E-4,-9.984313E-3,1.5938919E-2,-5.115436E-3,-6.1306797E-2,8.5434616E-2,1.106402E-2,9.92432E-4,1.7075596E-2,-1.698933E-3,1.1290307E-3,6.8360893E-3,2.2937762E-2,-1.5649268E-2,-5.5895294E-3],"categories":[],"categories_nodes":[],"categories_segments":[],"categories_sizes":[],"default_left":[0,0,0,0,0,0,0,0,0,0,0,0,0,0,0],"id":74,"left_children":[1,3,5,9,13,11,7,-1,-1,-1,-1,-1,-1,-1,-1],"loss_changes":[3.5630364E0,3.5808916E0,2.8515997E0,2.082751E0,1.046989E0,1.5619216E0,2.3258426E0,0E0,0E0,0E0,0E0,0E0,0E0,0E0,0E0],"parents":[2147483647,0,0,1,1,2,2,6,6,3,3,5,5,4,4],"right_children":[2,4,6,10,14,12,8,-1,-1,-1,-1,-1,-1,-1,-1],"split_conditions":[7.3E1,7.02E1,7.38E1,6.24E1,7.05E1,7.36E1,9.81E1,1.0053176E-2,1.2343193E-1,-1.845726E-2,9.51271E-3,7.8490146E-2,2.6169732E-1,-3.4399086E-1,-4.5799904E-2],"split_indices":[2,2,2,2,2,2,2,0,0,0,0,0,0,0,0],"split_type":[0,0,0,0,0,0,0,0,0,0,0,0,0,0,0],"sum_hessian":[2.2707E4,1.4309E4,8.398E3,1.3073E4,1.236E3,5.47E2,7.851E3,7.744E3,1.07E2,7.825E3,5.248E3,4.63E2,8.4E1,1.38E2,1.098E3],"tree_param":{"num_deleted":"0","num_feature":"5","num_nodes":"15","size_leaf_vector":"1"}},{"base_weights":[3.917613E-4,-1.5187991E-2,2.169571E-2,-3.1275734E-2,-7.446302E-3,-1.3190188E-2,-3.2230562E-3,1.5575121E-2,3.202778E-2,3.3872684E-3,4.432893E-3,1.4462041E-3,1.8463196E-3,-1.0065469E-3,-7.068965E-4],"categories":[],"categories_nodes":[],"categories_segments":[],"categories_sizes":[],"default_left":[0,0,0,0,0,0,0,0,0,0,0,0,0,0,0],"id":75,"left_children":[1,3,7,5,13,-1,-1,11,9,-1,-1,-1,-1,-1,-1],"loss_changes":[7.5358586E0,1.6314702E0,6.0554886E-1,7.477956E-1,1.5355229E-2,0E0,0E0,1.7170906E-2,3.494358E-2,0E0,0E0,0E0,0E0,0E0,0E0],"parents":[2147483647,0,0,1,1,3,3,2,2,8,8,7,7,4,4],"right_children":[2,4,8,6,14,-1,-1,12,10,-1,-1,-1,-1,-1,-1],"split_conditions":[2.1121377E3,1.3630271E3,2.6349822E3,4.4885327E2,1.6614243E3,-1.3057296E-1,-3.810959E-2,2.2894363E3,3.2735203E3,3.0968972E-2,3.3088036E-2,1.2113495E-2,1.9606171E-2,-1.1611214E-2,-6.6379164E-3],"split_indices":[3,3,3,3,3,0,0,3,3,0,0,0,0,0,0],"split_type":[0,0,0,0,0,0,0,0,0,0,0,0,0,0,0],"sum_hessian":[2.2673E4,1.3093E4,9.58E3,4.247E3,8.846E3,8.9E1,4.158E3,6.026E3,3.554E3,3.112E3,4.42E2,2.043E3,3.983E3,3.264E3,5.582E3],"tree_param":{"num_deleted":"0","num_feature":"5","num_nodes":"15","size_leaf_vector":"1"}},{"base_weights":[-2.5805578E-4,1.4451964E-2,-1.1529921E-2,1.10854E-2,1.2043856E-2,-1.2343968E-3,-5.7906513E-3,1.4192044E-3,9.2846074E-4],"categories":[],"categories_nodes":[],"categories_segments":[],"categories_sizes":[],"default_left":[0,0,0,0,0,0,0,0,0],"id":76,"left_children":[1,3,5,-1,7,-1,-1,-1,-1],"loss_changes":[3.7860477E0,2.0629187E0,1.6730917E-1,0E0,2.923441E-2,0E0,0E0,0E0,0E0],"parents":[2147483647,0,0,1,1,2,2,4,4],"right_children":[2,4,6,-1,8,-1,-1,-1,-1],"split_conditions":[1.8808649E3,6.7754944E2,3.5761194E3,1.7970002E-1,1.7227533E3,-1.3295765E-2,-1.0128876E-1,1.0449715E-2,6.3135526E-3],"split_indices":[4,4,4,0,4,0,0,0,0],"split_type":[0,0,0,0,0,0,0,0,0],"sum_hessian":[2.2796E4,9.885E3,1.2911E4,2.65E2,9.62E3,1.282E4,9.1E1,7.74E3,1.88E3],"tree_param":{"num_deleted":"0","num_feature":"5","num_nodes":"9","size_leaf_vector":"1"}},{"base_weights":[1.7913299E-3,-1.0928582E-2,1.9141493E-2,-1.7013613E-2,-9.931601E-3,1.0669406E-3,3.5067275E-2,-2.157044E-3,-7.304591E-4,3.239468E-3,4.082007E-3],"categories":[],"categories_nodes":[],"categories_segments":[],"categories_sizes":[],"default_left":[0,0,0,0,0,0,0,0,0,0,0],"id":77,"left_children":[1,3,5,-1,7,-1,9,-1,-1,-1,-1],"loss_changes":[5.0447536E0,1.9007264E0,1.4525635E0,0E0,4.1705143E-1,0E0,3.883457E-2,0E0,0E0,0E0,0E0],"parents":[2147483647,0,0,1,1,2,2,4,4,6,6],"right_children":[2,4,6,-1,8,-1,10,-1,-1,-1,-1],"split_conditions":[2.1121377E3,4.4885327E2,2.6349822E3,-1.5151435E-1,1.2726534E3,7.4398043E-3,2.7590305E3,-2.1317367E-2,-8.183365E-3,3.502205E-2,3.0339966E-2],"split_indices":[3,3,3,0,3,0,3,0,0,0,0],"split_type":[0,0,0,0,0,0,0,0,0,0,0],"sum_hessian":[2.2821E4,1.3164E4,9.657E3,8.8E1,1.3076E4,6.069E3,3.588E3,3.307E3,9.769E3,9.79E2,2.609E3],"tree_param":{"num_deleted":"0","num_feature":"5","num_nodes":"11","size_leaf_vector":"1"}},{"base_weights":[3.3675223E-3,-9.347223E-3,1.5896298E-2,-1.0161639E-2,-7.973895E-3,-1.992748E-3,-1.297384E-4,1.3925017E-2,2.5401829E-2,6.968591E-4,1.7339361E-3,2.4621738E-3,3.8674087E-3],"categories":[],"categories_nodes":[],"categories_segments":[],"categories_sizes":[],"default_left":[0,0,0,0,0,0,0,0,0,0,0,0,0],"id":78,"left_children":[1,3,7,-1,5,-1,-1,9,11,-1,-1,-1,-1],"loss_changes":[3.6430867E0,1.2999452E0,2.158351E-1,0E0,7.6846945E-1,0E0,0E0,1.3227904E-1,5.723369E-2,0E0,0E0,0E0,0E0],"parents":[2147483647,0,0,1,1,4,4,2,2,7,7,8,8],"right_children":[2,4,8,-1,6,-1,-1,10,12,-1,-1,-1,-1],"split_conditions":[1.9600896E3,5.7492914E2,2.843321E3,-1.082481E-1,1.404242E3,-2.5520248E-2,-1.3658523E-3,2.1121377E3,3.2735203E3,6.06493E-3,1.5557289E-2,1.6033974E-2,2.6325073E-2],"split_indices":[3,3,3,0,3,0,0,3,3,0,0,0,0],"split_type":[0,0,0,0,0,0,0,0,0,0,0,0,0],"sum_hessian":[2.2829E4,1.1326E4,1.1503E4,1.81E2,1.1145E4,4.463E3,6.682E3,9.541E3,1.962E3,1.874E3,7.667E3,1.512E3,4.5E2],"tree_param":{"num_deleted":"0","num_feature":"5","num_nodes":"13","size_leaf_vector":"1"}},{"base_weights":[-4.07297E-3,-1.32696675E-2,1.0354471E-2,-2.6984304E-2,-8.822362E-4,4.876837E-3,3.0026091E-2,-7.990091E-3,-2.8367904E-3,2.8009494E-3,4.9509704E-3,3.1929518E-4,5.8575923E-4],"categories":[],"categories_nodes":[],"categories_segments":[],"categories_sizes":[],"default_left":[0,0,0,0,0,0,0,0,0,0,0,0,0],"id":79,"left_children":[1,3,5,7,-1,11,9,-1,-1,-1,-1,-1,-1],"loss_changes":[3.0309992E0,1.0036666E0,9.5758414E-1,2.119782E-1,0E0,5.9425533E-3,1.309923E-1,0E0,0E0,0E0,0E0,0E0,0E0],"parents":[2147483647,0,0,1,1,2,2,3,3,6,6,5,5],"right_children":[2,4,6,8,-1,12,10,-1,-1,-1,-1,-1,-1],"split_conditions":[2.1760327E3,1.3263887E3,2.843321E3,4.4885327E2,-8.425064E-3,2.2894363E3,3.2735203E3,-8.87867E-2,-3.802986E-2,2.2447815E-2,3.24926E-2,1.3826371E-3,3.2872772E-3],"split_indices":[3,3,3,3,0,3,3,0,0,0,0,0,0],"split_type":[0,0,0,0,0,0,0,0,0,0,0,0,0],"sum_hessian":[2.2803E4,1.3931E4,8.872E3,3.848E3,1.0083E4,6.946E3,1.926E3,9.3E1,3.755E3,1.486E3,4.4E2,1.336E3,5.61E3],"tree_param":{"num_deleted":"0","num_feature":"5","num_nodes":"13","size_leaf_vector":"1"}},{"base_weights":[-8.7245734E-4,-2.536196E-2,7.693694E-3,9.725391E-3,-6.734068E-2,7.612623E-4,9.733116E-3,-1.4459736E-2,2.2749281E-3,-8.252426E-2,-1.968175E-2,7.4685607E-3,-2.8405213E-3,-2.8382835E-3,-1.5208958E-2],"categories":[],"categories_nodes":[],"categories_segments":[],"categories_sizes":[],"default_left":[0,0,0,0,0,0,0,0,0,0,0,0,0,0,0],"id":80,"left_children":[1,9,3,5,7,-1,-1,-1,-1,13,11,-1,-1,-1,-1],"loss_changes":[4.7907877E0,1.9220223E0,2.5842128E0,3.6393595E0,2.54179E0,0E0,0E0,0E0,0E0,1.6748242E0,2.9088738E0,0E0,0E0,0E0,0E0],"parents":[2147483647,0,0,2,2,3,3,4,4,1,1,10,10,9,9],"right_children":[2,10,4,6,8,-1,-1,-1,-1,14,12,-1,-1,-1,-1],"split_conditions":[5.74E1,3.4E1,9.19E1,8.92E1,9.5E1,7.2102738E-3,7.409256E-2,-1.2463287E-1,2.3664284E-2,2.93E1,3.76E1,7.0571974E-2,-2.6767768E-2,-5.6769945E-2,-1.4938523E-1],"split_indices":[2,2,2,2,2,0,0,0,0,2,2,0,0,0,0],"split_type":[0,0,0,0,0,0,0,0,0,0,0,0,0,0,0],"sum_hessian":[2.2788E4,5.908E3,1.688E4,1.6438E4,4.42E2,1.5876E4,5.62E2,2.56E2,1.86E2,5.3E2,5.378E3,3.5E2,5.028E3,2.65E2,2.65E2],"tree_param":{"num_deleted":"0","num_feature":"5","num_nodes":"15","size_leaf_vector":"1"}},{"base_weights":[-6.981653E-4,-1.4054168E-2,8.548638E-3,1.5022767E-2,-1.1607193E-2,-3.3456704E-3,3.394561E-3,9.889015E-4,6.2015695E-3,-1.5277508E-2,-1.2783145E-2,2.9497412E-3,-1.8090673E-3],"categories":[],"categories_nodes":[],"categories_segments":[],"categories_sizes":[],"default_left":[0,0,0,0,0,0,0,0,0,0,0,0,0],"id":81,"left_children":[1,9,3,7,5,-1,-1,-1,-1,-1,11,-1,-1],"loss_changes":[2.8155797E0,1.4889269E0,1.7585773E0,2.5421903E0,2.6200297E0,0E0,0E0,0E0,0E0,0E0,1.3442881E0,0E0,0E0],"parents":[2147483647,0,0,2,2,4,4,3,3,1,1,10,10],"right_children":[2,10,4,8,6,-1,-1,-1,-1,-1,12,-1,-1],"split_conditions":[6.53E1,2.43E1,8.29E1,8.04E1,8.92E1,-4.0790938E-2,3.169281E-2,9.535369E-3,4.8020095E-2,-2.7217513E-1,3.76E1,2.4258042E-2,-1.7710343E-2],"split_indices":[2,2,2,2,2,0,0,0,0,0,2,0,0],"split_type":[0,0,0,0,0,0,0,0,0,0,0,0,0],"sum_hessian":[2.2748E4,9.311E3,1.3437E4,1.0175E4,3.262E3,2.263E3,9.99E2,8.884E3,1.291E3,9.1E1,9.22E3,7.77E2,8.443E3],"tree_param":{"num_deleted":"0","num_feature":"5","num_nodes":"13","size_leaf_vector":"1"}},{"base_weights":[-1.6576307E-3,-4.12753E-3,6.9519826E-3,-7.0468886E-3,-3.3086573E-3,-1.0133052E-3,-6.9223947E-6],"categories":[],"categories_nodes":[],"categories_segments":[],"categories_sizes":[],"default_left":[0,0,0,0,0,0,0],"id":82,"left_children":[1,3,-1,-1,5,-1,-1],"loss_changes":[3.6698837E0,1.0872016E0,0E0,0E0,4.1657948E-1,0E0,0E0],"parents":[2147483647,0,0,1,1,4,4],"right_children":[2,4,-1,-1,6,-1,-1],"split_conditions":[1.5075087E3,1.7185818E0,6.4426266E-2,-6.890945E-2,1.2104126E2,-9.201355E-3,-3.012848E-4],"split_indices":[1,1,0,0,1,0,0],"split_type":[0,0,0,0,0,0,0],"sum_hessian":[2.2852E4,2.2017E4,8.35E2,2.93E2,2.1724E4,7.693E3,1.4031E4],"tree_param":{"num_deleted":"0","num_feature":"5","num_nodes":"7","size_leaf_vector":"1"}},{"base_weights":[2.7194475E-3,1.763921E-2,-8.673269E-3,1.1352771E-2,1.6784834E-2,7.7563935E-5,-1.4339595E-3,4.283439E-3,1.7997259E-3],"categories":[],"categories_nodes":[],"categories_segments":[],"categories_sizes":[],"default_left":[0,0,0,0,0,0,0,0,0],"id":83,"left_children":[1,3,5,-1,7,-1,-1,-1,-1],"loss_changes":[3.874781E0,7.275262E-1,5.304411E-1,0E0,9.3072414E-2,0E0,0E0,0E0,0E0],"parents":[2147483647,0,0,1,1,2,2,4,4],"right_children":[2,4,6,-1,8,-1,-1,-1,-1],"split_conditions":[1.8808649E3,4.7692648E2,2.2047888E3,1.9514148E-1,6.7754944E2,1.2533951E-3,-1.5546799E-2,1.16127245E-1,1.6102372E-2],"split_indices":[4,4,4,0,4,0,0,0,0],"split_type":[0,0,0,0,0,0,0,0,0],"sum_hessian":[2.2754E4,9.856E3,1.2898E4,9.4E1,9.762E3,4.087E3,8.811E3,1.75E2,9.587E3],"tree_param":{"num_deleted":"0","num_feature":"5","num_nodes":"9","size_leaf_vector":"1"}},{"base_weights":[-1.7501981E-3,4.316505E-3,-2.6332097E-2,7.885275E-3,-7.831845E-4,-1.8504269E-3,-3.3525035E-2,1.3149604E-3,7.119899E-4,-3.2475959E-3,-4.188419E-3,2.656831E-4,-2.574246E-4],"categories":[],"categories_nodes":[],"categories_segments":[],"categories_sizes":[],"default_left":[0,0,0,0,0,0,0,0,0,0,0,0,0],"id":84,"left_children":[1,3,5,7,11,-1,9,-1,-1,-1,-1,-1,-1],"loss_changes":[3.407894E0,3.344524E-1,3.0756855E-1,6.204915E-2,3.833978E-2,0E0,4.4742346E-2,0E0,0E0,0E0,0E0,0E0,0E0],"parents":[2147483647,0,0,1,1,2,2,3,3,6,6,4,4],"right_children":[2,4,6,8,12,-1,10,-1,-1,-1,-1,-1,-1],"split_conditions":[7.6E1,6.4E1,8.1E1,4.8E1,6.8E1,-1.6069641E-2,8.7E1,1.08974455E-2,7.76123E-3,-3.253624E-2,-5.4981116E-2,3.698082E-3,-4.2326734E-3],"split_indices":[0,0,0,0,0,0,0,0,0,0,0,0,0],"split_type":[0,0,0,0,0,0,0,0,0,0,0,0,0],"sum_hessian":[2.2786E4,1.8273E4,4.513E3,1.0763E4,7.51E3,1.953E3,2.56E3,2.749E3,8.014E3,1.383E3,1.177E3,2.434E3,5.076E3],"tree_param":{"num_deleted":"0","num_feature":"5","num_nodes":"13","size_leaf_vector":"1"}},{"base_weights":[-1.5791001E-3,-7.205001E-3,2.4691392E-2,-2.9338866E-2,-4.0760604E-3,2.0971192E-2,5.480792E-2,-7.759071E-4,3.089026E-4,1.3797135E-3,2.9146904E-3,-5.1204683E-3,-2.9611825E-3,5.418196E-3,7.990091E-3],"categories":[],"categories_nodes":[],"categories_segments":[],"categories_sizes":[],"default_left":[0,0,0,0,0,0,0,0,0,0,0,0,0,0,0],"id":85,"left_children":[1,3,5,11,7,9,13,-1,-1,-1,-1,-1,-1,-1,-1],"loss_changes":[3.3638196E0,1.298528E0,4.4975424E-1,9.585369E-2,3.3824506E-1,1.6538382E-1,3.8270593E-2,0E0,0E0,0E0,0E0,0E0,0E0,0E0,0E0],"parents":[2147483647,0,0,1,1,2,2,4,4,5,5,3,3,6,6],"right_children":[2,4,6,12,8,10,14,-1,-1,-1,-1,-1,-1,-1,-1],"split_conditions":[2.5884417E3,1.1210072E3,3.2735203E3,6.649759E2,2.1689478E3,2.7590305E3,3.5556204E3,-7.7041625E-3,4.0916824E-3,2.026203E-2,2.4796829E-2,-5.6613844E-2,-4.8533287E-2,3.2929E-2,8.069313E-2],"split_indices":[3,3,3,3,3,3,3,0,0,0,0,0,0,0,0],"split_type":[0,0,0,0,0,0,0,0,0,0,0,0,0,0,0],"sum_hessian":[2.2722E4,1.8719E4,4.003E3,2.312E3,1.6407E4,3.569E3,4.34E2,1.1465E4,4.942E3,1.424E3,2.145E3,2.75E2,2.037E3,3.41E2,9.3E1],"tree_param":{"num_deleted":"0","num_feature":"5","num_nodes":"15","size_leaf_vector":"1"}},{"base_weights":[2.1558374E-3,-8.509735E-3,1.9663269E-2,-5.5326503E-3,-8.090544E-2,-4.699526E-3,-0E0,7.271596E-2,1.4533765E-2,-2.3061542E-2,-6.60858E-3,2.9343648E-3,3.007316E-4,1.0067087E-3,1.0562026E-2],"categories":[],"categories_nodes":[],"categories_segments":[],"categories_sizes":[],"default_left":[0,0,0,0,0,0,0,0,0,0,0,0,0,0,0],"id":86,"left_children":[1,3,7,5,9,-1,-1,13,11,-1,-1,-1,-1,-1,-1],"loss_changes":[4.2416663E0,3.0436358E0,2.3410358E0,2.7936213E0,1.4779973E0,0E0,0E0,1.1116967E0,1.1225957E0,0E0,0E0,0E0,0E0,0E0,0E0],"parents":[2147483647,0,0,1,1,3,3,2,2,4,4,8,8,7,7],"right_children":[2,4,8,6,10,-1,-1,14,12,-1,-1,-1,-1,-1,-1],"split_conditions":[7.21E1,7.12E1,7.38E1,4.33E1,7.14E1,-4.1409455E-2,-1.3238906E-4,7.3E1,8.11E1,-3.364774E-1,-7.3015824E-2,2.2613144E-2,4.826431E-3,3.439598E-3,9.100898E-2],"split_indices":[2,2,2,2,2,0,0,2,2,0,0,0,0,0,0],"split_type":[0,0,0,0,0,0,0,0,0,0,0,0,0,0,0],"sum_hessian":[2.2673E4,1.4086E4,8.587E3,1.3533E4,5.53E2,1.751E3,1.1782E4,7.53E2,7.834E3,7.4E1,4.79E2,3.855E3,3.979E3,2.04E2,5.49E2],"tree_param":{"num_deleted":"0","num_feature":"5","num_nodes":"15","size_leaf_vector":"1"}},{"base_weights":[-4.5031807E-3,-8.28192E-3,3.5406075E-2,-1.2808963E-2,-5.048381E-4,-2.707208E-3,-1.1548667E-3,3.339942E-2,8.162366E-3,-3.346233E-4,3.473558E-4,3.4703382E-3,4.4637932E-3],"categories":[],"categories_nodes":[],"categories_segments":[],"categories_sizes":[],"default_left":[0,0,0,0,0,0,0,0,0,0,0,0,0],"id":87,"left_children":[1,3,7,5,9,-1,-1,11,-1,-1,-1,-1,-1],"loss_changes":[3.4519508E0,7.3455E-1,1.5360165E-1,3.6013365E-1,7.281265E-2,0E0,0E0,2.3392677E-2,0E0,0E0,0E0,0E0,0E0],"parents":[2147483647,0,0,1,1,3,3,2,2,4,4,7,7],"right_children":[2,4,8,6,10,-1,-1,12,-1,-1,-1,-1,-1],"split_conditions":[2.843321E3,2.1121377E3,3.5556204E3,1.0935432E3,2.4950994E3,-3.6339644E-2,-1.2593117E-2,3.2735203E3,6.816002E-2,-2.6834488E-3,7.3067853E-3,2.9851532E-2,2.9321136E-2],"split_indices":[3,3,3,3,3,0,0,3,0,0,0,0,0],"split_type":[0,0,0,0,0,0,0,0,0,0,0,0,0],"sum_hessian":[2.2845E4,2.0873E4,1.972E3,1.3183E4,7.69E3,2.147E3,1.1036E4,1.881E3,9.1E1,4.562E3,3.128E3,1.516E3,3.65E2],"tree_param":{"num_deleted":"0","num_feature":"5","num_nodes":"13","size_leaf_vector":"1"}},{"base_weights":[-1.7036982E-3,1.3742556E-2,-1.3518307E-2,8.530206E-3,1.3150317E-2,-8.564475E-3,-1.5874604E-2,1.5652989E-3,9.344196E-4,-1.7154238E-3,-2.4238052E-3,-9.357144E-4,-1.0702997E-3],"categories":[],"categories_nodes":[],"categories_segments":[],"categories_sizes":[],"default_left":[0,0,0,0,0,0,0,0,0,0,0,0,0],"id":88,"left_children":[1,3,5,-1,7,11,9,-1,-1,-1,-1,-1,-1],"loss_changes":[4.171235E0,3.7923098E-1,1.5046406E-1,0E0,4.863298E-2,2.669394E-4,1.51638985E-2,0E0,0E0,0E0,0E0,0E0,0E0],"parents":[2147483647,0,0,1,1,2,2,4,4,6,6,5,5],"right_children":[2,4,6,-1,8,12,10,-1,-1,-1,-1,-1,-1],"split_conditions":[1.8808649E3,4.7692648E2,2.21285E3,1.4806259E-1,1.7227533E3,2.2047888E3,3.3633599E3,1.3076935E-2,5.53957E-3,-1.6160278E-2,-5.7358246E-2,-1.0811005E-2,-3.692375E-2],"split_indices":[4,4,4,0,4,4,4,0,0,0,0,0,0],"split_type":[0,0,0,0,0,0,0,0,0,0,0,0,0],"sum_hessian":[2.2821E4,9.886E3,1.2935E4,8.7E1,9.799E3,4.188E3,8.747E3,7.931E3,1.868E3,8.391E3,3.56E2,4.099E3,8.9E1],"tree_param":{"num_deleted":"0","num_feature":"5","num_nodes":"13","size_leaf_vector":"1"}},{"base_weights":[4.6092817E-3,2.1602059E-2,-8.36189E-3,8.162366E-3,2.31951E-3,-8.114751E-3,-4.1975304E-3,-0E0,-9.1727084E-4],"categories":[],"categories_nodes":[],"categories_segments":[],"categories_sizes":[],"default_left":[0,0,0,0,0,0,0,0,0],"id":89,"left_children":[1,3,5,-1,-1,7,-1,-1,-1],"loss_changes":[5.023312E0,2.7060986E-1,9.791958E-2,0E0,0E0,2.3330033E-2,0E0,0E0,0E0],"parents":[2147483647,0,0,1,1,2,2,5,5],"right_children":[2,4,6,-1,-1,8,-1,-1,-1],"split_conditions":[1.8808649E3,4.7692648E2,3.5761194E3,1.4778145E-1,2.064703E-2,1.9046892E3,-7.139065E-2,1.0718899E-2,-8.444786E-3],"split_indices":[4,4,4,0,0,4,0,0,0],"split_type":[0,0,0,0,0,0,0,0,0],"sum_hessian":[2.2753E4,9.853E3,1.29E4,9.1E1,9.762E3,1.28E4,1E2,3.44E2,1.2456E4],"tree_param":{"num_deleted":"0","num_feature":"5","num_nodes":"9","size_leaf_vector":"1"}},{"base_weights":[1.531118E-3,-1.1660644E-2,1.2553238E-2,-9.448696E-3,-1.239872E-2,-1.2686923E-3,1.1004139E-2,2.0053208E-2,-8.580048E-3,-3.1431138E-3,1.8297909E-3,2.10685E-3,2.3973074E-2],"categories":[],"categories_nodes":[],"categories_segments":[],"categories_sizes":[],"default_left":[0,0,0,0,0,0,0,0,0,0,0,0,0],"id":90,"left_children":[1,3,7,5,-1,-1,-1,11,9,-1,-1,-1,-1],"loss_changes":[3.3183055E0,2.3269463E0,1.9736061E0,2.3319392E0,0E0,0E0,0E0,1.6488233E0,1.6491036E0,0E0,0E0,0E0,0E0],"parents":[2147483647,0,0,1,1,3,3,2,2,8,8,7,7],"right_children":[2,4,8,6,-1,-1,-1,12,10,-1,-1,-1,-1],"split_conditions":[6.73E1,6.69E1,8.29E1,6.64E1,-1.4963615E-1,-1.1962432E-2,1.3680092E-1,8.28E1,8.76E1,-3.2793883E-2,2.4943694E-2,1.809639E-2,1.9826385E-1],"split_indices":[2,2,2,2,0,0,0,2,2,0,0,0,0],"split_type":[0,0,0,0,0,0,0,0,0,0,0,0,0],"sum_hessian":[2.2781E4,1.0365E4,1.2416E4,1.0146E4,2.19E2,9.959E3,1.87E2,9.168E3,3.248E3,1.814E3,1.434E3,9.129E3,3.9E1],"tree_param":{"num_deleted":"0","num_feature":"5","num_nodes":"13","size_leaf_vector":"1"}},{"base_weights":[1.576741E-3,1.6656945E-2,-1.0021421E-2,-1.0413807E-3,-9.248519E-3,3.4942774E-3,1.8152472E-3],"categories":[],"categories_nodes":[],"categories_segments":[],"categories_sizes":[],"default_left":[0,0,0,0,0,0,0],"id":91,"left_children":[1,5,3,-1,-1,-1,-1],"loss_changes":[3.9873312E0,2.3962498E-2,5.351392E-1,0E0,0E0,0E0,0E0],"parents":[2147483647,0,0,2,2,1,1],"right_children":[2,6,4,-1,-1,-1,-1],"split_conditions":[1.8808649E3,4.7692648E2,3.5761194E3,-1.0646515E-2,-1.1655735E-1,8.579399E-2,1.5939979E-2],"split_indices":[4,4,4,0,0,0,0],"split_type":[0,0,0,0,0,0,0],"sum_hessian":[2.2756E4,9.897E3,1.2859E4,1.2767E4,9.2E1,8.9E1,9.808E3],"tree_param":{"num_deleted":"0","num_feature":"5","num_nodes":"7","size_leaf_vector":"1"}},{"base_weights":[9.1461104E-4,-6.3556195E-3,2.0548668E-2,1.4238445E-1,1.6975537E-2,-4.5517613E-3,-7.418815E-2,-3.4898162E-2,-5.073088E-3,-7.88325E-4,6.7021693E-3,4.015075E-3,7.92945E-4,1.4064525E-2,1.7253721E-2],"categories":[],"categories_nodes":[],"categories_segments":[],"categories_sizes":[],"default_left":[0,0,0,0,0,0,0,0,0,0,0,0,0,0,0],"id":92,"left_children":[1,5,3,13,11,9,7,-1,-1,-1,-1,-1,-1,-1,-1],"loss_changes":[3.267208E0,2.0456176E0,2.6976626E0,1.4228821E-3,1.1452191E0,2.7885516E0,2.9315133E0,0E0,0E0,0E0,0E0,0E0,0E0,0E0,0E0],"parents":[2147483647,0,0,2,2,1,1,6,6,5,5,4,4,3,3],"right_children":[2,6,4,14,12,10,8,-1,-1,-1,-1,-1,-1,-1,-1],"split_conditions":[7.72E1,7.66E1,7.77E1,7.74E1,8.11E1,7.52E1,7.68E1,-3.047097E-1,